svm_type c_svc
kernel_type linear
nr_class 3
total_sv 13839
rho -0.0647697 -0.999593 -0.999599
label 0 1 2
nr_sv 6583 6495 761
SV
0.8913809424451097 0 3627:1 6005:1 11305:1 12982:1 15110:1 15646:1 16283:1 18178:1 18905:1 23128:1 
1 0 1809:1 6009:1 
1 0 2192:1 3006:1 5526:1 6826:1 10114:1 
0.1572669789665299 0 574:1 5870:1 14534:1 15654:1 17621:1 19205:1 19996:1 20293:1 
0.1096508407322036 0 81:1 1207:1 4192:1 8227:1 8714:1 10289:1 11366:1 14690:1 15913:1 16815:1 
1 0.0410878519492783 4789:1 14495:1 14938:1 16838:1 20871:1 21968:1 
0.9896367858266777 0 628:1 3264:1 7012:1 10228:1 10647:1 12937:1 17038:1 20258:1 22970:1 
0.4397938561970413 0 1489:1 17885:1 19287:1 19951:1 20991:1 
1 0 3006:1 
0.8528907760430782 0 1281:1 11675:1 18060:1 18215:1 
0.7057838346073519 0 2476:1 4053:1 5053:1 5388:1 8102:1 8478:1 9599:1 16759:1 16857:1 
0.5929663746299835 0 1423:1 9845:1 17043:1 21952:1 
0.3257746422141239 0 3207:1 7220:1 7376:1 16408:1 18321:1 19395:1 19526:1 22143:1 
0.2265004921112633 0 2242:1 5436:1 15913:1 16932:1 22628:1 
0 0.003125282174080758 60:1 2175:1 2563:1 4640:1 5844:1 5955:1 6811:1 17983:1 18290:1 22900:1 
1 0 2663:1 5535:1 13780:1 22141:1 22292:1 23641:1 23800:1 
0.9029933589843391 0 7882:1 7919:1 19514:1 20147:1 
1 0 5257:1 6009:1 11330:1 16127:1 
0.1375240009993487 0 2485:1 3521:1 3894:1 4006:1 4029:1 5324:1 8328:1 9899:1 10623:1 10674:1 11792:1 12054:1 13125:1 13731:1 17979:1 19587:1 20991:1 23117:1 
0.7907375409120151 0 3141:1 3376:1 6661:1 6894:1 8167:1 8496:1 15434:1 15935:1 16321:1 20485:1 20664:1 
0.2238348898803711 0 3435:1 8572:1 13362:1 15558:1 18462:1 
0.8603395798857051 0.01217607970004402 9552:1 17944:1 19003:1 
0.9088726634927208 0 43:1 8112:1 9634:1 10323:1 11575:1 16920:1 17242:1 19299:1 
0.6136117808644347 0 821:1 2242:1 2494:1 5669:1 10663:1 15913:1 17500:1 18533:1 18632:1 20338:1 23490:1 
0.2359859550386207 0 2091:1 3642:1 10715:1 19538:1 19802:1 
0.08901228531749217 0.0819206778900443 618:1 3830:1 4200:1 6998:1 8596:1 8816:1 11122:1 12253:1 12436:1 13050:1 15248:1 17294:1 22544:1 24065:1 
0.4622156311354515 0.2563387857111453 1694:1 1766:1 3774:1 8873:1 9462:1 19957:1 20347:1 21864:1 
0.02051603630583905 0 1646:1 3887:1 4789:1 5324:1 6294:1 8901:1 12087:1 12665:1 20713:1 20933:1 
0.1160247503193045 0 4105:1 4176:1 6335:1 6625:1 6675:1 7684:1 7974:1 7994:1 9872:1 9955:1 10351:1 10925:1 11991:1 12601:1 13810:1 15387:1 16334:1 18246:1 
0.2049891655098156 0.001429415840965228 419:1 6260:1 6805:1 8940:1 14537:1 15277:1 18041:1 18533:1 18546:1 19929:1 22230:1 22903:1 23781:1 
0.8321025133310943 0 3814:1 5047:1 14274:1 15024:1 
0.8932880419731803 0 4989:1 15783:1 19205:1 20065:1 
0.692286021925631 0.04791602831696768 863:1 8597:1 9157:1 19769:1 19990:1 23196:1 23265:1 
0.6991862946837825 0 7380:1 15516:1 16659:1 17256:1 
0.05487480411759047 0 2052:1 2640:1 6661:1 7907:1 13059:1 14175:1 18977:1 23080:1 
0.5597696216327295 0 485:1 2376:1 2854:1 6552:1 19205:1 
0.3732785597991315 0 14:1 43:1 308:1 1227:1 10674:1 12745:1 15689:1 15972:1 21881:1 
0.3313691111715993 0 2090:1 2753:1 6811:1 8448:1 10884:1 11917:1 16513:1 17702:1 17944:1 19427:1 
0.06861035260434403 0 574:1 4500:1 5631:1 8984:1 9354:1 15697:1 17181:1 20244:1 20749:1 22762:1 23881:1 
0.2351636877567886 0 10351:1 11287:1 14011:1 21750:1 22740:1 23972:1 
0.1851488227068772 0 866:1 2192:1 4060:1 6925:1 8749:1 8905:1 10851:1 10915:1 11352:1 16759:1 20021:1 21503:1 21950:1 
0.3115889080747998 0 3866:1 16375:1 17124:1 17369:1 20049:1 20179:1 22254:1 
0.7144327360859235 0 1972:1 3808:1 4142:1 6791:1 7268:1 8102:1 20651:1 23636:1 
0.3216458814257134 0 2630:1 3595:1 5417:1 6039:1 10319:1 11267:1 12427:1 14145:1 18801:1 22373:1 
0.4091426009281557 0 22970:1 23151:1 23526:1 24181:1 
1 0 4359:1 19205:1 21658:1 24335:1 
0.2486844388378078 0.002997713046519299 442:1 826:1 4640:1 6688:1 12283:1 15689:1 22625:1 
0.937474479481078 0 4789:1 8700:1 11617:1 15913:1 24229:1 
0.01370642999972735 0 2447:1 3338:1 5417:1 6196:1 7492:1 8816:1 13419:1 15363:1 15913:1 17689:1 23709:1 24157:1 
1 0 16475:1 
0.6059464868691632 0 2661:1 4557:1 11203:1 12390:1 15471:1 18779:1 19205:1 
0.3295920668552688 0 4594:1 6784:1 12082:1 14653:1 15865:1 15963:1 19569:1 23445:1 
0 0.0008369008138791598 268:1 1178:1 2080:1 2136:1 2702:1 6196:1 6432:1 6989:1 11880:1 12136:1 14375:1 16817:1 20152:1 23522:1 
0.3290793732249355 0 55:1 1035:1 1186:1 1853:1 4078:1 4975:1 7873:1 10623:1 19205:1 21777:1 23511:1 
1 0 5324:1 6766:1 9822:1 14173:1 17130:1 18179:1 19205:1 
0.2140802912662181 0 9322:1 10036:1 10777:1 16546:1 18748:1 21237:1 
0.1663399576350801 0 3858:1 4832:1 4975:1 5324:1 6333:1 14475:1 15913:1 16061:1 16293:1 18645:1 
0.9819169524519153 0 2249:1 3585:1 4375:1 8529:1 12427:1 19205:1 21860:1 
0.6930966844846619 0 1178:1 2247:1 4653:1 11453:1 12102:1 12745:1 15273:1 18906:1 19222:1 19838:1 20745:1 21798:1 21801:1 22637:1 23249:1 
0.3056717120219463 0 5737:1 10479:1 14993:1 16162:1 16534:1 16715:1 17799:1 21325:1 21480:1 22033:1 22520:1 22760:1 
1 0 19205:1 20933:1 
0.2750168091708292 0 6555:1 10283:1 11244:1 16914:1 18041:1 18602:1 19295:1 23228:1 
0.6957246559407319 0 6623:1 8175:1 8812:1 14892:1 15895:1 17445:1 22452:1 
0 0.1779151326848588 3368:1 5887:1 8157:1 9022:1 11810:1 14127:1 19038:1 
1 0 2745:1 2813:1 5198:1 6196:1 11246:1 13731:1 14375:1 16150:1 18645:1 23710:1 
0.5038942418780699 0 1415:1 3044:1 4471:1 6176:1 6403:1 10823:1 12418:1 14493:1 20496:1 
0.09109899545706526 0 4390:1 16659:1 16751:1 21477:1 
1 0 4789:1 6791:1 17184:1 
0.1492382056754598 0 910:1 2254:1 6196:1 6731:1 7947:1 9303:1 9741:1 10093:1 13767:1 19484:1 20140:1 23850:1 
0.1961154291778289 0 5324:1 6375:1 14468:1 20927:1 
0.3507019490543971 0 3948:1 4832:1 5047:1 5661:1 12559:1 14453:1 18297:1 21496:1 22017:1 
0.3681569196102316 0 3579:1 5324:1 6260:1 6916:1 16759:1 18645:1 19786:1 22280:1 23274:1 
0.4259561851694822 0 2640:1 3043:1 4789:1 5324:1 5745:1 7117:1 7929:1 10751:1 11260:1 15737:1 16474:1 18295:1 18940:1 22373:1 23071:1 
0.9388030554548975 0 1973:1 2935:1 5005:1 5268:1 6989:1 10150:1 10228:1 10623:1 10993:1 14827:1 15174:1 15310:1 
1 0 2485:1 6766:1 8246:1 9348:1 10114:1 10744:1 13883:1 20742:1 22146:1 22461:1 
0.3041025459096391 0 4654:1 8319:1 10999:1 13175:1 15013:1 15059:1 15443:1 16206:1 17286:1 20636:1 21899:1 
0.430000051754836 0 1222:1 4480:1 4604:1 5021:1 5198:1 6766:1 8739:1 10114:1 12460:1 13888:1 14245:1 18078:1 19211:1 20933:1 21064:1 22303:1 22663:1 22754:1 
0.6000917706433019 0 1191:1 1697:1 8597:1 12745:1 12786:1 18076:1 
0.3257349934153627 0 8331:1 12706:1 12928:1 13355:1 14091:1 15534:1 21513:1 
0.5637035507958783 0 225:1 2249:1 5161:1 6137:1 14277:1 21806:1 22270:1 22657:1 
0.8560929936978487 0.00727145378728283 2663:1 3785:1 6154:1 15246:1 17629:1 21008:1 
0.7317667215983864 0 2099:1 2193:1 8099:1 15435:1 17783:1 19049:1 19205:1 20623:1 21510:1 
0.3167601355700233 0.01104598265039079 3261:1 7827:1 8616:1 11962:1 14328:1 15689:1 16901:1 22573:1 
0.5959882616463728 0 3535:1 16659:1 17196:1 18602:1 
0.03609864696858026 0 4557:1 5324:1 15428:1 19962:1 23216:1 
0.3351499759317377 0 1314:1 9970:1 16655:1 18042:1 19205:1 21987:1 
0.2721889608957164 0 212:1 3999:1 5629:1 9659:1 12997:1 13090:1 15323:1 15913:1 21258:1 
0.473397331138009 0 2249:1 3833:1 10683:1 12427:1 12674:1 18645:1 20603:1 21114:1 23578:1 
0.5848639646909445 0 912:1 1191:1 1259:1 4789:1 8201:1 9355:1 10831:1 14524:1 17528:1 18771:1 19050:1 
0 0.007713698983868859 120:1 2693:1 4772:1 9136:1 10927:1 12407:1 13537:1 15025:1 15349:1 20337:1 21266:1 23324:1 
0 0.01197454592006414 11:1 43:1 370:1 444:1 3702:1 3852:1 8043:1 9765:1 11667:1 12496:1 14032:1 14819:1 17578:1 18082:1 18719:1 19929:1 21570:1 
0.2284671205414942 0.009905557666930694 2376:1 6260:1 7962:1 9180:1 10281:1 15802:1 21518:1 23759:1 
0.837552505406423 0 1191:1 5654:1 6196:1 15443:1 18503:1 18771:1 20973:1 
0.4566413936550894 0 370:1 1191:1 6749:1 8303:1 12689:1 13811:1 16849:1 21314:1 21995:1 22511:1 23159:1 
1 0.1349923659213839 6405:1 15315:1 
0 0.0228602134808358 1054:1 2032:1 4113:1 12676:1 16213:1 16832:1 18131:1 22419:1 24235:1 
0.7410604595619916 0 2400:1 2431:1 6989:1 7070:1 7444:1 8080:1 9851:1 11245:1 17589:1 
0.2034927769805871 0 2869:1 5412:1 5535:1 6423:1 15913:1 16956:1 23647:1 
0.2341986912006062 0 8167:1 9157:1 15366:1 19205:1 21807:1 22524:1 23940:1 
0.2888661751207842 0 1012:1 5246:1 8877:1 9200:1 9975:1 13102:1 15839:1 15913:1 16881:1 17056:1 18602:1 18984:1 23056:1 
0.02032927548515051 0 1325:1 1423:1 3722:1 4527:1 6375:1 8379:1 9636:1 16098:1 17583:1 18798:1 19131:1 
0.3967070597415148 0 11583:1 21797:1 23423:1 
0.08546460585704843 0 764:1 3953:1 5198:1 5311:1 5324:1 6393:1 8529:1 14288:1 18093:1 21896:1 23445:1 
0.5407005227239262 0 848:1 2787:1 6840:1 8506:1 14032:1 15443:1 15519:1 18215:1 19287:1 20095:1 22659:1 23649:1 23811:1 
1 0 4832:1 12315:1 13212:1 23763:1 
0.14676158997454 0 1207:1 9945:1 10190:1 10679:1 15059:1 16302:1 20751:1 20766:1 21896:1 22336:1 22420:1 23291:1 
0.06754056526969456 0 2388:1 6009:1 8746:1 12315:1 18602:1 21910:1 21956:1 
0.03718608628662707 0 4446:1 13634:1 14447:1 15015:1 15223:1 16744:1 
0.05947828546168456 0 5324:1 5535:1 6254:1 6260:1 6784:1 10939:1 11955:1 14653:1 21658:1 
0.9187287365592309 0 12745:1 13480:1 18221:1 
0 0.0008650232018379397 1185:1 1469:1 5813:1 10821:1 17595:1 23463:1 24159:1 
0.2284285327798737 0 782:1 8546:1 12688:1 17085:1 
0.07860049170411469 0 5024:1 5368:1 8873:1 14032:1 14375:1 14822:1 15780:1 17331:1 
1 0 764:1 3072:1 3850:1 6447:1 9544:1 11464:1 15315:1 15913:1 17817:1 17945:1 18446:1 
1 0 1423:1 10114:1 16181:1 
1 0 6989:1 19205:1 
0.2470704193356847 0 370:1 6645:1 6925:1 10146:1 12205:1 13328:1 15913:1 16701:1 18041:1 22480:1 23590:1 
0.01688253191909102 0 918:1 5324:1 7713:1 10995:1 21567:1 
1 0 1588:1 2559:1 5047:1 
0.1135014860583154 0 83:1 1593:1 3582:1 9189:1 12745:1 15499:1 18881:1 22482:1 23003:1 23416:1 
1 0 2447:1 6260:1 10661:1 14653:1 17299:1 20452:1 
1 0 3185:1 10053:1 15913:1 21607:1 23697:1 
0.1985663563832263 0.05924246082625467 1139:1 4625:1 9865:1 10114:1 12674:1 15437:1 18041:1 18838:1 22302:1 
0.2370942168413648 0 4359:1 7819:1 10100:1 17199:1 20357:1 21783:1 22017:1 
0.9309964547993597 0 446:1 14375:1 
1 0 6375:1 8235:1 10214:1 15913:1 17621:1 18061:1 
0.2564985819756401 0 2991:1 8295:1 12597:1 14375:1 18571:1 19004:1 21675:1 23006:1 24331:1 
0.4499921760971946 0 1631:1 1903:1 8272:1 9505:1 11673:1 12059:1 16375:1 17792:1 19022:1 20318:1 23229:1 23511:1 24228:1 
0.6121982930494364 0 2694:1 5594:1 9509:1 13659:1 19205:1 20042:1 20602:1 
0.5609106130066305 0 10114:1 12745:1 21695:1 21818:1 
0.4950283347694397 0 173:1 826:1 1156:1 1872:1 3385:1 4276:1 5613:1 9328:1 11444:1 18433:1 
0.1537578341394375 0 2005:1 4258:1 5574:1 10367:1 12112:1 13080:1 13277:1 14653:1 20942:1 21392:1 23151:1 
0.2328358785160007 0 1631:1 4280:1 4692:1 5921:1 6159:1 8938:1 16208:1 18405:1 18645:1 20185:1 
0.5245538367271673 0 11:1 2661:1 3164:1 4100:1 8615:1 14611:1 
0.6458403175690619 0 1200:1 4167:1 8016:1 10100:1 15586:1 19427:1 
1 0.02288509209235167 5285:1 14031:1 14918:1 20900:1 
0.02794242973756867 0 2242:1 3875:1 7259:1 13105:1 14653:1 
0.3561966299293348 0 4186:1 6579:1 7457:1 12542:1 15874:1 17368:1 18076:1 18478:1 20527:1 21749:1 
0.2352064874145391 0.04676508926570073 3290:1 5797:1 8890:1 11530:1 17578:1 
0.1760469563236919 0 283:1 370:1 1451:1 3431:1 3915:1 10064:1 11133:1 15495:1 16354:1 18261:1 18498:1 18503:1 19399:1 20090:1 22821:1 23444:1 24129:1 
0 0.01585473689185466 1587:1 5667:1 7551:1 7885:1 10623:1 12054:1 22348:1 23467:1 
0.791191893014628 0 13561:1 15083:1 15913:1 18341:1 18356:1 18455:1 
0.4518539319090155 0 2431:1 2478:1 11245:1 13844:1 16293:1 19863:1 22775:1 23237:1 
0.08677352907773446 0 1318:1 1319:1 2402:1 2810:1 2900:1 3646:1 8078:1 8901:1 12745:1 14468:1 17944:1 18277:1 
1 0 7224:1 13249:1 13434:1 
1 0.03309356913675212 2549:1 4629:1 9659:1 13850:1 14819:1 20547:1 
1 0 18645:1 
0.5652093614590491 0 1156:1 15248:1 19205:1 20253:1 22543:1 
0.05782533862582671 0 3850:1 5877:1 6766:1 11512:1 13451:1 15284:1 15913:1 22657:1 
1 0 5035:1 13671:1 17864:1 20990:1 
0.5965961552003886 0 255:1 1580:1 3894:1 6196:1 7894:1 14489:1 15218:1 20990:1 
0.2450496603355407 0 480:1 3244:1 3957:1 9572:1 9881:1 10008:1 10773:1 11330:1 11908:1 14050:1 14453:1 16080:1 20095:1 20902:1 21392:1 22249:1 22334:1 
1 0 10608:1 17256:1 21414:1 
0.2358762097334619 0.01611322025050964 1630:1 3264:1 6765:1 7904:1 10931:1 11785:1 13513:1 14990:1 15209:1 16894:1 19205:1 23749:1 
0.5664541155912198 0.001381689070807841 1762:1 2376:1 4900:1 9081:1 9727:1 10949:1 14976:1 15271:1 22881:1 
1 0 6423:1 8493:1 19205:1 21306:1 21749:1 
0.08731064293631981 0 1026:1 1909:1 3754:1 4898:1 5065:1 6874:1 7339:1 10114:1 16283:1 20115:1 23071:1 
0.4540210069427605 0 706:1 7619:1 8857:1 16545:1 17671:1 18215:1 20323:1 20681:1 
0.1257275480260178 0 216:1 4969:1 6308:1 13270:1 19205:1 22736:1 
0 0.1846802121368763 60:1 918:1 7088:1 23658:1 
0.3177753085918151 0.2326019791735649 381:1 682:1 10114:1 14260:1 23766:1 
0.1269557080285623 0.05356320479155746 1231:1 2361:1 6852:1 7743:1 7791:1 9904:1 10663:1 10715:1 12816:1 13801:1 20070:1 23242:1 
0.8351716366894395 0 9104:1 14245:1 18750:1 20021:1 
0.9244238842468097 0 654:1 2063:1 7382:1 8018:1 9359:1 19953:1 23846:1 
0.1577985588175417 0 60:1 1139:1 3568:1 4830:1 12890:1 18357:1 21530:1 21806:1 21864:1 
0.682936008614926 0 2559:1 6383:1 16815:1 17261:1 17672:1 17926:1 18988:1 20127:1 
0.4925154570486614 0 4445:1 5438:1 11281:1 14091:1 17829:1 18926:1 
1 0.006533382061481401 6344:1 10316:1 11788:1 16061:1 18357:1 
0 0.01869262357351172 1156:1 1207:1 2047:1 10631:1 19356:1 19951:1 
0.09130133900563493 0 4568:1 5289:1 6210:1 7075:1 8324:1 8728:1 10280:1 11498:1 14453:1 15913:1 19103:1 19107:1 20140:1 23508:1 
0.3124294638377056 0 4153:1 4167:1 12426:1 13853:1 14187:1 18215:1 20167:1 22543:1 
0.4074197400875246 0 1210:1 2912:1 4418:1 5715:1 7382:1 7885:1 10801:1 12985:1 15102:1 17173:1 17427:1 22598:1 
0.2177782264020096 0 60:1 5327:1 7426:1 8047:1 15913:1 16181:1 19495:1 
1 0 7468:1 10999:1 15622:1 23986:1 
0.2654748840168139 0 1191:1 2113:1 15901:1 20674:1 20923:1 
1 0 4137:1 6294:1 6375:1 7577:1 16659:1 18719:1 19205:1 20506:1 20623:1 23569:1 23766:1 
0.6384620293618243 0 372:1 3638:1 15913:1 16597:1 19935:1 21008:1 24146:1 
0.003536287052690471 0 279:1 6749:1 8952:1 15804:1 17441:1 22229:1 
0.5446948275628583 0 1191:1 2798:1 3640:1 4850:1 6932:1 9776:1 9970:1 10994:1 15311:1 16908:1 17554:1 
1 0 2484:1 6784:1 8171:1 15913:1 21939:1 24335:1 
1 0.05689239443123126 1873:1 1954:1 14110:1 
0.04325351680776442 0 56:1 773:1 5737:1 14596:1 14918:1 16299:1 
0.2791453084176278 0 63:1 3371:1 5382:1 9838:1 12745:1 13069:1 13375:1 13622:1 13717:1 18648:1 
1 0 4789:1 22864:1 
1 0 44:1 11978:1 15315:1 15516:1 17490:1 18645:1 21952:1 
0 0.01377037152573763 628:1 2376:1 4688:1 6451:1 7460:1 8475:1 19580:1 24190:1 
0.3797786813226543 0.02109477323933267 37:1 5728:1 9688:1 14004:1 14941:1 15008:1 15310:1 18686:1 19205:1 21600:1 24049:1 
1 0 2707:1 6094:1 6260:1 6661:1 8167:1 13383:1 18330:1 18801:1 23071:1 
0.6591201416669651 0.01681627527275127 53:1 4359:1 7194:1 11464:1 12112:1 13080:1 14556:1 16605:1 21274:1 22100:1 23416:1 23880:1 
0.9959642448589041 0 4560:1 6199:1 6780:1 7355:1 11292:1 12294:1 14949:1 15989:1 17708:1 19248:1 22528:1 
0.04303484912009913 0.05242370731072053 1423:1 6196:1 6655:1 10364:1 12309:1 16370:1 21292:1 
0.328345794595343 0 1017:1 7467:1 8506:1 15917:1 19205:1 21623:1 
0 0.007409336538179664 4207:1 4988:1 6336:1 7664:1 8444:1 10114:1 11669:1 12215:1 15469:1 17806:1 20788:1 21544:1 21895:1 23986:1 24352:1 
1 0.06125471741702475 6688:1 9189:1 17020:1 24213:1 
0.2965897964141923 0 7302:1 8449:1 12578:1 15443:1 18967:1 20021:1 20167:1 21749:1 22209:1 22488:1 
0.1563601028034716 0 3552:1 8370:1 11860:1 15311:1 15913:1 18215:1 21807:1 23272:1 
0.1956037149818546 0 3436:1 10228:1 13993:1 19046:1 19205:1 
0.1474589999375848 0 14204:1 14828:1 19951:1 
1 0 1192:1 4572:1 16980:1 18017:1 20372:1 
1 0 225:1 5176:1 7880:1 23183:1 
1 0 5324:1 5556:1 6260:1 6319:1 11245:1 13826:1 14453:1 16624:1 16920:1 17465:1 19427:1 
0.422341036958503 0 1346:1 7818:1 9391:1 14215:1 14873:1 15913:1 22422:1 
1 0 4480:1 5532:1 15689:1 16902:1 19205:1 19701:1 20377:1 
1 0 2663:1 14447:1 
0.1496352261819062 0 48:1 156:1 3303:1 4333:1 7669:1 8828:1 13871:1 16694:1 17578:1 18602:1 21115:1 21198:1 21910:1 23822:1 
0 0.004665073188664425 3006:1 3264:1 11003:1 11415:1 12112:1 14578:1 20296:1 22229:1 23728:1 24102:1 
0.03805176445974446 0 156:1 370:1 3493:1 8684:1 10281:1 10973:1 11407:1 12864:1 14411:1 17408:1 
0.2436698967168923 0 1580:1 3556:1 3635:1 6277:1 6852:1 8867:1 9642:1 20095:1 24025:1 
1 0.01246248532931467 1156:1 10323:1 11970:1 13121:1 19858:1 
0 0.003450201738081693 370:1 2920:1 11498:1 14800:1 15474:1 15516:1 16751:1 16997:1 20900:1 
0.6799211611883269 0 266:1 7851:1 8426:1 10629:1 13550:1 14822:1 15090:1 16693:1 17423:1 17621:1 19360:1 20717:1 24293:1 
0.08577400867891767 0 3043:1 7567:1 14075:1 19216:1 20019:1 20045:1 21086:1 21229:1 
0.1231900836587381 0 11331:1 18645:1 
1 0.01779409246292804 1985:1 8869:1 14642:1 
0.6500966752949737 0 1191:1 3793:1 9971:1 
0.1533710645051076 0 469:1 1156:1 6260:1 8326:1 8983:1 10922:1 12426:1 12941:1 14598:1 15913:1 18602:1 20871:1 22264:1 
0.4986815140646029 0 7532:1 12148:1 20021:1 22625:1 
0.1189551326805962 0 417:1 1191:1 2559:1 3702:1 3866:1 4888:1 10586:1 16061:1 16639:1 18760:1 20728:1 22635:1 
1 0.02834263843768962 912:1 2559:1 10346:1 17600:1 
0.6234177013473466 0 60:1 654:1 1438:1 3363:1 3517:1 3806:1 5775:1 7607:1 9536:1 9828:1 15913:1 16980:1 20152:1 22078:1 23364:1 
0.5151501918809954 0 16932:1 19364:1 20460:1 
1 0 2918:1 15189:1 19146:1 
1 0 14155:1 19205:1 20635:1 
0.185582150812457 0 1742:1 2142:1 5381:1 8713:1 9189:1 13384:1 16651:1 16780:1 
0.3929855316086928 0 244:1 2431:1 8865:1 11047:1 12527:1 12963:1 13249:1 14053:1 15913:1 18602:1 19205:1 19489:1 22392:1 
0.1946846246251618 0 9587:1 9765:1 18083:1 21993:1 22696:1 
0.5639419839022684 0 1848:1 3006:1 3371:1 5305:1 8511:1 10663:1 12907:1 18338:1 18632:1 20635:1 21598:1 22526:1 
0.08642479941583474 0 1640:1 9094:1 18317:1 
1 0.1826756714679509 961:1 8529:1 12839:1 
1 0 10661:1 
0.5589597364417538 0 3806:1 4471:1 5805:1 11865:1 15689:1 16173:1 19403:1 21577:1 
0.03399977488832463 0 6991:1 12199:1 13144:1 13384:1 14312:1 14776:1 18645:1 
0.5874200982476738 0 3006:1 9587:1 18352:1 
0.3458912215238784 0 1241:1 1742:1 2606:1 5737:1 6682:1 7727:1 13250:1 13985:1 19196:1 24044:1 
0.3925755670336523 0 250:1 15913:1 16178:1 18938:1 21503:1 23730:1 
0.2188455822466262 0 1156:1 4348:1 11214:1 11963:1 12491:1 16606:1 17080:1 23438:1 
1 0 2249:1 15689:1 15913:1 16483:1 23491:1 
0.5691580394268357 0 1156:1 2787:1 3481:1 4610:1 6791:1 9904:1 15913:1 17244:1 
1 0 1259:1 2431:1 2485:1 4629:1 9065:1 10424:1 18602:1 19872:1 21910:1 23050:1 
0.247917650764504 0 5778:1 7899:1 9577:1 12597:1 
0.5769521915224008 0 8877:1 9622:1 11049:1 11493:1 15913:1 17480:1 21889:1 
0.2534749694382299 0 3493:1 15593:1 22668:1 
0.6488988066874607 0 120:1 2693:1 12407:1 19205:1 21456:1 23938:1 
0.2986584827600536 0 5540:1 5981:1 8865:1 9296:1 14453:1 16178:1 16673:1 
0.4972185456094367 0 1207:1 2484:1 3850:1 10834:1 14941:1 15094:1 16473:1 23195:1 
1 0.1781564108998799 3659:1 5427:1 6035:1 9765:1 23766:1 
0 0.04687211618429726 3886:1 5137:1 6489:1 7235:1 13270:1 13276:1 14315:1 14328:1 16162:1 20933:1 
1 0 120:1 6331:1 6393:1 19205:1 
1 0 1478:1 7269:1 13754:1 14410:1 14653:1 18185:1 21371:1 23618:1 
0.4264759419308997 0 937:1 3042:1 5324:1 5870:1 15913:1 18251:1 18801:1 18807:1 22546:1 
0.2836104496324938 0 710:1 2587:1 3689:1 4271:1 6749:1 6930:1 8152:1 10114:1 10623:1 10664:1 11795:1 11902:1 14464:1 18685:1 20807:1 21398:1 
0.1845785990355832 0 3044:1 3550:1 4276:1 6014:1 6361:1 7732:1 10307:1 12371:1 13811:1 14005:1 15930:1 16777:1 18912:1 20536:1 21484:1 22740:1 23270:1 
0.8314735726147208 0 2854:1 4186:1 6387:1 12524:1 14151:1 15626:1 18948:1 
0.827157544722216 0 3364:1 4610:1 8241:1 9094:1 10521:1 14159:1 19634:1 
0.7137344101641656 0 2707:1 5412:1 12065:1 15093:1 15913:1 20749:1 21306:1 
0.7295175957006775 0 4852:1 10414:1 13746:1 21536:1 
0.01493352143014211 0 4065:1 5132:1 7131:1 7771:1 14976:1 15059:1 15913:1 16517:1 21750:1 22389:1 22740:1 
0.3167982247476127 0 1082:1 2753:1 3568:1 4832:1 4882:1 5065:1 9200:1 12215:1 14129:1 15366:1 
0 0.003929712686757024 173:1 3535:1 4226:1 5870:1 8896:1 12195:1 14052:1 14468:1 16549:1 
1 0 3638:1 9543:1 13731:1 14173:1 14187:1 18321:1 18645:1 20622:1 
0.3558838167210508 0 2636:1 4501:1 6196:1 7402:1 8015:1 10405:1 12751:1 15161:1 16374:1 17242:1 18817:1 23725:1 
0.7876309625523693 0 2919:1 3006:1 5324:1 9860:1 11245:1 17127:1 18602:1 21271:1 
0.1593980637298895 0 2367:1 2658:1 5066:1 6447:1 6870:1 7532:1 9838:1 11860:1 15086:1 19175:1 
0.982943020132246 0 2431:1 3364:1 5324:1 8171:1 12997:1 14063:1 16018:1 17294:1 17454:1 20742:1 
0.5921377252683896 0 359:1 2447:1 7885:1 10085:1 10171:1 11246:1 11292:1 23071:1 23546:1 
0.2442744294233452 0 2419:1 3043:1 3192:1 3579:1 5034:1 6989:1 7915:1 8166:1 16849:1 18399:1 22146:1 
0 0.09883326390110238 1368:1 8610:1 13249:1 14293:1 14929:1 16049:1 16641:1 17256:1 18602:1 18645:1 
0.5520305125400978 0 5021:1 11355:1 11762:1 
0.5415138373807854 0 2444:1 3371:1 8956:1 8966:1 10674:1 11587:1 15756:1 16409:1 19205:1 19322:1 21749:1 
1 0 120:1 1156:1 6261:1 6791:1 14375:1 15688:1 16080:1 20095:1 21426:1 22419:1 
0.1873361882161614 0 1412:1 1674:1 9975:1 9996:1 11268:1 12112:1 17877:1 18817:1 19205:1 20990:1 21750:1 
0.211484672702199 0 1192:1 3556:1 11347:1 14447:1 20866:1 22373:1 24156:1 
0.1629643578930797 0 7382:1 14245:1 14338:1 15687:1 15913:1 21385:1 24337:1 
0.8909695434250599 0 4281:1 5065:1 8197:1 9386:1 13969:1 14110:1 17621:1 18196:1 23071:1 
0.3246774166588672 0 211:1 628:1 2689:1 5065:1 8307:1 10573:1 11602:1 14091:1 15913:1 17173:1 17840:1 19205:1 21956:1 22254:1 22736:1 
0.1455427921889525 0.08561691252463612 2136:1 3494:1 6196:1 7220:1 7412:1 13212:1 17394:1 17991:1 23699:1 
0.9433186837560152 0.02587911353135357 3273:1 3364:1 13250:1 13434:1 22436:1 
1 0 10114:1 10994:1 21685:1 
0.3576036703883546 0 1156:1 1191:1 17454:1 19205:1 19427:1 20049:1 20527:1 
0.4916464141405132 0 1519:1 2843:1 2918:1 3382:1 4647:1 5945:1 6196:1 14653:1 20244:1 20428:1 23910:1 
0.4745666652388555 0 83:1 1207:1 2797:1 3500:1 4557:1 7467:1 13126:1 14822:1 15202:1 15913:1 18602:1 
0.3956084719904711 0 3894:1 6090:1 11001:1 16001:1 16744:1 
0.9514095158084097 0 3582:1 5269:1 6213:1 6925:1 8373:1 9960:1 14126:1 18602:1 18676:1 
0.1140392795524521 0 4069:1 4568:1 4693:1 7506:1 7801:1 10530:1 13856:1 14949:1 17678:1 19103:1 19205:1 19804:1 
0.7951920945437281 0 5526:1 10228:1 11675:1 11833:1 20797:1 23622:1 
0.2225923844136731 0.02214719948403768 3550:1 11994:1 15259:1 16503:1 18964:1 
0.5011769382601718 0 2831:1 6766:1 10661:1 12986:1 13720:1 21432:1 
1 0 6989:1 9096:1 19205:1 
0.6815482367403132 0 1443:1 6602:1 9478:1 10066:1 14173:1 15516:1 16539:1 16639:1 17913:1 19555:1 21325:1 
1 0 2280:1 
1 0 894:1 1017:1 9514:1 9537:1 10507:1 13577:1 
1 0 9484:1 
0.4186720423863824 0 9974:1 12995:1 18645:1 20127:1 
0.5809490289659566 0 3052:1 3493:1 3623:1 12953:1 20585:1 20905:1 
1 0 19205:1 22229:1 
1 0 12452:1 15625:1 16080:1 23689:1 
1 0.1237329081860952 3072:1 6998:1 12705:1 21867:1 
0.2274755773886558 0 1954:1 2911:1 7069:1 9961:1 15579:1 17740:1 
0.415202506579905 0 974:1 1191:1 1821:1 15689:1 17159:1 17490:1 18806:1 20325:1 20724:1 
0.1049038784197333 0 6791:1 10671:1 20095:1 22090:1 22761:1 23058:1 
0.2166381616106049 0 378:1 1196:1 1259:1 3129:1 3535:1 5101:1 14907:1 15913:1 17414:1 23811:1 
0.8371851138244811 0 8022:1 9993:1 10507:1 15731:1 16103:1 23089:1 
0.4753498215345389 0.02490715856523761 950:1 7635:1 7677:1 9416:1 
0.4506899610050079 0.01680975199845159 1368:1 6447:1 7551:1 9177:1 12745:1 14929:1 18898:1 22152:1 
1 0 4969:1 17706:1 19634:1 20742:1 21620:1 23071:1 23891:1 
1 0.0500041645069533 1993:1 4832:1 5669:1 6158:1 7507:1 22928:1 
0.2494190396876137 0 1650:1 8697:1 9724:1 9765:1 12812:1 20293:1 
0.08807684444013275 0 60:1 2563:1 3638:1 3806:1 3962:1 4464:1 5476:1 5540:1 13745:1 18215:1 18290:1 24249:1 
0.5265859850097553 0 2168:1 3261:1 4783:1 6791:1 13893:1 16221:1 17454:1 19848:1 20095:1 21016:1 
0.4402967381111443 0 2108:1 3371:1 3450:1 4043:1 5565:1 10332:1 11965:1 13419:1 18414:1 18435:1 18948:1 21119:1 21608:1 22630:1 23245:1 23324:1 23338:1 
1 0 3850:1 14293:1 15913:1 
0.8938661807779344 0 11243:1 20162:1 
0 0.03996768653039343 5340:1 7017:1 7759:1 13693:1 13709:1 14004:1 15025:1 15315:1 15913:1 21806:1 
0.2122672952806648 0 5975:1 8315:1 14137:1 15167:1 15689:1 17926:1 21111:1 21314:1 21414:1 24145:1 
0.8370490064832387 0 1191:1 9986:1 15901:1 
0.2166467390548087 0 3582:1 4802:1 8246:1 13919:1 14459:1 15499:1 15512:1 18926:1 21153:1 
0.7371541368918378 0 1650:1 4990:1 6260:1 10307:1 12237:1 15024:1 16178:1 16275:1 16375:1 21750:1 22223:1 22681:1 
0.4586183939919852 0 2204:1 4850:1 5324:1 8835:1 10896:1 16902:1 21029:1 
0.3155525661189731 0 1191:1 6758:1 18715:1 18898:1 
0.06173402617502963 0 6375:1 6997:1 7818:1 8607:1 18029:1 
0.5021845974222661 0 672:1 8440:1 8530:1 9097:1 24146:1 
0.06026853087871508 0 2506:1 5079:1 5387:1 8587:1 10503:1 10681:1 17580:1 18274:1 22373:1 
0.5348144632375605 0 2636:1 5805:1 12294:1 12773:1 
0.125385927579364 0 9161:1 9939:1 10596:1 12315:1 13793:1 15913:1 16539:1 17119:1 19205:1 23142:1 
1 0 8511:1 10414:1 18948:1 
0.1387788555492441 0 2179:1 5066:1 8639:1 8791:1 14524:1 15901:1 15972:1 21881:1 22953:1 
0.1136567722842847 0 1640:1 2598:1 2624:1 6550:1 6772:1 7426:1 8464:1 9116:1 13440:1 14447:1 15457:1 22543:1 23320:1 
0.07395480408183056 0.02305398050104195 1549:1 2278:1 7236:1 7669:1 9506:1 15731:1 17130:1 18753:1 23658:1 
0.1068821399683836 0 4499:1 8193:1 8382:1 9067:1 9617:1 11734:1 12037:1 17909:1 19567:1 22392:1 24182:1 
0.5307939553602093 0 419:1 1630:1 5040:1 8526:1 15443:1 16654:1 20127:1 
0.9346567233829411 0 1178:1 11902:1 15311:1 15913:1 17237:1 18551:1 
0.5294585464994165 0.0158573643634196 665:1 6287:1 6920:1 8114:1 11922:1 14627:1 17289:1 17348:1 
0.1741325926993524 0 4056:1 5117:1 8475:1 14489:1 17957:1 20633:1 24151:1 
0.3097696831168656 0 10294:1 20428:1 
0.3028470439081086 0 225:1 3852:1 4121:1 6791:1 9696:1 11292:1 12694:1 13250:1 17202:1 
0.1039792670068064 0.04136333379791465 1433:1 1562:1 1729:1 2166:1 4753:1 5491:1 14468:1 14799:1 15901:1 18321:1 23080:1 23290:1 
0.7745003860599863 0.003739475587009487 4702:1 10045:1 20019:1 20212:1 21806:1 
0.2180547120367272 0 1924:1 2151:1 7568:1 9505:1 10240:1 15085:1 15646:1 16436:1 22279:1 
0.3689150395293427 0 482:1 1412:1 11624:1 14676:1 15438:1 18022:1 22755:1 23511:1 
0.3367131233881578 0.0524583353337104 722:1 1419:1 6260:1 13743:1 15065:1 15310:1 18965:1 22711:1 22771:1 23463:1 
0.5136673440054409 0 2693:1 5412:1 9816:1 9986:1 19003:1 
0.7747462613545369 0 1210:1 7532:1 19205:1 19474:1 20021:1 21248:1 
0.4328119809971865 0 1156:1 2376:1 4830:1 12112:1 13797:1 13818:1 14895:1 15913:1 19578:1 20172:1 
0.6016046639355421 0.07931136776598473 3101:1 6900:1 9053:1 16178:1 
0.0788439624112527 0 4663:1 5894:1 9124:1 11323:1 12408:1 13433:1 14653:1 15799:1 20585:1 23425:1 
0.3377144086856669 0 1227:1 1319:1 3044:1 5528:1 8863:1 10307:1 15655:1 19229:1 19486:1 22914:1 23574:1 
0.02003887983466238 0 109:1 2063:1 6251:1 6859:1 15298:1 15310:1 18290:1 21414:1 
0.1236499488506776 0 2113:1 5526:1 5540:1 7379:1 9776:1 11245:1 15913:1 17752:1 19552:1 20749:1 
0.2663237253153704 0 989:1 5053:1 5215:1 8987:1 9516:1 15168:1 24335:1 
0.4484788737078421 0 5268:1 5661:1 10085:1 15460:1 16623:1 16668:1 18668:1 19934:1 21319:1 21606:1 23071:1 23522:1 
0.1948612632584608 0 3579:1 8901:1 8912:1 10089:1 10190:1 13811:1 14484:1 15075:1 16404:1 17901:1 23836:1 
0.1741414845129932 0.1367356905405814 1156:1 7034:1 13901:1 16765:1 
1 0 988:1 1207:1 2169:1 2478:1 8805:1 8831:1 8877:1 9945:1 18600:1 18771:1 24344:1 
0.590274847128949 0 488:1 2707:1 3006:1 9544:1 15913:1 18926:1 19529:1 
1 0 1191:1 9986:1 12991:1 18898:1 
0.02805404908624438 0 4134:1 5628:1 10319:1 10548:1 11772:1 15471:1 15913:1 16475:1 20253:1 21967:1 
0.02182477748836883 0 2984:1 3270:1 3926:1 9595:1 11255:1 11772:1 12299:1 16080:1 16759:1 16827:1 
0.3254698521759769 0 11:1 1156:1 8328:1 11794:1 23763:1 
0.08204935952644361 0 1156:1 1599:1 5369:1 12410:1 15192:1 15963:1 18261:1 18651:1 23120:1 
0 0.08500515149953602 2286:1 2478:1 6932:1 7839:1 9964:1 10171:1 13844:1 16763:1 17402:1 20609:1 20990:1 21205:1 
0.3400989444178186 0 339:1 3051:1 4807:1 5065:1 
1 0.140878398654773 9441:1 15433:1 
1 0.4199690644618216 7402:1 12284:1 17550:1 18429:1 20147:1 24293:1 
1 0 5526:1 6375:1 18645:1 20590:1 
0.5899688850136386 0 3267:1 11080:1 11483:1 13077:1 
0.07391826180149377 0 5528:1 6204:1 7974:1 8956:1 10464:1 16312:1 17260:1 17943:1 19205:1 21542:1 23220:1 23322:1 24074:1 
1 0 60:1 3582:1 4629:1 4716:1 5324:1 6094:1 6894:1 11561:1 12315:1 14110:1 
0.8288674174933807 0 1649:1 2640:1 5412:1 6087:1 6260:1 12082:1 15689:1 15913:1 18286:1 
0.8349529765897838 0.02523336540377893 5065:1 9599:1 10047:1 11259:1 15803:1 16181:1 17639:1 21908:1 24157:1 
1 0 1156:1 8328:1 8639:1 14110:1 24267:1 
0.1788719683767202 0 359:1 2485:1 5942:1 7637:1 12864:1 16080:1 16870:1 17080:1 18533:1 20021:1 22373:1 
0.8353288083896522 0 1156:1 1341:1 2467:1 2684:1 2694:1 8328:1 17457:1 
0.3499688167503346 0 3371:1 3668:1 6870:1 9097:1 15901:1 15913:1 21008:1 
0.7580739481512155 0 2146:1 3031:1 3806:1 8850:1 15477:1 18602:1 18987:1 21910:1 23492:1 
0.4677045708327172 0 2194:1 5629:1 17600:1 17636:1 19287:1 
0.01307642996057266 0.05007139519322112 2136:1 2488:1 3321:1 3486:1 6178:1 7725:1 8901:1 10516:1 11417:1 13464:1 17232:1 17835:1 17872:1 19982:1 22392:1 
1 0 346:1 3006:1 14447:1 17269:1 19205:1 20919:1 
0.711841266779178 0 6094:1 6294:1 7945:1 9402:1 12825:1 17933:1 18602:1 23754:1 
0.7190507512292061 0 4789:1 9094:1 10283:1 12253:1 12745:1 18942:1 19205:1 24335:1 
1 0 15284:1 18645:1 20293:1 
0.2351776688176666 0 134:1 614:1 2272:1 6260:1 7771:1 11323:1 12524:1 15514:1 15913:1 17370:1 17414:1 21783:1 24133:1 
0.4544368543393697 0 173:1 5065:1 9896:1 12112:1 13871:1 14345:1 16997:1 20672:1 22743:1 
1 0 7399:1 8639:1 17944:1 18602:1 20079:1 21398:1 
0.5925036813283949 0 14075:1 15913:1 19587:1 23893:1 
1 0 1191:1 3488:1 6925:1 12938:1 15901:1 17600:1 17944:1 19205:1 
0.4428458740773369 0 3866:1 9786:1 13176:1 16291:1 19323:1 21559:1 22840:1 
0.2365690098043533 0 6593:1 6926:1 7518:1 9200:1 9435:1 10679:1 10758:1 10955:1 11886:1 15231:1 18446:1 18984:1 21598:1 22230:1 22336:1 
0.2299985233318761 0 2071:1 2360:1 3493:1 9975:1 12125:1 17369:1 18667:1 20179:1 20318:1 
1 0 6010:1 9724:1 16017:1 18215:1 
1 0 2431:1 3957:1 5066:1 6094:1 8873:1 15055:1 16080:1 19205:1 20127:1 20319:1 23071:1 
0.07894108973268503 0 606:1 2156:1 3555:1 6199:1 11106:1 12134:1 16137:1 18752:1 18767:1 19589:1 21598:1 22543:1 
0.6772589068233469 0 1017:1 4845:1 5269:1 5326:1 8079:1 8509:1 13278:1 13351:1 13509:1 16904:1 17418:1 22129:1 
1 0 2859:1 5169:1 9445:1 
0.8911156427511588 0 18396:1 22814:1 
0 0.1575836197843954 2753:1 3550:1 10802:1 15622:1 
0.4075273125287433 0 4066:1 5805:1 9574:1 14572:1 15913:1 16623:1 22146:1 
1 0 6223:1 19189:1 
0.6883220568348916 0 5387:1 6784:1 13671:1 20525:1 22618:1 
0.208548015637089 0 527:1 6814:1 8413:1 10228:1 14122:1 15477:1 16080:1 18754:1 18876:1 20799:1 21371:1 
0.2200686720666104 0 2753:1 16738:1 21266:1 
0.06667376585546099 0 2311:1 10715:1 11994:1 12689:1 13270:1 15284:1 15860:1 18602:1 21974:1 
0.3649773385992835 0 268:1 2376:1 2447:1 4277:1 6432:1 8102:1 9228:1 10405:1 12878:1 13731:1 15913:1 18645:1 22129:1 
0.536275487840584 0 2559:1 3962:1 12727:1 15913:1 17081:1 
0.2193978113517141 0 72:1 2290:1 3894:1 7515:1 14317:1 14690:1 15795:1 
0.07166087823673171 0 1156:1 12667:1 12918:1 15428:1 15901:1 
0.3253287570469939 0.003445635828522696 1191:1 5433:1 9647:1 18398:1 18841:1 
0.01522776317032025 0 1712:1 3851:1 5215:1 9415:1 15913:1 18338:1 19205:1 24165:1 
0.07651593314401095 0 1258:1 3866:1 4415:1 9986:1 11605:1 11860:1 14436:1 14974:1 16427:1 18623:1 21743:1 23941:1 
0 0.001470113445944332 3339:1 4171:1 4208:1 4218:1 5552:1 6805:1 7995:1 9547:1 9552:1 11570:1 14045:1 14585:1 16199:1 16347:1 18540:1 20024:1 20095:1 20202:1 22828:1 23963:1 
0.003365970844781073 0 108:1 977:1 2814:1 4512:1 5037:1 12545:1 15024:1 18779:1 19205:1 22767:1 
1 0 403:1 5324:1 13867:1 19222:1 
0.04978018046526825 0 2559:1 7093:1 8102:1 12889:1 17194:1 20175:1 23511:1 24271:1 
0.8250355743172908 0 156:1 3010:1 3894:1 5574:1 7290:1 10927:1 10998:1 17621:1 20095:1 
0.8235624658638238 0.01062087222711504 7727:1 12706:1 15601:1 16061:1 17227:1 20928:1 21749:1 
0.3541011252429336 0 2623:1 4889:1 10114:1 11185:1 15698:1 16162:1 17704:1 19205:1 20749:1 21760:1 22273:1 23913:1 
0.4427935893106217 0 4663:1 6162:1 8192:1 9867:1 11777:1 13518:1 14907:1 22230:1 
0.4406159942656472 0.01288638355094771 1186:1 1945:1 2694:1 4271:1 5743:1 9486:1 11810:1 12745:1 14202:1 15315:1 15825:1 
0.6888507564989722 0 3866:1 4947:1 10269:1 15542:1 15811:1 
0.5448539295607576 0 1156:1 1208:1 1319:1 4078:1 6032:1 10961:1 14172:1 14227:1 14653:1 15913:1 
0.7608174540465645 0 60:1 1293:1 3667:1 7881:1 16684:1 18801:1 19205:1 22208:1 
0.2469129241098542 0 1848:1 5065:1 5305:1 7471:1 8223:1 9616:1 12492:1 12653:1 15689:1 17247:1 18507:1 18820:1 21002:1 21230:1 21774:1 
0.6241331482723094 0 1161:1 4078:1 5035:1 7864:1 8223:1 10150:1 12215:1 18357:1 21927:1 23689:1 23731:1 
0.01451799603002839 0 2446:1 4176:1 7684:1 9872:1 9955:1 10351:1 11073:1 11442:1 16432:1 16540:1 17837:1 18008:1 18541:1 19642:1 20002:1 
0.9554823752862286 0 4572:1 8464:1 10228:1 
0.1057428568619073 0 348:1 4645:1 5471:1 7994:1 12853:1 12898:1 13026:1 16178:1 18594:1 
0.1942468757768478 0 3866:1 5324:1 7812:1 16153:1 16178:1 16837:1 
0.3975300698576043 0 1650:1 1751:1 1930:1 2904:1 5388:1 11618:1 13801:1 13891:1 14992:1 15443:1 16600:1 22387:1 23689:1 
0.6794929321857727 0 4976:1 11122:1 12417:1 12525:1 16080:1 20038:1 20140:1 20575:1 
1 0 2571:1 2787:1 7973:1 8542:1 16098:1 
0.293054249246384 0 5101:1 10464:1 12745:1 14303:1 17702:1 
0.304806080803158 0 2559:1 2779:1 6421:1 7147:1 19911:1 21806:1 
1 0.1243187135338376 1593:1 5212:1 6757:1 10672:1 15756:1 
1 0 782:1 1156:1 3006:1 3676:1 6196:1 6757:1 11925:1 12112:1 16110:1 23071:1 
1 0 4629:1 8475:1 12808:1 14272:1 
0.4699369347138611 0 4095:1 4338:1 10617:1 
0.7003051949730238 0.1728590060128527 5215:1 6633:1 14329:1 19570:1 22596:1 23324:1 
0.06351957825288979 0 654:1 2906:1 9592:1 11285:1 12979:1 13003:1 14050:1 15218:1 15687:1 20175:1 20627:1 23994:1 
0.2575262968371874 0.006074255526596235 2136:1 6055:1 6219:1 11560:1 11634:1 11798:1 15433:1 15486:1 15973:1 17173:1 18865:1 21860:1 22698:1 
0.160352535519797 0 6974:1 15133:1 15913:1 16758:1 19939:1 20774:1 
0.7469804838221602 0 9456:1 11977:1 12614:1 13369:1 15577:1 18750:1 19254:1 21627:1 22839:1 
0 0.01556378057123989 173:1 1412:1 4411:1 5065:1 6406:1 6580:1 7133:1 8478:1 8666:1 17792:1 20645:1 22487:1 
0 0.01730742508728735 370:1 4866:1 8444:1 8576:1 10134:1 10965:1 11403:1 13384:1 15963:1 16118:1 16954:1 18233:1 20127:1 22091:1 
0.5586105812718716 0 9228:1 9536:1 15315:1 17347:1 18645:1 19174:1 21044:1 
0.9748805005915104 0 1210:1 3072:1 15913:1 20887:1 24337:1 
0.172002494806161 0 2877:1 5962:1 9765:1 11252:1 18811:1 18953:1 19928:1 23537:1 
1 0 10727:1 12941:1 15913:1 
0 0.02853196265186871 2559:1 2689:1 3702:1 3866:1 7185:1 7413:1 7761:1 10112:1 18838:1 24095:1 24271:1 
0.3743507516540997 0.05782442703245502 4348:1 10042:1 10589:1 22046:1 
0.596621186829525 0 1599:1 2918:1 5257:1 6989:1 13295:1 18651:1 19407:1 20928:1 
0.1048612544617154 0 1941:1 12112:1 12712:1 12861:1 14489:1 17957:1 18428:1 19878:1 20712:1 
0.1814828646091306 0 316:1 2960:1 3638:1 4889:1 5278:1 8288:1 10281:1 10670:1 12745:1 15019:1 18039:1 18075:1 19205:1 20165:1 20991:1 
0.5629431099440124 0 654:1 1062:1 10457:1 13785:1 16721:1 18771:1 19587:1 20649:1 22795:1 
0.3731596090038042 0.002169063094010977 6094:1 7889:1 8639:1 11755:1 16917:1 17578:1 
0.3975557320831092 0 15913:1 21218:1 22730:1 
0.9235859795096764 0 1191:1 2192:1 6989:1 8135:1 18532:1 18697:1 
0.2726274037734992 0 821:1 2494:1 3189:1 10089:1 12545:1 19205:1 23908:1 
0.8170744840417486 0.06006478720789714 1839:1 5629:1 15055:1 15224:1 16306:1 20049:1 21827:1 
0 0.006445659824291784 1646:1 13540:1 15194:1 21749:1 
0.4046173602947259 0 3020:1 5941:1 6543:1 18148:1 19205:1 19580:1 22463:1 22504:1 
0.406703302142774 0 4883:1 5257:1 6766:1 8869:1 12036:1 14245:1 15369:1 18304:1 18686:1 24274:1 
0.1817997214292932 0 6260:1 13684:1 15689:1 15913:1 16035:1 23150:1 24237:1 
0.1201352739651118 0 262:1 6337:1 7684:1 8879:1 18048:1 20097:1 20305:1 
1 0 2447:1 4121:1 11142:1 16130:1 18801:1 22981:1 
0.4071804402817734 0 1210:1 2787:1 2869:1 5412:1 6196:1 6900:1 8706:1 9902:1 16956:1 21710:1 21864:1 
0.8366443044032893 0 7671:1 9445:1 11497:1 24293:1 
1 0 1478:1 9505:1 16882:1 
0.1066747410382049 0 1694:1 2247:1 2632:1 3096:1 6253:1 6749:1 7671:1 12943:1 19262:1 20401:1 20742:1 22840:1 
0.7658871909160313 0 679:1 2684:1 4943:1 6127:1 6688:1 14810:1 15187:1 16162:1 18645:1 
1 0 2447:1 4874:1 14159:1 
1 0 10647:1 10661:1 17127:1 
0.1799668964327696 0.009007018668078799 334:1 2116:1 2964:1 4176:1 7684:1 7974:1 7994:1 8462:1 9531:1 10352:1 12601:1 13026:1 13229:1 17934:1 18106:1 18577:1 19635:1 
0.5303975241226989 0 4338:1 4406:1 8873:1 12315:1 12427:1 23689:1 
1 0 7503:1 
0.3840621844521242 0 1191:1 2494:1 2902:1 4246:1 5496:1 7616:1 9157:1 16852:1 22146:1 
0.08677537050487834 0 849:1 1315:1 4832:1 5493:1 10149:1 15032:1 17060:1 23272:1 
0.2089514771164724 0 6989:1 15686:1 15689:1 15913:1 16127:1 18503:1 20668:1 
0.3641473660559247 0 527:1 6894:1 7402:1 7475:1 10413:1 10528:1 13927:1 14432:1 21314:1 22502:1 
0.7050132103179528 0 2478:1 5324:1 6260:1 6505:1 8144:1 8167:1 14447:1 19392:1 20120:1 20389:1 21750:1 
0.01621038671835053 0 3995:1 4873:1 5591:1 7737:1 12282:1 15884:1 16659:1 19802:1 
0.8401258209331607 0 1278:1 4338:1 4572:1 6781:1 13968:1 
0.1921455784955464 0 1631:1 2376:1 4706:1 5065:1 5324:1 12215:1 12386:1 18357:1 19022:1 23229:1 
0.09343412990702954 0.03416584406148115 799:1 4480:1 8080:1 10999:1 11100:1 12819:1 15032:1 15981:1 21191:1 
0.7157285810323113 0 156:1 1156:1 6336:1 6890:1 18322:1 19951:1 20225:1 21570:1 
0.4474976004264666 0 1973:1 5005:1 6870:1 13673:1 15002:1 15901:1 16849:1 17173:1 19950:1 21335:1 21860:1 23412:1 
0 0.005024538185773426 1827:1 5257:1 5368:1 6989:1 13254:1 17578:1 21432:1 
0.1854150307857914 0 682:1 10323:1 12745:1 15060:1 16488:1 20793:1 22817:1 23071:1 
0.2974495485579409 0 2640:1 3037:1 3894:1 6442:1 6894:1 10228:1 12112:1 12578:1 13555:1 23071:1 
0.9386600751980337 0 3364:1 6749:1 7243:1 13249:1 19552:1 
0.6021658583112373 0 8791:1 10995:1 11245:1 11860:1 13688:1 15723:1 23704:1 24018:1 
0.4507023121086925 0 782:1 6865:1 14050:1 19205:1 
0.02752694576020721 0 1549:1 1809:1 3848:1 8133:1 8740:1 17080:1 18283:1 19081:1 21860:1 
0.6295357903990746 0 2376:1 5349:1 5588:1 9200:1 15366:1 16900:1 17689:1 23177:1 23913:1 
1 0 156:1 595:1 3261:1 5387:1 6964:1 10114:1 10665:1 10965:1 15689:1 16299:1 17349:1 19205:1 21691:1 
1 0 8506:1 10589:1 11561:1 22310:1 
0.1825110516900338 0 5583:1 9514:1 10450:1 17656:1 18575:1 
1 0 1478:1 2634:1 8610:1 11902:1 
0.5023188195841414 0 1191:1 2245:1 2313:1 2640:1 5540:1 6196:1 8200:1 11340:1 12168:1 14042:1 17641:1 19231:1 20115:1 20923:1 
1 0 7155:1 11270:1 
0.9335441619670826 0 3493:1 3668:1 4610:1 4660:1 5035:1 5101:1 5958:1 7055:1 10623:1 11700:1 23689:1 
1 0 2869:1 4542:1 19205:1 23998:1 
0.3535016427415116 0 173:1 747:1 8874:1 12531:1 14613:1 15913:1 16224:1 
0.01617561006529017 0.03031954894185198 270:1 6393:1 10263:1 12806:1 13501:1 16080:1 16546:1 17961:1 19899:1 20748:1 
0.1766910229651764 0 1503:1 1864:1 4789:1 4929:1 6960:1 9755:1 10017:1 10801:1 
0.1522043522072156 0 11912:1 15913:1 18858:1 21454:1 
1 0 2447:1 8102:1 13834:1 22776:1 24080:1 
0.5445253729974435 0 1012:1 3850:1 5526:1 5737:1 10757:1 15689:1 19514:1 20250:1 20801:1 20901:1 24209:1 
0.3106100443888121 0 6500:1 7684:1 14373:1 15387:1 17328:1 21481:1 
0.4404600726476104 0 3521:1 4900:1 7754:1 12032:1 12528:1 13907:1 19555:1 23674:1 
0.3625887524554698 0 826:1 2640:1 3956:1 9765:1 13671:1 15194:1 15311:1 19392:1 20590:1 23425:1 
0.03455133672329914 0 430:1 2496:1 5176:1 7118:1 10346:1 11669:1 12224:1 14742:1 17637:1 19262:1 21750:1 23071:1 
0.2108309790365116 0 4346:1 8807:1 11245:1 12314:1 13701:1 15913:1 23150:1 
0.4740250740704606 0 326:1 3294:1 4078:1 8613:1 10143:1 13325:1 15913:1 19573:1 
0.1767653601993457 0.06502276532852791 2707:1 2788:1 5006:1 5257:1 6094:1 6868:1 14103:1 14690:1 15416:1 16007:1 16080:1 21484:1 21849:1 23412:1 23881:1 
0.7695497432130274 0 4661:1 7468:1 10548:1 13097:1 16375:1 19297:1 21314:1 22612:1 
0.3038095452039115 0.01494015050076272 368:1 3411:1 3967:1 4346:1 6319:1 11709:1 12061:1 14954:1 19455:1 23146:1 
1 0 3321:1 3850:1 
0.3428552553656685 0 1630:1 5143:1 6199:1 7251:1 9862:1 11245:1 15621:1 
0.9349689734676143 0 1326:1 
1 0 6130:1 6989:1 18534:1 22960:1 
1 0 3493:1 8285:1 11826:1 17262:1 17623:1 21086:1 21513:1 
1 0 3508:1 7093:1 7947:1 17621:1 18700:1 20318:1 
0.9638611328766842 0 3006:1 4789:1 7918:1 12547:1 14537:1 16181:1 16224:1 23781:1 
0.09710713448579003 0 1774:1 2906:1 3667:1 9149:1 14110:1 23822:1 
1 0 782:1 12477:1 14453:1 15366:1 15913:1 16882:1 23039:1 
1 0 5288:1 6766:1 19205:1 22146:1 22229:1 22651:1 
0.1120436358476621 0 2559:1 5349:1 5711:1 19205:1 19754:1 22254:1 23294:1 23632:1 
0.7263670953345975 0 1079:1 8888:1 11748:1 15913:1 17665:1 18938:1 21371:1 21503:1 
0.1336794288628702 0 58:1 2835:1 2930:1 4281:1 6466:1 7991:1 8033:1 8215:1 8506:1 15241:1 21987:1 22636:1 
0.5977358457932278 0 975:1 1631:1 4773:1 10070:1 11618:1 16077:1 18575:1 19198:1 23076:1 
0.1547388129210656 0 5324:1 9097:1 15371:1 16178:1 16659:1 16759:1 
1 0.005085528924716864 11301:1 17476:1 20990:1 
0.3187315299260931 0 4276:1 10263:1 10597:1 14926:1 16607:1 16659:1 
0.7000266358747917 0 14011:1 14853:1 19205:1 
0.1563698247720156 0.001453829931028985 236:1 335:1 370:1 1978:1 3265:1 5526:1 6462:1 6989:1 8464:1 9552:1 12941:1 16342:1 17224:1 19280:1 
0.3573368119818421 0.0779575684099401 1025:1 3323:1 6935:1 7075:1 7362:1 7873:1 11955:1 16539:1 18474:1 22470:1 22775:1 
1 0 5257:1 5535:1 6749:1 14157:1 20742:1 20962:1 
0.3706364305405231 0 1259:1 6141:1 15623:1 17053:1 19270:1 21559:1 21739:1 
0.3636658057409866 0 1191:1 3907:1 6749:1 6990:1 7106:1 12112:1 13048:1 14690:1 16357:1 19091:1 21806:1 21860:1 
0.1502244187179685 0 654:1 4950:1 5778:1 6615:1 19419:1 20011:1 22229:1 22357:1 23071:1 23637:1 24209:1 
0 0.01067714139460858 612:1 1191:1 6749:1 7503:1 9195:1 9647:1 12390:1 13643:1 15015:1 15516:1 16900:1 20657:1 
1 0 6451:1 13826:1 
0.1519277080376093 0 2591:1 4789:1 5526:1 5535:1 12712:1 14375:1 15689:1 17756:1 19185:1 20367:1 21605:1 
0.07936416347638695 0 1987:1 3556:1 3769:1 8324:1 9765:1 13144:1 15913:1 16932:1 
0.007787773637738115 0 315:1 3006:1 4610:1 6375:1 13005:1 14718:1 17314:1 19248:1 20990:1 21432:1 22424:1 23390:1 24341:1 
0.8969714637784596 0 91:1 16788:1 
1 0.1887991706925949 6757:1 10150:1 23914:1 
0.5491618906551813 0 555:1 8935:1 14208:1 18527:1 
0.1640522917542315 0.01431179007636988 351:1 1156:1 2531:1 12013:1 
0.1084705865092414 0 5950:1 7017:1 10135:1 14165:1 14360:1 15438:1 15698:1 17500:1 22203:1 22432:1 23736:1 
1 0 2694:1 15218:1 18817:1 20751:1 
1 0.01957786827203718 586:1 14075:1 15214:1 16885:1 20555:1 21892:1 23364:1 
0.1658922813640104 0 975:1 2800:1 3633:1 8901:1 13392:1 17844:1 
0.9349314414667174 0 8709:1 
0.5821024351984925 0 2032:1 2999:1 4244:1 7083:1 7154:1 8865:1 9367:1 14801:1 20021:1 
0.08585372270016341 0 1191:1 6351:1 7841:1 9420:1 9599:1 13059:1 18602:1 21314:1 22256:1 
0.245614637726743 0 1767:1 1857:1 2559:1 5796:1 7997:1 9176:1 10173:1 11464:1 11812:1 12215:1 12462:1 17783:1 18532:1 
0.3108850507784764 0 6766:1 15780:1 21218:1 21341:1 
0.4829476667231386 0 1191:1 2577:1 3261:1 6213:1 10664:1 13254:1 16605:1 21846:1 
0.9335591990480665 0 2823:1 9313:1 10869:1 12542:1 14453:1 15443:1 20901:1 22686:1 23889:1 
0.3413934132807975 0 5151:1 5174:1 6973:1 8475:1 15689:1 16319:1 21594:1 22379:1 
0.306743002788144 0 2707:1 3606:1 4715:1 5040:1 6118:1 8050:1 8511:1 13811:1 14110:1 15689:1 18436:1 20210:1 20900:1 22208:1 23977:1 
0.64872324229001 0 1762:1 1879:1 2984:1 4789:1 5753:1 6757:1 8928:1 11330:1 15917:1 17130:1 17558:1 18469:1 
0.5846198874457005 0 1210:1 2249:1 3894:1 5387:1 7270:1 9161:1 10035:1 15756:1 20045:1 21689:1 
0.1358221684178473 0 3582:1 4006:1 6447:1 6688:1 11835:1 12054:1 15284:1 19430:1 21580:1 22348:1 
0.4869352042098992 0 1905:1 3668:1 4730:1 10633:1 14187:1 16103:1 16444:1 21700:1 21710:1 
0.8486486744447536 0 4871:1 6489:1 12253:1 12914:1 14447:1 15913:1 16181:1 17365:1 
0.3107116632555347 0.09229587170761927 4225:1 13590:1 20293:1 
0 0.01393607113730519 1478:1 13163:1 14215:1 22146:1 
0.04348384046017523 0 4480:1 9333:1 11846:1 14110:1 15311:1 
0.1088568198734852 0.03973856546560635 672:1 1944:1 2829:1 3052:1 3702:1 3788:1 7257:1 7324:1 10389:1 12058:1 
0.6222153063391156 0 6196:1 7532:1 10915:1 19395:1 20021:1 20318:1 
0.6297920256371439 0 9606:1 19287:1 
1 0 88:1 2447:1 6837:1 11537:1 15913:1 17864:1 
0.2469141025007876 0 5359:1 11382:1 12855:1 19205:1 
0.6962583954593433 0 625:1 4830:1 13568:1 14453:1 16900:1 17957:1 20724:1 20935:1 22914:1 
1 0 6094:1 
0.4174083923772592 0 5877:1 9313:1 10326:1 12906:1 13544:1 22393:1 
0.6070888560872809 0 3043:1 5065:1 6207:1 8164:1 10723:1 11483:1 15366:1 15460:1 16659:1 17210:1 19341:1 
0.576149118917596 0.02288352367719332 1423:1 1671:1 3268:1 3867:1 5708:1 6736:1 12190:1 13115:1 15363:1 19534:1 20978:1 22137:1 22611:1 22805:1 
0.1311738599524247 0 1740:1 5264:1 7053:1 16162:1 17217:1 20520:1 20749:1 23973:1 
0.1982742917502902 0.02692616330596719 7382:1 10356:1 14662:1 15315:1 16447:1 19253:1 20785:1 
0.09359971391435079 0 654:1 2376:1 8711:1 8975:1 10464:1 12810:1 15732:1 16013:1 18645:1 24118:1 
0.1346190608934374 0 3191:1 3720:1 15449:1 15913:1 24133:1 
0.6098469750924393 0 1314:1 1995:1 6840:1 9765:1 14661:1 15308:1 17094:1 18898:1 22361:1 23491:1 
0.7512354679122072 0.0003248522889753247 2009:1 3731:1 6401:1 10373:1 20201:1 
0 0.00085756165882277 799:1 1106:1 2559:1 2836:1 3145:1 8146:1 9864:1 11877:1 13746:1 15024:1 15515:1 17241:1 18815:1 20177:1 20318:1 
1 0 11294:1 18144:1 21433:1 22146:1 
1 0 44:1 
0 0.1189330506784352 1324:1 5349:1 5654:1 7075:1 8506:1 9445:1 14880:1 16181:1 
0.9017891712048128 0 1280:1 2694:1 6989:1 8740:1 9200:1 10281:1 13419:1 15366:1 15609:1 16542:1 17080:1 20059:1 20095:1 
0.0348961849459403 0.01351138720384547 11669:1 16488:1 17919:1 18926:1 
0.1691913811059127 0.2059436480902544 1890:1 8734:1 10326:1 18040:1 20114:1 20401:1 21461:1 24171:1 
0.1651432334380137 0 1227:1 6489:1 7781:1 10650:1 12914:1 14671:1 14885:1 18645:1 20131:1 
1 0 3281:1 4531:1 4957:1 5778:1 6932:1 7962:1 12413:1 12415:1 18686:1 19463:1 20575:1 21432:1 21833:1 
0.6233718986879784 0.07403651795750861 1156:1 10313:1 11340:1 12112:1 13293:1 13438:1 16900:1 19011:1 22681:1 23284:1 
1 0 1054:1 7402:1 9765:1 11925:1 20592:1 23338:1 
0.2738072498307784 0 8156:1 8426:1 8623:1 10553:1 13468:1 19205:1 22017:1 23080:1 23843:1 
1 0 16224:1 
0.1681618999560494 0 625:1 1896:1 3364:1 8016:1 10915:1 13254:1 14066:1 22373:1 23071:1 24028:1 
0.2535452454087279 0 1418:1 1755:1 4879:1 6103:1 9449:1 13639:1 14039:1 14295:1 17174:1 18602:1 19587:1 
0.2681328836117708 0 5672:1 9738:1 13031:1 13249:1 13751:1 18421:1 18507:1 20140:1 21627:1 22146:1 
1 0 18347:1 22452:1 23735:1 
0.5505086853411749 0 1314:1 3915:1 5172:1 9846:1 15284:1 18719:1 18818:1 21086:1 
0.566839832361373 0 2418:1 4610:1 5024:1 7402:1 17279:1 18129:1 22373:1 
0.116043557445089 0 2640:1 3271:1 9230:1 13811:1 15914:1 22129:1 22229:1 23297:1 
0.07731789892195166 0 912:1 1503:1 6137:1 16659:1 17402:1 23364:1 
1 0 4640:1 15689:1 19205:1 
0.9003892569008703 0 405:1 12582:1 16162:1 22707:1 
0 0.07600107329091249 43:1 6923:1 12112:1 15434:1 
1 0 6319:1 13386:1 
0.9102927436406543 0 9595:1 15192:1 
0.2435585771266929 0 7551:1 9402:1 18827:1 
0.2305139708687704 0.01078102924898726 5248:1 8087:1 10281:1 10298:1 11329:1 12329:1 15973:1 18286:1 18602:1 23071:1 23433:1 
1 0 6357:1 14178:1 15913:1 17454:1 24326:1 
0.2167255835558368 0 517:1 5065:1 5560:1 14328:1 14524:1 15443:1 15655:1 15894:1 22348:1 
0.8299754415738944 0 617:1 1423:1 1954:1 6358:1 7206:1 7881:1 18645:1 22334:1 
0.5570975464020325 0 1017:1 4845:1 8235:1 10955:1 13811:1 15756:1 18709:1 18806:1 20717:1 22082:1 23211:1 
0.910272940980531 0 4386:1 5198:1 5324:1 6788:1 7962:1 8754:1 13644:1 15913:1 
0 0.05510876004303685 682:1 799:1 8805:1 20037:1 
0.3052312196137975 0 4676:1 5324:1 6884:1 11794:1 12854:1 17969:1 19091:1 23071:1 
0.03712846598975333 0 1212:1 1293:1 3504:1 8319:1 10114:1 18593:1 18874:1 20138:1 21608:1 
0.01065176776534046 0.007057378645590532 2051:1 3957:1 4274:1 12274:1 12847:1 14110:1 15284:1 15389:1 16605:1 18093:1 20021:1 21143:1 
0.356506123770691 0.01859429415822017 2013:1 3585:1 6347:1 7853:1 8373:1 10507:1 13855:1 13932:1 17573:1 18008:1 18041:1 19844:1 20774:1 21171:1 21793:1 22386:1 
0.1421358422129177 0.01768708288944496 7470:1 8741:1 10063:1 11434:1 15207:1 16517:1 18552:1 21806:1 
0 0.01496409188235624 28:1 993:1 2526:1 3568:1 4585:1 5715:1 14230:1 15311:1 15511:1 15988:1 17269:1 22071:1 
0.7062417585587171 0 3387:1 4095:1 7442:1 8386:1 11042:1 18277:1 18881:1 18982:1 21910:1 22208:1 
0.1347490993887886 0 2249:1 4078:1 6260:1 14323:1 15523:1 15840:1 15913:1 16855:1 18544:1 18602:1 20701:1 
0.4637153759116741 0 764:1 2628:1 2684:1 4594:1 4629:1 5506:1 7155:1 19205:1 19872:1 21507:1 21807:1 
0.5254888110766055 0 60:1 2857:1 3015:1 4095:1 14195:1 18815:1 18938:1 19205:1 22979:1 24121:1 
0 0.01350294948312473 3082:1 5980:1 8099:1 12315:1 22663:1 23881:1 
1 0 2640:1 6989:1 18215:1 19205:1 21398:1 
0.3420257653878713 0.05639333716411272 1747:1 3906:1 4209:1 7951:1 8238:1 9206:1 12386:1 14004:1 16914:1 18602:1 23634:1 
0.8370416982571388 0 15908:1 15913:1 19852:1 
0.3758939030001993 0 4610:1 4846:1 15040:1 18984:1 
0.09858754477019874 0 2431:1 7203:1 13249:1 13901:1 15883:1 15913:1 
1 0 1191:1 2068:1 6069:1 6375:1 10647:1 17159:1 19205:1 22332:1 
0.2858272431888156 0.002076738152461741 420:1 2563:1 4883:1 6784:1 8146:1 8478:1 9925:1 13405:1 15315:1 16103:1 18120:1 
0.27569325914499 0.004569189781179276 6791:1 7115:1 10519:1 12238:1 14175:1 14690:1 16374:1 16410:1 18602:1 21406:1 23630:1 
0.2809812119217911 0 2249:1 10677:1 10737:1 11351:1 12682:1 16132:1 16162:1 17704:1 18676:1 19304:1 19364:1 20524:1 21754:1 22809:1 23006:1 
0.9623337698955088 0 3006:1 7475:1 16914:1 18820:1 
0.1986965228764574 0.03794769377029202 1215:1 2608:1 8892:1 9511:1 10114:1 10298:1 10589:1 14004:1 15499:1 16457:1 16904:1 18877:1 23658:1 
1 0 2192:1 8135:1 9514:1 14493:1 15689:1 
0.003867505306724585 0 2857:1 10783:1 15755:1 20681:1 21143:1 22057:1 
0.4945883243920449 0 1026:1 1749:1 7527:1 7629:1 8827:1 12618:1 14642:1 22478:1 
0.5527172994625468 0 5629:1 5780:1 6904:1 7789:1 8238:1 11246:1 11772:1 12371:1 13268:1 16845:1 17632:1 20742:1 21534:1 22373:1 
1 0 5048:1 8901:1 12806:1 17256:1 20095:1 
0.09612516836700127 0 1191:1 3037:1 5151:1 11962:1 13890:1 14447:1 14524:1 16980:1 22373:1 
1 0 1728:1 5065:1 8099:1 10994:1 16597:1 
0.7574436286875088 0 2431:1 2474:1 6019:1 6684:1 14571:1 16916:1 17481:1 18215:1 
1 0 11245:1 15428:1 
0.04878705129780778 0 5065:1 5324:1 10915:1 13212:1 13881:1 14005:1 15261:1 17774:1 19357:1 19883:1 19916:1 20325:1 23683:1 
0.3232785048212632 0 5324:1 6876:1 7901:1 12117:1 12673:1 15315:1 15755:1 16980:1 18645:1 19786:1 
0.1141217259225315 0.04442649455718902 2575:1 11438:1 14495:1 20520:1 22229:1 
0.04399814223440908 0 11977:1 14091:1 17621:1 19205:1 
0.2100303027398556 0 4846:1 5560:1 8219:1 10123:1 15913:1 16265:1 19716:1 20990:1 22795:1 
0.171229876940837 0 6281:1 6791:1 6961:1 6990:1 17408:1 17750:1 
0.006880149088026687 0 3894:1 4239:1 6260:1 15192:1 17857:1 21993:1 22476:1 22999:1 
0 0.09311269847297611 2261:1 2689:1 4243:1 7527:1 
0.4467777016109856 0 6894:1 8148:1 15363:1 18069:1 
0.4966887440986359 0.07089042824455224 2090:1 5014:1 7075:1 7668:1 9599:1 11812:1 14463:1 15913:1 17428:1 18076:1 19262:1 22229:1 
0.4285441058777115 0 330:1 2559:1 12452:1 15913:1 16815:1 
0.8491660182098516 0 950:1 10036:1 22292:1 
0.1562773602578119 0.03177496884949465 5323:1 7422:1 9679:1 9878:1 10623:1 13801:1 18602:1 19459:1 23989:1 
0.08351146680315541 0.0227993047007572 1549:1 1723:1 4176:1 5146:1 6698:1 7684:1 7722:1 7973:1 7990:1 8944:1 12557:1 13227:1 16097:1 16480:1 19523:1 21460:1 22600:1 22673:1 23522:1 
0.7318419383133642 0 1973:1 3708:1 3866:1 4811:1 5005:1 13249:1 13468:1 15901:1 18719:1 20115:1 20253:1 24271:1 
0.1321214652561514 0 764:1 1210:1 1652:1 2034:1 3006:1 3321:1 6319:1 16528:1 17349:1 20127:1 20445:1 21422:1 
0.5655610053846273 0 42:1 9765:1 15226:1 22715:1 23071:1 24223:1 
0.3235749515507679 0 60:1 2694:1 4969:1 6766:1 7382:1 13646:1 14122:1 
0.2297676668586378 0 60:1 3582:1 4296:1 8246:1 13734:1 15122:1 22146:1 22360:1 
0.6360472110663034 0 11646:1 12253:1 12886:1 15277:1 16475:1 18591:1 19581:1 20749:1 
0.004032364355637774 0 880:1 1699:1 5065:1 18941:1 19205:1 21422:1 
0.8946888305481095 0 1014:1 2358:1 6393:1 11803:1 15913:1 16759:1 17864:1 21111:1 23551:1 
0.7555367506770758 0 173:1 734:1 1854:1 2484:1 5257:1 8175:1 
0.3035084084219214 0 821:1 1646:1 2494:1 3507:1 9537:1 13073:1 14075:1 18602:1 19205:1 20717:1 20862:1 23906:1 
1 0 3006:1 7962:1 8167:1 11977:1 14468:1 15689:1 17361:1 18602:1 23754:1 
0.1176310748019038 0 1926:1 4123:1 4338:1 4826:1 5248:1 6240:1 7737:1 9633:1 10311:1 15710:1 19752:1 20095:1 20319:1 21532:1 23842:1 24091:1 
0.3692389570978131 0.1458076021886939 6375:1 8020:1 14187:1 16405:1 19426:1 23986:1 
0.1972386794583697 0 3785:1 4562:1 5654:1 6140:1 6489:1 7435:1 7677:1 8901:1 8954:1 9262:1 12914:1 14553:1 15913:1 16997:1 19205:1 21165:1 21357:1 
0.4754703164878277 0.02055245070966851 1762:1 10114:1 10545:1 10623:1 13426:1 17361:1 18596:1 22635:1 
0.7341246500859423 0.044244455524973 612:1 5164:1 11262:1 14141:1 15579:1 16178:1 17389:1 20360:1 23071:1 
0.5515114083829825 0 7515:1 7593:1 13993:1 18719:1 19003:1 
0.5926652962155765 0 1814:1 2469:1 2478:1 4187:1 7684:1 10351:1 11658:1 21570:1 22922:1 
0.02550462389702512 0 6260:1 10405:1 23522:1 
1 0 2559:1 4832:1 19205:1 
1 0 7402:1 14455:1 21541:1 23071:1 23412:1 
1 0 9939:1 11245:1 
1 0 715:1 6973:1 11902:1 21594:1 
1 0 517:1 3010:1 18469:1 24165:1 
0.3350546894213948 0 9822:1 12509:1 15454:1 15913:1 23213:1 23749:1 
1 0 15913:1 16715:1 17201:1 20403:1 24271:1 
1 0 3006:1 3939:1 7700:1 8333:1 9544:1 9765:1 11292:1 13428:1 14350:1 17056:1 18515:1 
0.1432432228444829 0 5679:1 13671:1 15811:1 15913:1 16976:1 
0.2718077530615948 0 918:1 2606:1 5065:1 10325:1 18233:1 18293:1 23071:1 23230:1 
1 0 1678:1 3995:1 5145:1 11561:1 18645:1 20635:1 
0.366852238418513 0 614:1 1177:1 3493:1 7684:1 8392:1 10415:1 11307:1 12267:1 17817:1 20316:1 21122:1 22725:1 22769:1 
0.5719204240045233 0 5324:1 12745:1 15315:1 15443:1 21771:1 
0.03715473160007348 0 4300:1 10523:1 18144:1 23485:1 
0.7038986017545998 0.03473291757467027 2238:1 5258:1 5832:1 7236:1 7468:1 8901:1 9416:1 14949:1 
0.2017199947833857 0 1861:1 3493:1 5762:1 7406:1 8574:1 14159:1 17170:1 18091:1 18566:1 22360:1 
0.7127398802373655 0 173:1 2193:1 3198:1 3220:1 6250:1 6863:1 9182:1 10319:1 10523:1 15704:1 16476:1 18261:1 19046:1 19910:1 22667:1 22979:1 
0.2553811991747001 0.02947304723540666 731:1 5035:1 8464:1 10657:1 14112:1 14710:1 21180:1 21319:1 23809:1 
0.7403954104134425 0 173:1 2694:1 4395:1 10114:1 20623:1 20936:1 22334:1 
1 0.1057199921213532 2048:1 10114:1 11230:1 21827:1 24062:1 
0.7500574935494169 0 2559:1 23412:1 
0.5123981138224036 0 8618:1 13811:1 15915:1 22436:1 23772:1 
0.280726784391147 0 43:1 1012:1 2056:1 2502:1 4390:1 10149:1 10709:1 12309:1 16725:1 17735:1 18559:1 19398:1 24259:1 
0.525389037887838 0 3501:1 6393:1 7554:1 22625:1 
0.8138129773189139 0 268:1 1089:1 6432:1 7890:1 9839:1 17242:1 18645:1 
0.7844745181882132 0 10114:1 15546:1 
0.1462790167762381 0 43:1 1139:1 1592:1 1969:1 4432:1 4575:1 7842:1 7997:1 8321:1 15726:1 16882:1 17474:1 18602:1 20990:1 21218:1 
0.347244696845733 0.07460004371483649 3642:1 5805:1 8688:1 10359:1 14004:1 16561:1 19799:1 
0.4407776318861983 0 5021:1 8716:1 8739:1 15913:1 
0 0.00805904778631741 612:1 894:1 7656:1 7671:1 8156:1 12087:1 15837:1 20140:1 
0.4528581469872732 0 5593:1 7532:1 7671:1 14963:1 15379:1 16080:1 21570:1 
0.01381639554843142 0 441:1 3843:1 5257:1 9342:1 9717:1 10284:1 13172:1 13610:1 15015:1 16632:1 17693:1 19010:1 
1 0 4929:1 14375:1 15461:1 
0.1710751188135528 0 6260:1 12972:1 14653:1 19146:1 19482:1 19795:1 20590:1 23089:1 
0.208059207298047 0 654:1 1054:1 10500:1 11319:1 12112:1 13491:1 15315:1 20609:1 22187:1 
0.1127195016026974 0 1156:1 10114:1 10149:1 10663:1 14822:1 18632:1 19944:1 20757:1 21352:1 21427:1 23880:1 23986:1 
0.2707272874200101 0 5293:1 5626:1 8623:1 14735:1 21851:1 23265:1 
0.1223985719179988 0 9572:1 10769:1 13349:1 15913:1 16606:1 17663:1 
0.04694637035942199 0 1712:1 8734:1 10639:1 13798:1 14786:1 18448:1 
0.5612280080290898 0 3546:1 3916:1 5796:1 8223:1 11890:1 12477:1 14867:1 14947:1 15655:1 16080:1 21296:1 
0.1241874688023612 0 325:1 4137:1 5040:1 5292:1 6623:1 7123:1 8146:1 9515:1 9972:1 10729:1 11184:1 15359:1 19091:1 
0.06917217729293793 0 385:1 1426:1 5065:1 6410:1 10323:1 13903:1 14065:1 14453:1 15913:1 20536:1 20590:1 21269:1 21289:1 21646:1 
0.06896405475720799 0.01871515284355056 2559:1 3473:1 6749:1 6791:1 7093:1 8507:1 13441:1 15973:1 20318:1 
1 0 7671:1 21797:1 
0.1470404369938723 0 2484:1 2533:1 3364:1 5073:1 5324:1 8171:1 11871:1 12315:1 12474:1 16659:1 17414:1 19287:1 19740:1 
0.3176892745192419 0 2503:1 3006:1 4851:1 4914:1 11856:1 18602:1 18630:1 22129:1 
0 0.06715934185555364 882:1 5948:1 6611:1 7842:1 11644:1 12545:1 19013:1 
0.4905915101365491 0 1106:1 4023:1 8183:1 15845:1 15913:1 16188:1 17241:1 17843:1 19629:1 23008:1 
0.1703654984392097 0 827:1 1751:1 5065:1 7471:1 11144:1 13217:1 15187:1 15723:1 18767:1 21062:1 21173:1 23386:1 
1 0 15780:1 
0.5243128951429509 0 4749:1 5412:1 9161:1 
0.4899668299738761 0.0258422986114123 2136:1 2428:1 2664:1 3111:1 5374:1 6275:1 8102:1 10390:1 16885:1 17122:1 20656:1 22088:1 24157:1 
0.1728506732456476 0 3814:1 4620:1 5159:1 7379:1 8866:1 9363:1 10010:1 14004:1 15913:1 23071:1 23330:1 23533:1 
0.6804802112534274 0 3627:1 5996:1 7467:1 7886:1 16162:1 21623:1 
1 0 7684:1 10523:1 13616:1 20612:1 
0.5714180865395655 0 813:1 6154:1 6894:1 6905:1 7587:1 8835:1 10661:1 15524:1 18602:1 22334:1 
0.005680302986034039 0 318:1 654:1 1094:1 2376:1 3198:1 4969:1 5316:1 5324:1 6640:1 6645:1 9312:1 14004:1 14134:1 14918:1 21296:1 23940:1 
0.1673321119852172 0.3959132693829741 869:1 16866:1 18148:1 19528:1 23200:1 24171:1 
0.03208601521402351 0 2800:1 2902:1 5576:1 9076:1 13392:1 14776:1 15443:1 24285:1 
0.9099992646684645 0.002621356328123418 513:1 3943:1 5942:1 6393:1 8684:1 10995:1 13098:1 19514:1 20423:1 23071:1 
1 0 1192:1 3006:1 12509:1 23749:1 
1 0 3209:1 7940:1 12249:1 13538:1 15235:1 19205:1 19257:1 
0.03142388147910222 0 4167:1 5613:1 10326:1 11421:1 12845:1 14756:1 14918:1 17009:1 21546:1 
0.1070103854696198 0 7302:1 8390:1 10785:1 11175:1 15363:1 20140:1 23765:1 
0.1842949117115585 0 5877:1 15913:1 
0.209643280785398 0 365:1 5065:1 6538:1 8324:1 10326:1 11446:1 14123:1 15451:1 16121:1 16283:1 16885:1 19174:1 21187:1 23622:1 
0.7951132316741809 0.00720870145743829 2369:1 2423:1 4822:1 9334:1 14216:1 14495:1 15463:1 22078:1 
1 0 4390:1 6196:1 19205:1 21658:1 23955:1 
1 0 3265:1 5796:1 12545:1 15516:1 17735:1 17933:1 22334:1 
0.1955464332441623 0 2905:1 7684:1 8939:1 9472:1 10252:1 14725:1 18654:1 22374:1 
0.2789746021898602 0 974:1 1254:1 2247:1 4789:1 5574:1 8013:1 13726:1 15739:1 16382:1 19698:1 
0.4394153753573127 0.08940552882469162 712:1 861:1 2053:1 8057:1 11189:1 12552:1 18140:1 19808:1 
0.07326304208768786 0 5341:1 6757:1 6791:1 7912:1 12276:1 15655:1 18030:1 21202:1 21417:1 23649:1 
0.5503804319439549 0 989:1 1227:1 3006:1 5549:1 8639:1 14075:1 18938:1 18952:1 
1 0 1423:1 5198:1 17094:1 
0.5804796181881685 0 2362:1 7329:1 9157:1 19205:1 24213:1 
0.02739275555422334 0 2506:1 4241:1 7604:1 7829:1 10135:1 13386:1 13777:1 19081:1 19197:1 
0.5038914840973199 0 225:1 3024:1 3720:1 6375:1 10661:1 13871:1 14375:1 15123:1 17173:1 21708:1 
0.05250460574792334 0 3676:1 6403:1 13362:1 15913:1 18938:1 19205:1 23444:1 
0.3220190999302882 0 1156:1 6375:1 8223:1 11622:1 13548:1 
0.5990106129222148 0 9333:1 9986:1 15913:1 19003:1 
0.3030151026131004 0 2203:1 4539:1 6099:1 6706:1 6757:1 8102:1 9402:1 9939:1 21685:1 
0.2648474962909624 0 1581:1 4560:1 6251:1 6870:1 7532:1 7640:1 20021:1 
0.3188654722650444 0 2634:1 6736:1 10329:1 
0.3766259425646005 0 9765:1 10826:1 15366:1 23414:1 23728:1 
0.686459547058255 0 567:1 2038:1 2523:1 7338:1 10466:1 15233:1 22759:1 23324:1 
0.6314946885511966 0.04773291830586358 4640:1 12806:1 12963:1 16061:1 20536:1 22012:1 
1 0 2376:1 6351:1 6749:1 8223:1 15284:1 15987:1 16436:1 20868:1 21846:1 
0.4878797615703314 0 1191:1 2857:1 11490:1 11838:1 20947:1 
0.1240475474074612 0 1791:1 3101:1 12524:1 13811:1 15365:1 17944:1 20688:1 22606:1 
0.6231983540760637 0.005057146022797269 1368:1 5368:1 6766:1 8506:1 14929:1 23649:1 
1 0 1192:1 2457:1 4829:1 15913:1 16759:1 19037:1 19511:1 20522:1 21008:1 23071:1 23689:1 
0.6869521138109906 0 1139:1 2882:1 3162:1 6552:1 6741:1 6894:1 9988:1 15913:1 16908:1 21269:1 24263:1 
0.02417931399072157 0 282:1 7727:1 10958:1 13656:1 18291:1 20021:1 
1 0 12309:1 
0.2498883914396497 0 2484:1 19975:1 21835:1 
0.979441728020895 0.03494884966759897 654:1 2146:1 10052:1 12253:1 16080:1 18745:1 20498:1 21895:1 22009:1 
0.19360311114694 0 5040:1 6455:1 6926:1 8078:1 19205:1 
0 0.03000916512805504 1191:1 3866:1 7414:1 7742:1 9270:1 10487:1 11715:1 16338:1 16832:1 17641:1 21655:1 21946:1 
0.1697344490568138 0 43:1 1259:1 5526:1 5815:1 7155:1 8623:1 10500:1 11962:1 12965:1 13727:1 14918:1 16475:1 19205:1 19441:1 20975:1 
0.7474509101597436 0 271:1 2774:1 3638:1 4742:1 5324:1 6832:1 12806:1 16269:1 19369:1 20867:1 
0.8504975344082542 0 3521:1 4846:1 8171:1 10826:1 24335:1 
0.7930017162988603 0 3949:1 6989:1 10586:1 
1 0 8223:1 21070:1 
0 0.003982791880610137 1253:1 2478:1 4647:1 5579:1 6199:1 8167:1 8260:1 8713:1 10503:1 10935:1 14828:1 15643:1 20864:1 22274:1 22663:1 23374:1 
0.2664300440503252 0 1853:1 5578:1 8082:1 10623:1 11432:1 21247:1 23574:1 
0.5193608178880168 0 2452:1 5482:1 7918:1 11355:1 12315:1 15739:1 15997:1 18463:1 21420:1 24275:1 
0.1896133301390155 0 4845:1 5563:1 9402:1 12970:1 14066:1 15913:1 16744:1 17864:1 18013:1 19731:1 21560:1 23383:1 24209:1 
0.2078272833210711 0 912:1 6758:1 14453:1 14918:1 15315:1 18602:1 
0.398796742946976 0 1999:1 3193:1 10688:1 10915:1 17256:1 22315:1 
0.04124742480112407 0.005673689280014603 1054:1 5172:1 5595:1 5662:1 6375:1 7737:1 8924:1 11237:1 12405:1 21198:1 
0.6222133916793787 0 504:1 9385:1 12199:1 14447:1 16196:1 20527:1 
0.8148928587187729 0 1617:1 12871:1 18284:1 23615:1 
1 0.2587240765880819 5595:1 12187:1 20338:1 
1 0 14328:1 19205:1 21414:1 23707:1 23986:1 
0.4286010448716256 0 7093:1 9457:1 11469:1 13469:1 15379:1 16740:1 17202:1 18314:1 23071:1 
0 0.01310478646366384 2071:1 2559:1 9647:1 11787:1 16744:1 18938:1 21559:1 22634:1 23330:1 
0.371329389732568 0 773:1 9216:1 
0.4943332335666532 0 6680:1 6998:1 9923:1 10623:1 12745:1 23228:1 
0.2416894205152493 0 3508:1 6791:1 13726:1 13785:1 18984:1 22373:1 22574:1 23071:1 24191:1 
0.103408372917796 8.074396492111982e-05 2641:1 10675:1 10685:1 17266:1 23133:1 23769:1 
0.639667490151222 0.001185913067201872 6319:1 8295:1 9591:1 16821:1 17647:1 20452:1 20954:1 21051:1 
0.8349472104498125 0 2715:1 6923:1 11340:1 11902:1 17528:1 18779:1 19205:1 20717:1 
0.3539383806747498 0 144:1 1157:1 1207:1 5059:1 6833:1 10025:1 11049:1 12427:1 13309:1 15913:1 
1 0.1349028054435457 9904:1 15315:1 18421:1 
0.4249637802787009 0 4879:1 6894:1 6989:1 8623:1 9630:1 10286:1 11499:1 13780:1 15083:1 15913:1 20742:1 22230:1 23071:1 23151:1 23689:1 
0.04630401732812633 0 4418:1 6503:1 7904:1 15689:1 15913:1 16131:1 22229:1 
0.2262889987578532 0 3894:1 7415:1 9097:1 10063:1 10831:1 11245:1 13648:1 21973:1 22373:1 22474:1 
0.4782295803964902 0.01840578624670227 989:1 2480:1 14814:1 17731:1 18041:1 18533:1 18602:1 21029:1 22012:1 22238:1 
0.1775454699748286 0 2478:1 5324:1 5533:1 6319:1 8984:1 9036:1 9881:1 13384:1 16312:1 16759:1 17876:1 19296:1 20592:1 
0.02271236659349678 0 1191:1 4832:1 7684:1 8785:1 10114:1 10230:1 16649:1 18041:1 19205:1 20126:1 22725:1 
0.9277809211310041 0 5258:1 12315:1 14303:1 15946:1 16870:1 
0.09293088888243368 0 8167:1 8666:1 11145:1 11433:1 19205:1 21111:1 
0.5814062506052486 0 14976:1 15465:1 22105:1 
0.04419042386822712 0.02536527795237141 1178:1 2857:1 11561:1 13825:1 16559:1 16715:1 16759:1 
0.01353238486936175 0 8546:1 10362:1 11859:1 14812:1 15459:1 18551:1 23622:1 
1 0 2247:1 2559:1 3321:1 4274:1 21002:1 22071:1 23438:1 24271:1 
1 0 3850:1 6989:1 13844:1 19408:1 23811:1 
0.7086012361195736 0 1191:1 3630:1 4610:1 7131:1 8558:1 9992:1 12463:1 13375:1 13861:1 14053:1 15739:1 15913:1 18602:1 19911:1 20656:1 23649:1 
0.1725347426418772 0 41:1 1012:1 4629:1 9572:1 10246:1 15913:1 20578:1 21782:1 22643:1 
0.0357422173038963 0 2276:1 7814:1 9239:1 16162:1 18648:1 19205:1 19922:1 22207:1 
0.0559991336062511 0 9402:1 9632:1 10405:1 10434:1 13583:1 13698:1 15913:1 17303:1 17926:1 23151:1 23649:1 
1 0.02727652116952412 2598:1 2606:1 9863:1 13501:1 13811:1 23689:1 
0.1824244548422473 0 1412:1 5142:1 6736:1 6766:1 7820:1 8924:1 10431:1 15913:1 17621:1 21420:1 
0.2118694101950009 0.1925370819313092 43:1 1322:1 2136:1 8171:1 11812:1 14486:1 19116:1 23940:1 
0 0.1330548309771002 7972:1 13249:1 14004:1 14653:1 
0.1271491674707889 0 6989:1 9167:1 10709:1 15913:1 16606:1 16763:1 20635:1 
0.9379614963688331 0 7242:1 10661:1 15311:1 17251:1 19205:1 19358:1 21637:1 
0.3701095192000396 0 691:1 980:1 2774:1 10980:1 13558:1 14336:1 15144:1 15913:1 18041:1 21266:1 23228:1 
0 0.03699308519994789 60:1 1762:1 12941:1 17388:1 19828:1 20152:1 21728:1 22373:1 23565:1 
0.6380395665543863 0 252:1 3493:1 6850:1 16061:1 17232:1 
0.4800721380578549 0.02133274581132246 1156:1 4584:1 10847:1 22543:1 
0.3833464276735512 0.07130876274657269 578:1 6795:1 10623:1 13501:1 15913:1 
1 0 156:1 13099:1 15753:1 15913:1 16103:1 20536:1 21008:1 21864:1 24165:1 
0.04319809722200751 0 654:1 655:1 1156:1 2782:1 4035:1 10131:1 11566:1 11725:1 12294:1 12953:1 13034:1 14340:1 18050:1 
0.04252623839413715 0 2293:1 3915:1 6784:1 6794:1 9727:1 17094:1 22947:1 23522:1 23992:1 
0.7485118761644405 0 1678:1 5065:1 6393:1 9975:1 12741:1 18666:1 19205:1 
0.3510953952569623 0 813:1 6196:1 13979:1 14375:1 20137:1 20831:1 
0.5450670746658299 0 7453:1 7891:1 9647:1 10114:1 12341:1 14308:1 15823:1 
1 0 2694:1 4789:1 8571:1 17233:1 17309:1 22357:1 23128:1 23315:1 
1 0 405:1 6923:1 15913:1 
0 0.009810149575769396 654:1 1191:1 1750:1 2465:1 2659:1 3702:1 8529:1 13440:1 15083:1 16020:1 20890:1 21314:1 22129:1 
0 0.02230613830752007 173:1 5778:1 6009:1 6223:1 7749:1 11364:1 13735:1 14350:1 
0.1163804354896099 0 3906:1 6319:1 6749:1 7492:1 9488:1 10109:1 11507:1 12315:1 12427:1 14149:1 18357:1 19802:1 20536:1 21769:1 23490:1 
0.6591598853947799 0 1712:1 2063:1 3101:1 5226:1 10743:1 12514:1 14453:1 14653:1 16793:1 17722:1 18347:1 20095:1 
1 0 8079:1 16061:1 17292:1 20095:1 23578:1 
0.1110988375124237 0 2785:1 3638:1 3948:1 6358:1 10776:1 11814:1 11957:1 13800:1 17221:1 
0.378985088812238 0 417:1 1627:1 3599:1 6935:1 12211:1 20152:1 21063:1 
0 0.005498545612475217 3918:1 6196:1 6606:1 11660:1 12018:1 12745:1 16673:1 16937:1 17591:1 21238:1 
0.1824505584829328 0 3716:1 6749:1 6894:1 13212:1 16080:1 16178:1 22218:1 22981:1 
1 0 14110:1 
0.3979697083535992 0 6029:1 6780:1 6916:1 8791:1 17256:1 17368:1 19205:1 19392:1 
1 0 4420:1 5305:1 5574:1 10430:1 14453:1 15689:1 19205:1 21008:1 
0.2209160346358644 0.02698366411915995 1456:1 2151:1 3043:1 3613:1 4207:1 13507:1 15609:1 19786:1 
0.8402290549614316 0.03303636609651413 2376:1 7826:1 8464:1 12405:1 13807:1 13811:1 14101:1 15133:1 17553:1 23776:1 
0.3705115280068206 0.01341207691768964 10704:1 13552:1 22392:1 22786:1 23220:1 
0.1153713255191458 0 4098:1 4176:1 4969:1 5850:1 6266:1 7616:1 7684:1 7722:1 7973:1 10433:1 11014:1 13214:1 13227:1 14335:1 14725:1 15018:1 17832:1 18647:1 19065:1 23476:1 
0.1911896427243322 0 2090:1 2185:1 4053:1 6784:1 7684:1 17578:1 17929:1 23522:1 23615:1 
0.3262131122099953 0 2151:1 2298:1 5959:1 8888:1 11221:1 16417:1 22373:1 
0.005957211118487545 0 5353:1 10677:1 12386:1 12925:1 13379:1 15755:1 19205:1 21789:1 
0.3671155982641275 0 12941:1 14045:1 19205:1 19563:1 
0.4270925992540842 0 577:1 2014:1 2249:1 6666:1 7077:1 8102:1 8128:1 15982:1 16900:1 18394:1 19205:1 24051:1 
0.6492307059449903 0 5777:1 7379:1 7402:1 12309:1 20933:1 21749:1 23259:1 23468:1 
1 0 3552:1 15901:1 16659:1 18215:1 20127:1 
1 0 345:1 2576:1 6306:1 7467:1 20256:1 21314:1 22088:1 
0.8985210264819634 0 3493:1 3850:1 6375:1 7784:1 20855:1 22279:1 23428:1 
0.1198483302341515 0 1599:1 8546:1 12112:1 12745:1 16797:1 17600:1 22058:1 23836:1 
1 0 1016:1 16841:1 17094:1 19205:1 
0.661121121780107 0 5145:1 5629:1 10086:1 18082:1 18397:1 20095:1 23222:1 
0 0.03286897906671947 1812:1 10114:1 11686:1 11775:1 13009:1 13191:1 17331:1 17933:1 18136:1 23488:1 
0.2208211457764734 0 3006:1 6998:1 8102:1 9445:1 10727:1 17178:1 22914:1 23071:1 23228:1 
0.8524581627283497 0.1100777402308751 612:1 6015:1 6874:1 8702:1 16632:1 16914:1 20905:1 20935:1 
0.3328569407626707 0 2640:1 10149:1 11433:1 13635:1 15123:1 16428:1 17081:1 
0.5131031934160116 0 764:1 3444:1 3766:1 9835:1 11791:1 14435:1 17536:1 
0.5550296840238461 0 7:1 7760:1 16020:1 17796:1 18837:1 
0.09452259753848329 0 1156:1 2526:1 7302:1 10107:1 11860:1 15913:1 17621:1 19638:1 20635:1 23522:1 
0.8589193881141024 0 7389:1 10515:1 20535:1 22379:1 
0.5508514441375265 0 156:1 4610:1 4629:1 4929:1 10442:1 15913:1 
0.2147320475164785 0 1259:1 2485:1 3433:1 4418:1 5324:1 7885:1 8674:1 17331:1 20165:1 20971:1 21002:1 23836:1 
0.0532676042667831 0 324:1 4661:1 8489:1 12643:1 14045:1 14949:1 15913:1 17443:1 21314:1 22157:1 23071:1 23689:1 
0.9736400131400396 0 8426:1 10677:1 11347:1 14653:1 17606:1 19292:1 19705:1 
0.3285226649393091 0 4445:1 5221:1 6811:1 13644:1 18179:1 
0.4041545206126608 0 1156:1 6766:1 7302:1 7447:1 8328:1 9402:1 13117:1 14336:1 15516:1 15913:1 17080:1 21319:1 
0.2217436600187269 0 4118:1 6579:1 7203:1 11292:1 13140:1 14005:1 14187:1 18515:1 20095:1 20931:1 20990:1 20991:1 23689:1 23763:1 
0.1788242882703669 0 5623:1 8924:1 15913:1 16542:1 21510:1 22762:1 
0.4325741439879048 0.008875494798120371 665:1 3006:1 3957:1 8114:1 9716:1 11340:1 14375:1 14504:1 14627:1 14744:1 20021:1 22146:1 22914:1 
0.4428867246012506 0 1191:1 9992:1 13301:1 14317:1 15901:1 20535:1 21570:1 23071:1 
1 0 2014:1 3638:1 3806:1 7940:1 8553:1 13248:1 16080:1 
1 0 5324:1 7224:1 
0.3322903623255726 0 5732:1 16659:1 19287:1 19364:1 
1 0 10135:1 12315:1 12427:1 18602:1 19626:1 21910:1 22084:1 
0.6499224898416642 0 1445:1 4629:1 5268:1 6375:1 7584:1 10052:1 20338:1 22491:1 
0.451812718077324 0 108:1 7183:1 8734:1 21749:1 23259:1 
0 0.08294517956595758 3384:1 4529:1 7335:1 12816:1 19555:1 20325:1 
1 0 3493:1 10025:1 18938:1 
0.1088721726051263 0 632:1 1478:1 12474:1 22373:1 
1 0 21218:1 
0.9349881289381343 0 3778:1 
0.1100553913203146 0 1191:1 5092:1 7891:1 8847:1 9336:1 11292:1 14918:1 21420:1 21607:1 23705:1 23790:1 
1 0 10501:1 15488:1 16283:1 20067:1 
0.06840019621453525 0.07579217852810344 2787:1 8831:1 12545:1 17989:1 21864:1 
0.6089276580508125 0 3863:1 6094:1 7293:1 7382:1 9391:1 9986:1 19205:1 20037:1 
0.1795641561533219 0.09050343314419741 1608:1 3493:1 4373:1 5024:1 5034:1 7117:1 11579:1 17174:1 19563:1 20612:1 21584:1 21887:1 23291:1 
0.2255158588286732 0 2915:1 6740:1 11186:1 14701:1 15310:1 15913:1 16128:1 20972:1 21715:1 
0 0.02750878068176885 10995:1 14187:1 15249:1 18555:1 18817:1 20935:1 
0.06993511938271704 0 1157:1 3086:1 6447:1 7547:1 9881:1 10114:1 10472:1 14123:1 16283:1 20972:1 21598:1 22230:1 22378:1 
0.1247359632897387 0 975:1 2151:1 3948:1 4434:1 5387:1 5877:1 6894:1 7795:1 14734:1 14822:1 15187:1 16788:1 19205:1 19596:1 20375:1 21097:1 
1 0 3321:1 5778:1 6196:1 10656:1 11812:1 19026:1 19146:1 19205:1 
0.6754692544301962 0 3906:1 5880:1 6611:1 6697:1 12179:1 18750:1 19254:1 21393:1 21846:1 
0.752541568281341 0 3860:1 4456:1 14374:1 17251:1 19205:1 21937:1 23658:1 
0.05192381158860147 0.001570912319991151 899:1 4277:1 15112:1 15190:1 16224:1 16868:1 17944:1 18569:1 23088:1 
0.1633465944127551 0 2395:1 5324:1 7862:1 7947:1 17663:1 18014:1 19554:1 19786:1 20886:1 21816:1 
0 0.1318405074057461 4346:1 5341:1 10450:1 11556:1 14080:1 16155:1 17233:1 19369:1 20745:1 
0.321998247969985 0 1767:1 10928:1 20900:1 20974:1 21218:1 24271:1 
0 0.03607609168550197 199:1 2048:1 8067:1 14375:1 18082:1 19479:1 21584:1 22970:1 23845:1 
0.1905945835656413 0 1191:1 4573:1 12309:1 15443:1 
0.1137941269970275 0 3570:1 12030:1 13419:1 15023:1 15136:1 17663:1 18321:1 
0.1984895380352771 0 1314:1 2634:1 9904:1 12545:1 13542:1 14653:1 22227:1 22795:1 24213:1 
0.3248588774353239 0.03179590453927338 773:1 1139:1 5838:1 5904:1 9426:1 10727:1 10857:1 12101:1 16600:1 17853:1 17864:1 22030:1 23511:1 
0.7155941432372194 0.06106462921629366 2029:1 3251:1 4386:1 11600:1 15349:1 15913:1 
1 0 3894:1 4583:1 6260:1 6741:1 7904:1 15913:1 17217:1 19786:1 
0.6258274980485695 0.02668696958271319 2457:1 4246:1 4650:1 5324:1 6223:1 6251:1 7021:1 9612:1 12991:1 14187:1 19786:1 20145:1 21905:1 22648:1 
0.7219939618064267 0 4163:1 8167:1 10191:1 19205:1 
0.2964310209014542 0 3849:1 7402:1 10387:1 13034:1 22292:1 22357:1 22765:1 23622:1 
1 0 2502:1 5629:1 7962:1 8102:1 12112:1 14436:1 20575:1 22970:1 
0.7059899554078161 0 977:1 4338:1 5324:1 11949:1 16488:1 17722:1 19205:1 21968:1 
0.4237763928126543 0 2351:1 5753:1 7904:1 8102:1 9537:1 13801:1 14537:1 15259:1 17722:1 18928:1 19509:1 23496:1 
0.2839954053950512 0 6998:1 19205:1 20318:1 23228:1 
1 0 12340:1 19205:1 21749:1 23259:1 
1 0 5215:1 7109:1 15698:1 17661:1 22387:1 
0.09390054232716825 0 3752:1 19552:1 21889:1 22017:1 23071:1 
0.5522110502783522 0 2697:1 6300:1 7031:1 7579:1 10229:1 10356:1 15536:1 16821:1 17427:1 19870:1 21833:1 23511:1 
0.1244606925755015 0.0279913877979749 1382:1 11490:1 18361:1 
0.2658294939371571 0 782:1 2476:1 2493:1 5077:1 5215:1 8046:1 8238:1 11245:1 11908:1 14578:1 15913:1 17414:1 18748:1 19731:1 20609:1 
0.02052861694511474 0 61:1 541:1 3714:1 4480:1 5501:1 7133:1 9579:1 10618:1 11145:1 11988:1 12850:1 13476:1 13541:1 20243:1 21513:1 21841:1 
0.1393825244579441 0 1920:1 4176:1 7684:1 7723:1 7994:1 9662:1 10351:1 10877:1 11011:1 15570:1 15851:1 21222:1 21672:1 22388:1 24176:1 
0.1867962674726033 0 69:1 1207:1 2193:1 4035:1 5556:1 6784:1 8877:1 9898:1 14646:1 15863:1 18645:1 19756:1 20293:1 21895:1 
0.5069496794283138 0 5777:1 7907:1 8739:1 16517:1 18041:1 
0 0.0577700571410342 14123:1 16283:1 16788:1 18286:1 
0.629595877645312 0 1349:1 2452:1 4156:1 12689:1 23836:1 
0.08393682919340995 0 2634:1 10485:1 15913:1 18742:1 20966:1 22279:1 
0.1680331135518551 0 5324:1 6375:1 6661:1 6766:1 7929:1 8102:1 8235:1 9032:1 9572:1 10553:1 14547:1 16162:1 18215:1 19840:1 23843:1 
0.7300852056859926 0 1042:1 4066:1 5324:1 9576:1 15493:1 21939:1 
0.1555167948926975 0 527:1 2829:1 3006:1 6574:1 7155:1 7610:1 9765:1 10495:1 14489:1 18645:1 20265:1 
1 0 6375:1 10847:1 12253:1 20717:1 23574:1 
0.2706823024692857 0.01796427466636562 419:1 1674:1 2449:1 4372:1 8278:1 11129:1 14130:1 17944:1 18840:1 20210:1 23913:1 
0.6421047412247048 0 576:1 881:1 1473:1 4035:1 5049:1 5324:1 6659:1 12134:1 13753:1 16517:1 18755:1 
0.1441641622022108 0 1156:1 2414:1 4529:1 9031:1 10095:1 15246:1 15973:1 16954:1 18409:1 20536:1 22575:1 
0.7804816610847765 0.1920104752351214 32:1 2249:1 3006:1 3806:1 5334:1 6998:1 8167:1 10130:1 21398:1 23228:1 
0.0828032885417866 0 1444:1 1742:1 6154:1 6295:1 8897:1 21468:1 
0.2045292341415076 0 4053:1 7224:1 19587:1 
0.04843302968235168 0 430:1 5035:1 14305:1 15913:1 17053:1 23071:1 24067:1 
0.05285336646270394 0 667:1 1191:1 3684:1 4845:1 5145:1 6989:1 7191:1 10479:1 15482:1 15913:1 16426:1 17394:1 17704:1 
0.7637895305049665 0 3129:1 3913:1 5065:1 7791:1 10394:1 11148:1 14919:1 15913:1 17159:1 19049:1 20657:1 21044:1 22970:1 
0.04530102608859752 0 1192:1 3493:1 9545:1 15807:1 
0.4940484368249749 0 2790:1 6375:1 6765:1 12705:1 17621:1 19463:1 23330:1 
0.0993508823277504 0 1191:1 4789:1 7079:1 11116:1 18898:1 20717:1 23335:1 
0.6068373405873801 0 10883:1 12209:1 15913:1 16932:1 22947:1 23385:1 23913:1 
0.1282992192424043 0 3951:1 4821:1 6809:1 7622:1 11284:1 18004:1 23071:1 
0.2164189000333292 0.04036631835510247 862:1 4175:1 6850:1 7761:1 11108:1 14802:1 17422:1 20095:1 21238:1 
0.8780584058162899 0 326:1 766:1 9519:1 10061:1 11080:1 11504:1 14642:1 19766:1 23660:1 
0.3712342004904485 0 2059:1 2395:1 3006:1 5324:1 7737:1 7862:1 11803:1 12112:1 14113:1 15913:1 18008:1 22280:1 
0.6887458215542637 0 10114:1 16349:1 
1 0 882:1 11792:1 17184:1 18602:1 21577:1 22373:1 
0.06614382984561623 0 7179:1 12565:1 13368:1 19205:1 20547:1 23071:1 
0.8773039622226496 0 2986:1 16882:1 19205:1 20019:1 
0 0.01743761757374415 12056:1 12215:1 12509:1 18321:1 19369:1 20749:1 23749:1 
0.6147747053851209 0 3385:1 4406:1 8873:1 11483:1 15755:1 15913:1 19741:1 19752:1 22506:1 
0.3887797289183806 0 1185:1 12795:1 19832:1 23180:1 
0.07394976440000472 0 2234:1 2431:1 7558:1 7943:1 9746:1 11098:1 15077:1 15976:1 16715:1 17490:1 17621:1 19986:1 21608:1 23071:1 23495:1 24319:1 
0.01955372961828921 0.007392039957576617 1156:1 4458:1 6074:1 7892:1 8167:1 10523:1 13278:1 16937:1 18463:1 20150:1 20375:1 20566:1 21214:1 22511:1 
0.869934732033869 0 204:1 336:1 3855:1 7154:1 11498:1 14449:1 18750:1 18985:1 19254:1 21647:1 
1 0 4759:1 7851:1 10114:1 14842:1 16408:1 17621:1 
1 0 3493:1 10965:1 12963:1 
0.7131939986322996 0.07002065382252862 5782:1 10431:1 12472:1 15991:1 19786:1 21952:1 
0.148392120010074 0 782:1 3808:1 5528:1 15770:1 16713:1 17244:1 18321:1 23755:1 
0.2049979960341007 0 4984:1 5324:1 12078:1 14245:1 14279:1 15913:1 17864:1 18984:1 
1 0 9370:1 9718:1 11145:1 14195:1 14653:1 16759:1 20087:1 20590:1 
0.2545927307803695 0 173:1 21111:1 
0.1397324504383702 0 3866:1 7467:1 9936:1 17890:1 18568:1 20317:1 
0.2999453729685797 0 2546:1 3788:1 7677:1 8909:1 10389:1 11617:1 12315:1 15913:1 17704:1 20868:1 22175:1 22634:1 
0.9985418102288666 0 1952:1 2436:1 13415:1 19205:1 
0.06844600991204826 0 1931:1 1972:1 8223:1 10135:1 16345:1 20651:1 21699:1 22034:1 
0.7703822646085341 0 5198:1 5579:1 7501:1 19067:1 
0.9322665728443326 0.1880045612709337 2131:1 6463:1 15983:1 19369:1 
1 0 2484:1 3906:1 15913:1 17173:1 
0.4473203270253834 0 1795:1 11415:1 15913:1 17708:1 23728:1 
0.1598307081365504 0 2428:1 5215:1 8506:1 8952:1 
0.1395275685800442 0 7467:1 8173:1 9059:1 9161:1 9878:1 11834:1 13755:1 18093:1 18215:1 
1 0 1314:1 6932:1 6989:1 13249:1 14642:1 19911:1 22090:1 
0.006734912461195715 0 185:1 848:1 3634:1 7605:1 11415:1 12112:1 19745:1 20040:1 23728:1 
0.4873964354806509 0 4629:1 18060:1 21970:1 23637:1 23836:1 
0.3454939828093653 0 499:1 6283:1 6870:1 10149:1 10349:1 10805:1 10915:1 13616:1 14537:1 19848:1 20612:1 
0.857642238915571 0 2242:1 17454:1 
0.1988631512297045 0.02731070924435751 612:1 1140:1 3760:1 7021:1 12002:1 14233:1 15689:1 15894:1 17722:1 18286:1 21153:1 21181:1 22769:1 23183:1 
0.2668388712093577 0 1454:1 2566:1 4665:1 4789:1 5592:1 7656:1 8201:1 13848:1 14664:1 14918:1 18884:1 19458:1 21584:1 
0 0.00540641343521784 4390:1 13364:1 14462:1 14468:1 14594:1 15315:1 16299:1 16885:1 18551:1 20665:1 
0.03132120699886004 0 3074:1 4464:1 6383:1 13106:1 14020:1 15209:1 19205:1 19239:1 21051:1 
0.4246191482210462 0 654:1 2376:1 5021:1 7589:1 8444:1 10319:1 10543:1 11267:1 14353:1 16488:1 18286:1 20739:1 
0.09774665761688117 0 1210:1 4137:1 9972:1 10927:1 14524:1 20095:1 
0.1971946183064422 0 2376:1 4789:1 5226:1 16759:1 19378:1 23315:1 
0.3505820551000611 0.06239193653797689 2165:1 2787:1 3795:1 5029:1 9454:1 21536:1 
1 0.07687825123040347 13006:1 13727:1 13901:1 19430:1 22543:1 
1 0 503:1 826:1 974:1 4566:1 7093:1 15025:1 16127:1 19205:1 22129:1 
0.2234436350536416 0 6050:1 6069:1 6235:1 11858:1 12689:1 15913:1 19050:1 20060:1 
1 0 71:1 208:1 1314:1 13145:1 18626:1 22334:1 23468:1 
0 0.01201518257917182 2165:1 2847:1 3002:1 3043:1 5976:1 6393:1 8517:1 9648:1 14459:1 16393:1 17578:1 18670:1 21539:1 22048:1 22513:1 22893:1 
0.3931420811509446 0 1678:1 2006:1 2968:1 3101:1 5880:1 12112:1 13296:1 16080:1 
1 0 15315:1 17130:1 19205:1 
0.5670845325194465 0 9486:1 10467:1 
0.3638061883156201 0 7467:1 12315:1 13301:1 21807:1 23842:1 
0.555368783187935 0 1599:1 3594:1 4390:1 4610:1 8243:1 9157:1 14447:1 15194:1 23749:1 
0.03568506248247428 0.02627727507579791 612:1 1487:1 2249:1 2356:1 7467:1 10801:1 12322:1 15516:1 
1 0 13384:1 
0.1202216830212736 0 1208:1 16020:1 22006:1 24178:1 
0.2077555087668834 0 992:1 2773:1 5803:1 11103:1 23089:1 
0.02852566777683242 0 223:1 2484:1 6811:1 14015:1 14578:1 17671:1 19205:1 19950:1 19953:1 20024:1 
1 0 7031:1 7372:1 10709:1 14489:1 19205:1 24293:1 
0.1668078281632372 0 7075:1 10217:1 11432:1 18948:1 19205:1 23565:1 
0.1782607047868619 0 4100:1 5215:1 11471:1 14499:1 16744:1 19204:1 21297:1 23071:1 
0.1741704151483869 0 950:1 1774:1 3006:1 4846:1 6390:1 21794:1 23902:1 
1 0 120:1 2693:1 15284:1 19759:1 
0.5114229197743785 0 4568:1 5215:1 8834:1 12455:1 14203:1 14822:1 15710:1 16659:1 17772:1 
0.794749467346974 0 469:1 1076:1 3187:1 4629:1 4783:1 7402:1 13444:1 16080:1 17236:1 18904:1 19093:1 19311:1 20807:1 23689:1 24217:1 
1 0 
1 0 4845:1 6223:1 9511:1 13249:1 13826:1 15913:1 18013:1 
0.05955479993583118 0 1750:1 3006:1 6766:1 10344:1 11292:1 12724:1 13451:1 14293:1 15284:1 22580:1 23274:1 
1 0 6766:1 15901:1 22256:1 22373:1 
0.1955664565718017 0 156:1 541:1 2497:1 5635:1 6393:1 7956:1 14517:1 14564:1 14841:1 14897:1 16514:1 17645:1 19514:1 19928:1 20423:1 20739:1 
0.4948632411205699 0 1666:1 19271:1 20717:1 23506:1 
0.2058887463327128 0 782:1 1751:1 3226:1 4568:1 8739:1 10050:1 10259:1 13270:1 13707:1 14223:1 15284:1 15357:1 17780:1 17781:1 18735:1 19277:1 20021:1 
0.7749332484409195 0 8546:1 15579:1 23491:1 
0.1485125477980632 0.05628280560071709 1712:1 1876:1 4789:1 4800:1 8057:1 8791:1 9975:1 14096:1 14664:1 15443:1 16458:1 18215:1 18414:1 20192:1 21058:1 21732:1 22676:1 23658:1 
0 0.06779730935879742 60:1 813:1 1853:1 3214:1 3261:1 3948:1 8610:1 10661:1 13753:1 14110:1 20452:1 
0.3688205025037324 0 2828:1 7532:1 23172:1 
0.8504166168171328 0 6163:1 7362:1 11062:1 15770:1 20520:1 22373:1 
0.5376113805124705 0 14110:1 14303:1 15989:1 18428:1 19205:1 
1 0 1191:1 5000:1 8146:1 9765:1 12524:1 15315:1 18938:1 22373:1 
1 0.0765340007432974 11961:1 13419:1 13434:1 21747:1 
0.3963051330234403 0.08781687929312468 2138:1 11457:1 20292:1 23565:1 
0.5680293281967334 0 606:1 11311:1 13753:1 14819:1 16162:1 18602:1 19205:1 
0.2759165590633575 0 6423:1 10396:1 19205:1 20254:1 
0.8760952258462825 0 4129:1 12745:1 22740:1 
0.6016383393197988 0 3887:1 4480:1 6749:1 17111:1 21598:1 23171:1 24170:1 
0.09105646906541508 0 8511:1 14375:1 15913:1 
0.03104851532900703 0 3814:1 4568:1 7353:1 7382:1 8901:1 11243:1 16358:1 19201:1 20527:1 24335:1 
1 0 975:1 1191:1 2813:1 6894:1 10228:1 11689:1 14195:1 19003:1 20666:1 21398:1 
0.7560190505722639 0 5810:1 11080:1 15689:1 20933:1 
0.3611500435330142 0 4761:1 10240:1 13383:1 14375:1 15913:1 18060:1 21513:1 22229:1 
0.05137566843996687 0 2869:1 8597:1 14293:1 19205:1 20578:1 21968:1 
1 0.1078588038013052 2580:1 2814:1 4531:1 14215:1 17933:1 19011:1 20140:1 21899:1 23150:1 23578:1 
0.5138421511250949 0 6749:1 8812:1 10888:1 14822:1 16763:1 22373:1 22392:1 
0.7177703871240643 0 1191:1 2921:1 11245:1 16162:1 
0.7283746801161629 0 2051:1 12426:1 20924:1 22208:1 
0.5699871690935466 0 1156:1 1314:1 3714:1 5324:1 7532:1 9399:1 15579:1 15687:1 15913:1 19786:1 20021:1 
0 0.05014830481611435 818:1 1084:1 1156:1 6475:1 14110:1 15689:1 16436:1 19827:1 21051:1 21598:1 
0.1106512559546604 0 1021:1 3674:1 5566:1 5880:1 14828:1 18196:1 21864:1 
1 0 13724:1 14537:1 20463:1 20635:1 
0.04615654253819492 0 2808:1 8022:1 11962:1 
0.3984379193487534 0 6505:1 6666:1 9296:1 13477:1 14123:1 14653:1 15218:1 15363:1 15913:1 
1 0 14926:1 19552:1 
0.2034387471895034 0.005650028487363587 764:1 3264:1 14110:1 15512:1 16035:1 23904:1 
0.4589708241088231 0 5145:1 8464:1 10092:1 14347:1 18784:1 18951:1 19552:1 23597:1 
0.2258617787052914 0 4990:1 9416:1 12806:1 13477:1 15913:1 16662:1 17382:1 19205:1 22569:1 22714:1 
1 0 18801:1 19205:1 
0.07532705179113952 0 1906:1 3894:1 5299:1 6375:1 13835:1 23453:1 
0.2444442024611002 0 537:1 3493:1 4654:1 5592:1 6196:1 6295:1 7877:1 8102:1 10462:1 13183:1 13981:1 16914:1 17750:1 18938:1 20021:1 23732:1 
0.4113844162646171 0 1568:1 5065:1 13582:1 13811:1 15913:1 16882:1 18398:1 19276:1 
0.2097012294183971 0 173:1 538:1 539:1 1551:1 1631:1 4691:1 5065:1 6094:1 9388:1 16132:1 19403:1 22127:1 
0.6519719398192177 0 1924:1 3009:1 3390:1 3448:1 4989:1 7901:1 8625:1 10240:1 14173:1 14247:1 14292:1 15468:1 16864:1 18411:1 
0.3966273754716054 0 15913:1 23728:1 
0.2297634658104113 0 881:1 1744:1 5021:1 8087:1 9119:1 16150:1 17848:1 
0.9942435108111046 0 8442:1 11913:1 
0.4028098011522525 0 3814:1 13698:1 
0.2926573033678376 0 3006:1 3850:1 6884:1 7610:1 9544:1 11860:1 15045:1 22220:1 
1 0 12545:1 
1 0 3550:1 3675:1 
0.1291427566198673 0.01569617730133114 1999:1 3316:1 7402:1 8322:1 9198:1 17073:1 21070:1 22900:1 
0 0.1216040130944096 124:1 3177:1 6791:1 13928:1 15074:1 19771:1 20901:1 20903:1 
0.08551715559466989 0 14:1 2859:1 3493:1 5473:1 6713:1 8156:1 14293:1 15913:1 18129:1 24170:1 
0 0.002100024551320475 1581:1 1855:1 3493:1 3668:1 3714:1 3866:1 4187:1 7834:1 9708:1 14468:1 19052:1 20672:1 23183:1 
1 0 12078:1 15913:1 
0.4532630794929944 0 2663:1 2935:1 6360:1 7553:1 10114:1 10450:1 11860:1 12830:1 12991:1 18645:1 18815:1 
0.1938037152574334 0 1857:1 2973:1 3493:1 4480:1 5629:1 14534:1 15597:1 15913:1 16528:1 16763:1 17490:1 19046:1 22663:1 24263:1 
0.3671832664592277 0 1263:1 2640:1 4034:1 7003:1 8508:1 13434:1 13558:1 15030:1 15823:1 15913:1 18880:1 19045:1 22257:1 
0.9895513781494852 0 1191:1 6766:1 11068:1 13895:1 21404:1 
0.411134422291016 0 4182:1 4557:1 15928:1 20990:1 
0.16419907890255 0 825:1 8734:1 8805:1 10674:1 13354:1 17361:1 20633:1 
0 0.02645288891074797 734:1 6885:1 8143:1 13212:1 14447:1 14653:1 15924:1 18666:1 19049:1 23376:1 23913:1 
0.196244858082518 0 757:1 2001:1 3593:1 14489:1 17639:1 18978:1 20808:1 23649:1 
0.006326910976615803 0 2014:1 3582:1 5320:1 7560:1 12991:1 14653:1 21432:1 22625:1 
1 0 4989:1 8529:1 11292:1 11667:1 18602:1 19205:1 
0.3602686637229182 0 2559:1 4405:1 6223:1 7034:1 7402:1 12452:1 12827:1 15689:1 17536:1 20788:1 24223:1 
0.830930934381413 0 5069:1 12555:1 12985:1 17621:1 20522:1 20717:1 
0.06292006100612549 0 2507:1 2559:1 5268:1 10468:1 11230:1 12315:1 12427:1 19573:1 20536:1 21380:1 21392:1 22084:1 22970:1 
1 0 2853:1 6791:1 6811:1 7656:1 20622:1 22146:1 
0.3421459001637852 0 10503:1 18251:1 19672:1 
0.0543884424342805 0 165:1 3894:1 4653:1 6038:1 6569:1 6992:1 9013:1 12705:1 12912:1 16954:1 
0.7243382704826312 0 765:1 4811:1 6894:1 16727:1 17895:1 18022:1 22552:1 
0 0.01009154117209385 2918:1 5511:1 10114:1 14029:1 14215:1 14584:1 19243:1 21352:1 21577:1 22893:1 
0.5532348271951666 0 2608:1 6319:1 16763:1 22210:1 
0.4840178175643904 0 2064:1 2165:1 8433:1 15913:1 23094:1 
0.782319821706611 0.1999760044406514 10150:1 11553:1 22543:1 
1 0 6850:1 12422:1 16178:1 16911:1 19205:1 
0.08040124269327953 0 3633:1 6622:1 6989:1 7339:1 8828:1 11119:1 16321:1 19205:1 20183:1 20373:1 21214:1 21589:1 
1 0 6667:1 
0.5551938112608075 0 22447:1 24256:1 
0.2928352968719642 0 2869:1 9544:1 10049:1 14071:1 
0.8657113890965736 0 4182:1 12661:1 16759:1 
0.00208791814755599 0 6128:1 6989:1 9189:1 9229:1 9765:1 11772:1 13890:1 13959:1 17782:1 18742:1 19205:1 21572:1 
1 0 5675:1 5773:1 19205:1 
0.0558709491689595 0 1191:1 2207:1 3006:1 3047:1 5226:1 5436:1 6281:1 7302:1 7904:1 8102:1 10728:1 11164:1 14401:1 14622:1 14907:1 17933:1 21954:1 24165:1 
1 0 6989:1 14723:1 15311:1 20575:1 22334:1 
1 0 2474:1 5040:1 7468:1 8506:1 9641:1 10994:1 13550:1 15559:1 16221:1 16597:1 22453:1 23071:1 
0 0.02230255395530067 1156:1 2675:1 3219:1 3264:1 4610:1 6932:1 11245:1 11319:1 13524:1 14949:1 16759:1 21393:1 22264:1 22373:1 
0.24383127278339 0 1404:1 1423:1 4610:1 8529:1 8865:1 12758:1 15803:1 19088:1 20900:1 
1 0 4761:1 8557:1 8587:1 10017:1 10769:1 13698:1 16475:1 17204:1 19205:1 20520:1 24107:1 
0.4758466598477665 0 5588:1 9941:1 10077:1 11148:1 13270:1 14822:1 15456:1 17860:1 20140:1 20609:1 20635:1 21306:1 
0.2315370627567404 0 14:1 2509:1 5324:1 6351:1 12745:1 
1 0 2295:1 19634:1 
0 0.01314188232799223 43:1 14357:1 18602:1 18848:1 
0.5372080935908559 0 688:1 822:1 2280:1 4776:1 7465:1 8777:1 9312:1 11686:1 16485:1 18215:1 
0.09500162353234014 0 216:1 2918:1 3389:1 3866:1 4692:1 8167:1 14161:1 15935:1 17249:1 18314:1 19911:1 20256:1 21484:1 
0.7036975976643596 0 2276:1 4946:1 12879:1 15881:1 19205:1 
0.3830899773813061 0 2707:1 3154:1 3894:1 5268:1 5592:1 8827:1 13541:1 15698:1 17821:1 19587:1 19786:1 22090:1 22284:1 
1 0 4006:1 15749:1 19262:1 20749:1 
0.03885159603971743 0 1191:1 1481:1 4594:1 4610:1 4827:1 6352:1 9013:1 12112:1 14745:1 
0.6588262378394035 0 1562:1 3371:1 6741:1 8146:1 8828:1 10623:1 15070:1 16080:1 16424:1 19205:1 21238:1 22502:1 
0.5511858392664876 0.007595335294661782 430:1 3473:1 4437:1 6107:1 7739:1 11401:1 13005:1 18107:1 20621:1 24188:1 
0.1131716905201553 0 655:1 2494:1 2694:1 3413:1 3995:1 7899:1 10149:1 13792:1 14293:1 17783:1 18251:1 
0.5552886226549886 0 154:1 2984:1 3052:1 5226:1 8441:1 9479:1 11145:1 16827:1 17263:1 20087:1 21467:1 23367:1 23412:1 
0.2270816213788108 0 741:1 2242:1 3010:1 5613:1 12228:1 12745:1 15315:1 22129:1 
1 0 5574:1 22373:1 
1 0.02303216126181904 6784:1 7780:1 8171:1 15629:1 18920:1 22137:1 
0.4977948052519841 0 44:1 8133:1 11146:1 11464:1 15607:1 18645:1 
0.1013467894283849 0 5065:1 7017:1 7242:1 11969:1 14690:1 19421:1 20245:1 24283:1 
0.5277216972696088 0.02496185506398096 8167:1 8175:1 13479:1 15365:1 15609:1 17401:1 23551:1 24205:1 
1 0 4713:1 9601:1 11248:1 12715:1 16080:1 19403:1 20742:1 23071:1 
0.8990479366751448 0 9929:1 10114:1 15679:1 15689:1 17944:1 19205:1 19323:1 19617:1 
0.6931717298731469 0.01851568443507489 3702:1 6841:1 10246:1 12100:1 12908:1 19870:1 20900:1 21798:1 
0.4302560360034308 0 1191:1 4610:1 6130:1 7382:1 9820:1 14175:1 14303:1 20115:1 
0.008915463859331767 0 1687:1 2634:1 4060:1 5848:1 6757:1 6791:1 6989:1 10281:1 10672:1 11972:1 14453:1 15756:1 15913:1 18602:1 19222:1 21417:1 22460:1 23492:1 23515:1 23836:1 
0.7882988291536648 0 661:1 1267:1 2159:1 3248:1 3973:1 5151:1 5715:1 8192:1 9633:1 10623:1 14877:1 15689:1 17621:1 20256:1 20362:1 21345:1 
0.3279984471397632 0 2452:1 6344:1 7684:1 10340:1 10461:1 17372:1 18234:1 21266:1 21900:1 
0.08765999502994819 0 227:1 1156:1 3814:1 4480:1 5473:1 5581:1 7455:1 8433:1 9488:1 12870:1 16662:1 19195:1 19205:1 20040:1 20590:1 22012:1 
0.3747899296687408 0 6989:1 24347:1 
0.2840541189930659 0.01552585761092006 156:1 799:1 2599:1 10661:1 11667:1 14123:1 14311:1 17320:1 18342:1 23323:1 
1 0 14187:1 15579:1 
0.02569611760192883 0 1813:1 2580:1 2784:1 6041:1 7684:1 7823:1 7974:1 7975:1 7994:1 9138:1 10351:1 10380:1 12601:1 13229:1 14548:1 17017:1 18106:1 19642:1 20618:1 20745:1 21672:1 21808:1 23011:1 
0.02887633220314974 0 1553:1 4563:1 5551:1 6196:1 8623:1 9487:1 11262:1 12477:1 13760:1 14397:1 14496:1 14499:1 15434:1 15913:1 16252:1 19588:1 21623:1 
1 0 19262:1 19489:1 
0.6116469142756937 0 1932:1 6757:1 10100:1 13975:1 19205:1 19277:1 19855:1 23009:1 23439:1 23800:1 
0.5123936846683813 0 12765:1 14289:1 16285:1 
0.6419398401612203 0 1191:1 3043:1 5226:1 15042:1 15443:1 16073:1 
0.6640653586167727 0 3570:1 7178:1 12315:1 15260:1 22373:1 
0.02528168083361701 0 3006:1 8251:1 8807:1 18602:1 18898:1 
0.3950976735312345 0 1847:1 4318:1 6791:1 7542:1 15913:1 16759:1 
0.1809269147863916 0.01621988224089293 150:1 756:1 1857:1 3545:1 4444:1 8372:1 11878:1 12054:1 13811:1 15028:1 
0.7668764131692543 0 2606:1 3090:1 5035:1 13793:1 19205:1 19832:1 20115:1 20318:1 22970:1 
0.4340241735646215 0 199:1 1314:1 5008:1 6989:1 7102:1 7463:1 17600:1 18709:1 19205:1 
0.02210484112983718 0 2075:1 2441:1 12491:1 13818:1 18559:1 18602:1 19205:1 
0.8904064395101304 0 1191:1 2628:1 3264:1 5324:1 5941:1 6928:1 9157:1 11334:1 15901:1 16303:1 16413:1 18182:1 23364:1 
0.2781915967736893 0 2431:1 2640:1 2918:1 3570:1 5797:1 6162:1 7402:1 14123:1 17490:1 18938:1 20960:1 23058:1 
0.5835468445603785 0 1646:1 7929:1 16056:1 19205:1 
0 0.03673911587461474 818:1 1054:1 1712:1 1742:1 3702:1 4594:1 4629:1 6271:1 7168:1 14553:1 17185:1 18507:1 
0.1095969210996469 0 1191:1 1954:1 7430:1 10093:1 11087:1 11617:1 11845:1 12491:1 12920:1 13438:1 15915:1 19205:1 19919:1 
0.8734251816720264 0 4350:1 4835:1 6989:1 8475:1 11303:1 12682:1 17814:1 18314:1 
0.2683097555887792 0.002978290817702211 762:1 1582:1 3265:1 8725:1 16655:1 22461:1 22947:1 
0.3532732074023926 0 6281:1 10035:1 10384:1 23149:1 
0.2943116986226052 0 5955:1 6162:1 10367:1 12032:1 12960:1 15029:1 15504:1 15739:1 15913:1 19498:1 20530:1 20742:1 23191:1 
1 0 4078:1 6749:1 19551:1 
0.4613172323471695 0 4188:1 5129:1 10149:1 14853:1 18771:1 23149:1 23920:1 
0.01779267691252896 0 654:1 3562:1 3578:1 5728:1 6932:1 7467:1 14019:1 14653:1 15913:1 17179:1 17445:1 19090:1 19771:1 20320:1 20452:1 20903:1 20933:1 24213:1 
0.1638284005805455 0 834:1 1012:1 2634:1 4910:1 11700:1 11902:1 13249:1 13468:1 16059:1 18530:1 20966:1 22030:1 
0.09128788471840393 0 556:1 1191:1 9820:1 12315:1 14922:1 15901:1 20021:1 20115:1 
0.3332334444351799 0 1650:1 6093:1 10730:1 15913:1 20095:1 
1 0 2249:1 15913:1 
0 0.004346251810587018 279:1 364:1 4029:1 8392:1 9067:1 9141:1 9227:1 9361:1 9945:1 10049:1 10617:1 13620:1 19493:1 22475:1 22880:1 
0.1589346586261992 0 654:1 4654:1 16321:1 18544:1 
0.2329631401119981 0 3894:1 7302:1 8625:1 10453:1 11615:1 
0.9710062134829288 0 7259:1 8372:1 15865:1 22146:1 
0 0.02015576810663349 4006:1 7345:1 10521:1 15655:1 17184:1 18277:1 23488:1 23522:1 
0.3250368267331548 0 1156:1 4359:1 8299:1 9765:1 12409:1 13098:1 15913:1 17621:1 18347:1 19555:1 20991:1 21392:1 23780:1 
0.124833688489976 0 2400:1 4559:1 5526:1 6196:1 8167:1 11119:1 12545:1 15218:1 16744:1 19205:1 19930:1 
0.5942215950198856 0 2016:1 2431:1 3894:1 7224:1 8548:1 10631:1 13575:1 15886:1 16080:1 23581:1 
1 0 3265:1 13950:1 19516:1 24282:1 
0.2139329985298839 0 1191:1 1574:1 4338:1 
0.258564879326374 0 574:1 699:1 1454:1 1646:1 1970:1 3438:1 3595:1 6630:1 6908:1 7810:1 8729:1 11157:1 12597:1 13727:1 14240:1 19222:1 19996:1 20676:1 
0.6543289332539906 0 3101:1 11160:1 18780:1 19262:1 
0.1403614939762373 0 789:1 6749:1 8175:1 13099:1 14151:1 16408:1 18876:1 19587:1 21153:1 21968:1 22473:1 23973:1 
0.1779100824229863 0 110:1 2136:1 2723:1 4497:1 6162:1 9595:1 10346:1 12051:1 14375:1 15913:1 19840:1 21910:1 22987:1 23574:1 
0.1965969890525652 0.01451418947978955 955:1 2559:1 3793:1 6932:1 11669:1 15739:1 19262:1 19620:1 20145:1 23848:1 
0.1475619007261821 0 2244:1 4929:1 4957:1 6261:1 9644:1 11108:1 12662:1 15310:1 15594:1 17019:1 18293:1 19516:1 
0.2349526470082633 0.01520986957512731 2484:1 5118:1 9572:1 13871:1 15443:1 17766:1 20132:1 23097:1 24129:1 
0 0.03187550091551963 634:1 1110:1 6778:1 14195:1 14703:1 14822:1 15207:1 18286:1 19114:1 20723:1 
1 0 880:1 3429:1 3850:1 4640:1 5613:1 7890:1 22791:1 
0.7216729870740552 0 2279:1 2859:1 12422:1 15284:1 19894:1 
0.08688946706247039 0 3006:1 5526:1 23444:1 
0.07056119963841435 0 891:1 18022:1 23522:1 
0.3132059307241775 0.006365420532738525 2376:1 4475:1 7147:1 7490:1 14005:1 19412:1 
0.9607599529070259 0 9216:1 19039:1 
0.5324619969549437 0 12215:1 14045:1 15983:1 18357:1 
0 0.009593761145972534 1618:1 2478:1 2620:1 5178:1 6475:1 7771:1 7904:1 11366:1 15837:1 16023:1 16556:1 18558:1 23413:1 
0.09900766487936245 0.0349832843183115 5151:1 6223:1 6798:1 8167:1 8710:1 9931:1 14375:1 19287:1 19587:1 20279:1 21628:1 22730:1 
0.7806880501481277 0 60:1 3154:1 6685:1 7236:1 12770:1 16162:1 19205:1 20416:1 
0 0.01295123193779928 1012:1 4577:1 6496:1 6989:1 7223:1 8596:1 10190:1 12215:1 15689:1 17667:1 17788:1 21777:1 23265:1 23491:1 24145:1 
1 0 7901:1 19205:1 
0 0.06596816179970109 60:1 1674:1 2559:1 5409:1 6749:1 7061:1 7198:1 11145:1 11687:1 18321:1 18938:1 20040:1 20438:1 21029:1 
0.2793669891418804 0 961:1 1546:1 4915:1 5065:1 6916:1 7467:1 9212:1 11371:1 15913:1 15973:1 21218:1 22137:1 22963:1 
0.4080114132006778 0 2167:1 6431:1 7833:1 15445:1 15698:1 19011:1 19953:1 20860:1 
1 0 606:1 13811:1 14653:1 15646:1 
1 0 1293:1 1314:1 3494:1 13501:1 17094:1 
0.006047946076506184 0 9727:1 10114:1 14197:1 14447:1 15646:1 16127:1 16475:1 21920:1 22279:1 
1 0 5065:1 10878:1 11734:1 15913:1 19397:1 
0.1145256192798624 0 156:1 3047:1 8511:1 12914:1 13116:1 14375:1 17023:1 
0.3743071282290583 0 45:1 1995:1 3562:1 5349:1 7807:1 10521:1 11667:1 12162:1 13967:1 20899:1 23071:1 
0.9518620317915807 0.0829833875159481 766:1 5883:1 8102:1 8181:1 8740:1 11145:1 16433:1 17080:1 20253:1 20996:1 
0 0.05055815412530476 1972:1 6791:1 10339:1 13099:1 13893:1 14375:1 20095:1 20651:1 
0.2692955541424136 0 95:1 4710:1 6726:1 9765:1 11039:1 13088:1 16885:1 20414:1 21711:1 22017:1 23050:1 23364:1 
0.2817239966857341 0 7871:1 15162:1 15721:1 21797:1 
0.2299630888835122 0 1056:1 2559:1 5412:1 11347:1 12941:1 13811:1 16167:1 17864:1 19073:1 20889:1 21513:1 22910:1 23793:1 
0.5857221923094057 0 1156:1 1658:1 3850:1 5172:1 6076:1 7684:1 9464:1 10135:1 11292:1 12294:1 12533:1 14086:1 14453:1 14949:1 16009:1 17955:1 22255:1 23747:1 23877:1 
0.2747301447661454 0.04697371519997348 3111:1 6158:1 6872:1 7582:1 11966:1 13404:1 13440:1 19498:1 20095:1 21601:1 22317:1 22906:1 
0.0930461840813378 0 8164:1 8901:1 9205:1 12175:1 12188:1 13440:1 15383:1 15927:1 16162:1 19628:1 19911:1 22061:1 22249:1 22762:1 
0.2099823413146295 0 1423:1 5069:1 11624:1 19529:1 19874:1 
0.5793937446022015 0 6437:1 7302:1 11506:1 15315:1 19205:1 19329:1 22589:1 23828:1 
0.2514489984505291 0 3431:1 3915:1 4860:1 5135:1 5951:1 10793:1 14070:1 14653:1 
1 0 14653:1 15154:1 16371:1 
0.01748043754790992 0 1156:1 3509:1 5324:1 6375:1 9572:1 9881:1 10294:1 12528:1 12544:1 13175:1 21921:1 23071:1 23274:1 23871:1 23994:1 
0.1285842157868042 0 318:1 6894:1 11772:1 12315:1 14042:1 16664:1 21136:1 
0.9579589339978833 0 2242:1 6604:1 11464:1 15497:1 19421:1 22970:1 
0.3244587794483874 0 1423:1 2159:1 8192:1 8294:1 12524:1 22979:1 23914:1 
0.3016661341319589 0.04423090161870123 5777:1 12079:1 12442:1 13267:1 17663:1 17864:1 18516:1 22718:1 
0.8778012159399825 0 3265:1 7300:1 15333:1 15913:1 20927:1 24030:1 
0.4362666535552301 0 3960:1 6375:1 16188:1 18060:1 20755:1 22392:1 23394:1 
0.05788366855135917 0 4121:1 7257:1 15913:1 
0.1494768592506616 0 5172:1 10437:1 14110:1 15689:1 15695:1 17600:1 22334:1 
0.5518980621657117 0 43:1 13718:1 15102:1 20167:1 24293:1 
0.2017075320867882 0 3602:1 7933:1 11507:1 
0 0.057687841125404 5145:1 5178:1 5412:1 7503:1 13254:1 15459:1 20115:1 22575:1 23766:1 
1 0 156:1 6960:1 7794:1 8146:1 10142:1 18602:1 19205:1 20590:1 21750:1 
0.1997372504781217 0 1132:1 2376:1 8297:1 12732:1 12940:1 22361:1 
0.792224885359833 0 173:1 2431:1 4137:1 6294:1 10271:1 17934:1 19205:1 20115:1 22105:1 22334:1 
0.04411724182795718 0 1156:1 3373:1 19911:1 21689:1 24335:1 
0.03152014555685854 0 5012:1 7409:1 8473:1 8734:1 10915:1 13475:1 14328:1 18286:1 
0 0.06779903890393862 608:1 1412:1 3293:1 3849:1 4167:1 5613:1 7075:1 12309:1 13425:1 18913:1 22229:1 
0.1229762535772254 0 3814:1 3827:1 4346:1 9765:1 12931:1 17702:1 22970:1 
0.1448758183467903 0 2559:1 4480:1 4598:1 4739:1 5065:1 7018:1 9157:1 10060:1 15085:1 20016:1 
1 0 199:1 3321:1 7532:1 8072:1 9783:1 10135:1 20021:1 20127:1 
