svm_type c_svc
kernel_type linear
nr_class 3
total_sv 9
rho -0.39498 -0.364322 0.035937
label 0 2 1
nr_sv 3 3 3
SV
0.07562247976772078 0.07949847106807335 3:1 7:1 10:1 16:1 19:1 33:1 45:1 46:1 
0.3023879249453837 0.3176469164880473 17:1 43:1 
0.2016135620915033 0.2119170969099166 2:1 52:1 55:1 
-0.1268610972319751 0.09414949807597996 5:1 6:1 22:1 35:1 37:1 39:1 42:1 49:1 51:1 
-0.2534742750214564 0.1883112584600881 5:1 8:1 20:1 34:1 54:1 
-0.1992885945511763 0.1479932380883161 24:1 25:1 26:1 29:1 36:1 47:1 50:1 
-0.09852058011948954 -0.06955103083737672 4:1 9:1 11:1 12:1 14:1 15:1 18:1 28:1 31:1 40:1 44:1 48:1 56:1 
-0.08393862547054148 -0.05929589970333075 1:1 21:1 23:1 27:1 32:1 38:1 41:1 44:1 53:1 57:1 
-0.4266032788760061 -0.3016070640836767 13:1 30:1 38:1 
