svm_type c_svc
kernel_type linear
nr_class 3
total_sv 13594
rho -0.0658193 -0.999582 -0.999594
label 0 1 2
nr_sv 6422 6374 798
SV
0.824086292735879 0.05673506541589574 3636:1 6017:1 6156:1 8219:1 11327:1 13005:1 15139:1 15675:1 16315:1 18210:1 18939:1 21311:1 23173:1 
0.9494020291853911 0 1812:1 6021:1 10629:1 
0.1049793230743599 0 2197:1 3012:1 5538:1 6840:1 10133:1 22167:1 
0.3847582276494581 0 575:1 5882:1 14561:1 15683:1 17652:1 19239:1 20033:1 20330:1 
1 0.05626425907439743 4799:1 11035:1 14522:1 14967:1 16870:1 20909:1 22010:1 22167:1 
0.9480568833052316 0 629:1 3271:1 7026:1 10247:1 10629:1 10667:1 12960:1 17070:1 20295:1 23015:1 
0.3752282287530717 0 1491:1 17916:1 19321:1 19988:1 21029:1 
0.9256929692892663 0 1283:1 11697:1 18092:1 18247:1 21062:1 
0.6788835178600805 0 2481:1 4062:1 5063:1 5399:1 8118:1 8495:1 9618:1 16791:1 16889:1 
0.7669511010522855 0 1425:1 9864:1 17075:1 21994:1 
0.1435718784072958 0 3214:1 7234:1 7391:1 16440:1 18353:1 19429:1 19562:1 22186:1 
0.2244793879848162 0 2247:1 5447:1 15943:1 16964:1 22673:1 
1 0 1975:1 2668:1 5547:1 10629:1 13805:1 22184:1 22336:1 23687:1 23846:1 
0.7713188071065266 0 7898:1 7935:1 19550:1 20184:1 
1 0 5268:1 6021:1 11352:1 16159:1 
0.06890365423990998 0 2490:1 3530:1 3903:1 4015:1 4038:1 5335:1 8345:1 9605:1 9918:1 10643:1 10694:1 11814:1 12076:1 13148:1 18011:1 18809:1 19623:1 21029:1 23162:1 
0.8393960929522973 0 3148:1 3293:1 3384:1 6675:1 6908:1 8183:1 8513:1 15463:1 15966:1 16353:1 20523:1 20702:1 
0.1739666149029252 0 3444:1 8589:1 13386:1 15587:1 18494:1 
1 0.1414175695453218 9570:1 17976:1 19037:1 
0.638846527755801 0 43:1 8128:1 9653:1 10342:1 11597:1 16952:1 17274:1 19333:1 
0.2603249116891422 0 823:1 2247:1 2499:1 5681:1 6156:1 10683:1 15943:1 17532:1 18565:1 18664:1 20375:1 23536:1 
0 0.05223656381832812 4347:1 9084:1 10506:1 19554:1 
0.2291761509869197 0.002446030085661164 2096:1 3651:1 10735:1 19574:1 19839:1 
0.1253280902784686 0.0813283888844465 619:1 3839:1 4209:1 7012:1 8613:1 8833:1 11144:1 12275:1 12458:1 13073:1 15277:1 17326:1 22589:1 24111:1 
0.5130958560198997 0.2381045914881361 1697:1 1769:1 3783:1 8890:1 9480:1 19994:1 20384:1 21383:1 21906:1 
0.1069621766712866 0 1648:1 3896:1 4799:1 5335:1 6308:1 8918:1 12109:1 12687:1 20751:1 20971:1 21311:1 
0.09253426221380225 0 4114:1 4185:1 6349:1 6639:1 6689:1 7699:1 7990:1 8010:1 9891:1 9974:1 10370:1 10946:1 12013:1 12623:1 13835:1 15416:1 16366:1 18278:1 
0.1537845293778821 0 420:1 6274:1 6819:1 8957:1 10629:1 14564:1 15306:1 18073:1 18565:1 18578:1 19966:1 22273:1 22948:1 23827:1 
0.9101796400778788 0 3823:1 5057:1 14301:1 15053:1 
0.8417788386652372 0 4999:1 15812:1 19239:1 20102:1 
0.2249127799755893 0 823:1 2499:1 6308:1 7107:1 7742:1 7915:1 9691:1 11750:1 13064:1 22918:1 23779:1 24381:1 
0.4514494357130894 0.007562522886623723 865:1 6156:1 8614:1 9175:1 19806:1 20027:1 23242:1 23311:1 
0.9267828141510986 0 7395:1 15545:1 16691:1 17288:1 21311:1 
0.001785829934799369 0 2057:1 2645:1 6675:1 7923:1 13082:1 14201:1 19011:1 23125:1 
0.05968410522847585 0 486:1 2381:1 2859:1 6174:1 6566:1 19239:1 
0.3868116380785655 0 14:1 43:1 309:1 1229:1 10694:1 12767:1 15718:1 16003:1 21923:1 
0.1263591496961334 0 2095:1 2758:1 6825:1 8465:1 10904:1 11939:1 16545:1 17733:1 17976:1 19462:1 
0.04203990087665284 0 575:1 4509:1 5643:1 9001:1 9372:1 15726:1 17213:1 20281:1 20787:1 22807:1 23927:1 
0.007027894640253847 0 10370:1 11309:1 14036:1 18809:1 21792:1 22785:1 24018:1 
0.06621668271332613 0 868:1 2197:1 4069:1 6939:1 8766:1 8922:1 10629:1 10871:1 10935:1 11374:1 16791:1 19457:1 20058:1 21545:1 21992:1 
0.3147277074743043 0 3875:1 16407:1 17156:1 17401:1 20086:1 20216:1 22298:1 
0.3103986628529127 0 1977:1 3817:1 4151:1 6805:1 7283:1 8118:1 10629:1 20689:1 22167:1 23682:1 
0.3430100592426689 0 2635:1 3604:1 5428:1 6051:1 10338:1 11289:1 12449:1 14171:1 18835:1 22418:1 
0.4746284389787755 0 23015:1 23196:1 23572:1 24227:1 
1 0 4368:1 19239:1 21700:1 24381:1 
0.4697913367821952 0 443:1 828:1 4650:1 6702:1 10629:1 12305:1 15718:1 22670:1 
0.7403391142269197 0 4799:1 6174:1 8717:1 11639:1 15943:1 24275:1 
0.1518407681844877 0 2452:1 3346:1 5428:1 6210:1 7507:1 8833:1 13443:1 15392:1 15943:1 17720:1 23755:1 24203:1 
1 0 16507:1 
0.3895871781832231 0 2666:1 4566:1 11225:1 12412:1 15500:1 18813:1 19239:1 
0.2113440699622864 0 4603:1 6798:1 12104:1 14681:1 15895:1 15994:1 19605:1 23491:1 
0 0.01208599120137013 269:1 1180:1 2085:1 2141:1 2707:1 6210:1 6446:1 7003:1 11902:1 12158:1 14402:1 16849:1 20189:1 23568:1 
0.0267429200117863 0 4015:1 4172:1 4508:1 5075:1 5275:1 5536:1 6213:1 7135:1 8183:1 9605:1 15943:1 19239:1 21383:1 23064:1 
0.3462236534985732 0.02370651687375774 55:1 1037:1 1188:1 1856:1 4087:1 4985:1 7889:1 10643:1 19239:1 21819:1 23557:1 
1 0 5335:1 6780:1 9841:1 14199:1 17162:1 18211:1 19239:1 
0.1013356057455366 0 17916:1 21257:1 23535:1 
0.2610003237856621 0 5085:1 9340:1 10055:1 10797:1 16578:1 18781:1 21276:1 
0.05104423920611802 0 3867:1 4842:1 4985:1 5335:1 6347:1 14502:1 15943:1 16092:1 16325:1 18678:1 21473:1 
0.9235422307565537 0 2254:1 3594:1 4384:1 8546:1 12449:1 19239:1 21902:1 
0.7234446400874088 0 1180:1 2252:1 4663:1 10629:1 11475:1 12124:1 12767:1 15302:1 18940:1 19256:1 19875:1 20783:1 21840:1 21843:1 22682:1 23295:1 
0.2986402379500713 0 5749:1 10498:1 15022:1 16194:1 16566:1 16747:1 17830:1 21365:1 21522:1 22075:1 22565:1 22805:1 
1 0 19239:1 20971:1 
0.3154217465912038 0 6569:1 10302:1 10629:1 11266:1 16946:1 18073:1 18634:1 19329:1 23274:1 
0.7604893130729422 0 6637:1 8191:1 8829:1 14921:1 15925:1 17477:1 22497:1 
0 0.182650776579091 3376:1 5899:1 8173:1 9039:1 11832:1 14153:1 19072:1 
1 0 2750:1 2818:1 5209:1 6210:1 9605:1 10629:1 11268:1 14402:1 16182:1 18678:1 23756:1 
0.5105603093181941 0 1417:1 3051:1 4480:1 6190:1 6417:1 10843:1 12440:1 14520:1 20534:1 
0.1480170190346555 0 4399:1 16691:1 16783:1 21519:1 
0.19772332184162 0 1446:1 1975:1 3372:1 4579:1 6805:1 7707:1 8756:1 15344:1 15943:1 20691:1 23568:1 
0.7147051191595545 0 4799:1 6174:1 6805:1 17216:1 
0.1828460538946055 0 912:1 2259:1 6210:1 6745:1 7963:1 9321:1 9760:1 10112:1 13792:1 19520:1 20177:1 23896:1 
0.078413468325973 0 5335:1 6389:1 14495:1 20965:1 
0.1862428538941912 0 3957:1 4842:1 5057:1 5673:1 6156:1 12581:1 14480:1 18329:1 21538:1 22059:1 
0.841243594735221 0 1975:1 3588:1 5335:1 6274:1 6930:1 10629:1 16791:1 18678:1 19823:1 22324:1 23320:1 
0.3724716162455727 0 2645:1 3050:1 4799:1 5335:1 5757:1 7131:1 7945:1 10771:1 11282:1 15766:1 16506:1 18327:1 18974:1 22372:1 22418:1 23116:1 
0.9944763677093006 0 1978:1 2941:1 5015:1 5279:1 7003:1 10169:1 10247:1 10643:1 11014:1 14856:1 15203:1 15339:1 
0.7593686548840587 0 2490:1 6780:1 8263:1 9366:1 10133:1 10764:1 13908:1 20780:1 22167:1 22189:1 22506:1 
0.1791145886175869 0 4664:1 8336:1 11020:1 13198:1 14131:1 15042:1 15088:1 15472:1 16238:1 17318:1 20674:1 21941:1 
0.3287004985077159 0 1224:1 4489:1 4613:1 5031:1 5209:1 6780:1 8756:1 10133:1 12482:1 13913:1 14271:1 18110:1 19245:1 20971:1 21103:1 22347:1 22708:1 22799:1 
0.4809086923199052 0 1193:1 1700:1 8614:1 12767:1 12808:1 18108:1 22372:1 
0.06597775841308043 0.005018761672737175 8348:1 10629:1 12728:1 12951:1 13379:1 14116:1 15563:1 16117:1 21555:1 
0.5501771760422931 0 226:1 2254:1 5172:1 6149:1 14304:1 15957:1 21848:1 22314:1 22702:1 
1 0 1975:1 2668:1 3794:1 6167:1 10629:1 15275:1 17660:1 21046:1 21311:1 
0.6185181156105808 0 2104:1 2198:1 8115:1 15464:1 17814:1 19083:1 19239:1 20661:1 21552:1 
0.06270778892765375 0 3268:1 7842:1 8633:1 10629:1 11984:1 14355:1 15718:1 16933:1 19457:1 22618:1 
0.4846315553982292 0 3544:1 16691:1 17228:1 18634:1 
0.06988651984671526 0 4566:1 5335:1 15457:1 19999:1 23262:1 
0.09351981018807017 0 1316:1 9989:1 16687:1 18074:1 19239:1 22029:1 
0.2182608495640242 0 213:1 4008:1 5641:1 9678:1 13020:1 13113:1 15352:1 15943:1 21297:1 
0.4305987772662482 0 2254:1 3842:1 10703:1 12449:1 12696:1 18678:1 20641:1 21153:1 23624:1 
0.6162388307575329 0 914:1 1193:1 1261:1 4799:1 8217:1 9373:1 10851:1 14551:1 17559:1 18804:1 19084:1 
0 0.00836984742609137 120:1 2698:1 4782:1 9154:1 10948:1 12429:1 13561:1 15054:1 15378:1 20374:1 21305:1 23370:1 
0 0.01852977072823936 11:1 43:1 371:1 445:1 3711:1 3861:1 8059:1 9784:1 11689:1 12518:1 14057:1 14848:1 17609:1 18114:1 18752:1 19966:1 21612:1 
0.1352094662390419 0.005572206026129588 1975:1 2381:1 6274:1 7978:1 9198:1 10300:1 15831:1 19457:1 21560:1 23805:1 
1 0 1193:1 5666:1 6210:1 15472:1 18535:1 18804:1 21011:1 
0.06506281397271617 0 11:1 820:1 1212:1 3875:1 7945:1 10629:1 11035:1 11270:1 11868:1 13096:1 15398:1 15943:1 
1 0.1122191704610441 6419:1 15344:1 
0.5806022267921664 0 2405:1 2436:1 7003:1 7084:1 7459:1 8096:1 9870:1 11267:1 17620:1 
0.0873290826593794 0 2874:1 5423:1 5547:1 6437:1 15943:1 16988:1 23693:1 
0.1613798310699655 0 8183:1 9175:1 15395:1 19239:1 21849:1 22569:1 23986:1 
0.5104870109566814 0 1014:1 5257:1 8894:1 9218:1 9994:1 10629:1 11035:1 13125:1 15869:1 15943:1 16913:1 17088:1 18634:1 19018:1 23101:1 
0.1062909169581159 0 1327:1 1425:1 3731:1 4536:1 6389:1 8396:1 9655:1 10629:1 16130:1 17614:1 18832:1 19165:1 
0.44506248213003 0 11605:1 21839:1 23469:1 
0.1970732970063867 0 766:1 3962:1 5209:1 5322:1 5335:1 6407:1 8546:1 14131:1 14315:1 18125:1 21938:1 23491:1 
0.3157961555386314 0 850:1 2792:1 6854:1 8523:1 10629:1 14057:1 15472:1 15548:1 18247:1 19321:1 20132:1 22704:1 23695:1 23857:1 
1 0 4842:1 12337:1 13235:1 23809:1 
0 0.015441719117615 1754:1 1975:1 12505:1 14857:1 16117:1 16406:1 16507:1 21434:1 22323:1 23474:1 
0.1822944970710397 0 1209:1 9964:1 10209:1 10699:1 15088:1 16334:1 20789:1 20804:1 21938:1 22381:1 22465:1 23337:1 
0.005836846115680224 0 4455:1 13659:1 14474:1 15044:1 15252:1 16776:1 22372:1 
0.1951104283358134 0 5335:1 5547:1 6268:1 6274:1 6798:1 10960:1 11977:1 14681:1 21700:1 
0.6085677610192444 0 6174:1 12767:1 13504:1 18253:1 
0 0.01975119027407246 1187:1 1471:1 5825:1 10841:1 17626:1 23509:1 24205:1 
0 0.001057945575496014 784:1 6156:1 8563:1 12710:1 17117:1 
1 0 766:1 3079:1 3859:1 6461:1 9562:1 10629:1 11486:1 15344:1 15943:1 17848:1 17977:1 18478:1 
1 0 1425:1 10133:1 16213:1 
1 0 7003:1 19239:1 
0.2432512128151483 0 371:1 6659:1 6939:1 10165:1 10629:1 12227:1 13352:1 15943:1 16733:1 18073:1 19457:1 22525:1 23636:1 
0.0665102731376859 0 1590:1 2564:1 5057:1 6174:1 
0.09326773960182294 0 83:1 1595:1 3591:1 9207:1 12767:1 15528:1 18915:1 22372:1 22527:1 23048:1 23462:1 
1 0 2452:1 6274:1 10681:1 14681:1 17331:1 20490:1 
1 0 3192:1 10072:1 15943:1 21649:1 23743:1 
0.2283209419993031 0.05303416218828316 1141:1 4634:1 9884:1 10133:1 12696:1 15466:1 18073:1 18872:1 22346:1 
0.6494492423526866 0.01273470958316424 1975:1 4368:1 7834:1 10119:1 10629:1 17231:1 20394:1 21311:1 21825:1 22059:1 
0.8974979607322435 0.0002251041492491203 447:1 14402:1 
1 0 6389:1 8252:1 10233:1 15943:1 17652:1 18093:1 
0.5099215500887312 0 2997:1 8312:1 11035:1 12619:1 14402:1 18603:1 19038:1 21717:1 23051:1 24377:1 
0.3519111589492979 0 1633:1 1906:1 8289:1 9523:1 11695:1 12081:1 16407:1 17823:1 19056:1 20355:1 23275:1 23557:1 24274:1 
0.3750006353025988 0 2699:1 5085:1 5606:1 6174:1 9527:1 13684:1 19239:1 20079:1 20640:1 
0.5134835639876206 0 3439:1 10133:1 12767:1 21737:1 21860:1 
0.5229541686488888 0 174:1 828:1 1158:1 1875:1 1975:1 3393:1 4285:1 5625:1 9346:1 11466:1 18465:1 
0.2602421033384693 0 2010:1 4267:1 5586:1 10386:1 10629:1 12134:1 13103:1 13301:1 14681:1 20980:1 21434:1 23196:1 
0.2496946092419254 0 1633:1 4289:1 4702:1 5933:1 6172:1 8955:1 16240:1 18437:1 18678:1 20222:1 21311:1 
0.7781051255121928 0 11:1 1975:1 2666:1 3171:1 4109:1 8632:1 10629:1 14639:1 
0.5101027646952915 0 1202:1 3047:1 4176:1 8032:1 10119:1 15615:1 19462:1 
1 0 5296:1 6174:1 14056:1 14947:1 20472:1 20938:1 
0.2071238381487411 0 2247:1 3884:1 7274:1 13128:1 14681:1 
0.3227387392914756 0 4195:1 6593:1 7472:1 12564:1 15904:1 17400:1 18108:1 18510:1 20565:1 21791:1 22167:1 
0.2439273888148807 0.04961604873188701 3298:1 5809:1 8907:1 11552:1 17609:1 
0.1803998879082386 0 284:1 371:1 1453:1 3440:1 3924:1 10083:1 11155:1 15524:1 16386:1 18293:1 18530:1 18535:1 19433:1 20127:1 22866:1 23490:1 24175:1 
0.1783482990158115 0.02265748188058861 1589:1 5679:1 7566:1 7901:1 10643:1 12076:1 22393:1 23513:1 
0.7838925293860169 0 13585:1 14131:1 15112:1 15943:1 18373:1 18388:1 18487:1 
0.5739066193011673 0 2436:1 2483:1 11267:1 13869:1 16325:1 19900:1 22820:1 23283:1 
0.403421547579735 0 1320:1 1321:1 2407:1 2815:1 2906:1 3293:1 3655:1 8094:1 8918:1 12767:1 14495:1 17976:1 18309:1 
1 0 7239:1 13272:1 13458:1 
1 0.02949736445183406 1975:1 2554:1 4638:1 9678:1 13875:1 14848:1 20585:1 
1 0 6174:1 18678:1 
1 0 5045:1 10629:1 13696:1 17895:1 21028:1 
0.7008620456802721 0 256:1 1582:1 3903:1 6210:1 7910:1 10629:1 14516:1 15247:1 21028:1 
0.21100618223101 0 481:1 3251:1 3966:1 6156:1 9590:1 9900:1 10027:1 10793:1 11352:1 11930:1 14075:1 14480:1 16111:1 20132:1 20940:1 21434:1 22292:1 22379:1 
1 0 1975:1 10627:1 10629:1 17288:1 21456:1 
0.3672001097601081 0.01998238201563394 1632:1 3271:1 6779:1 7920:1 10952:1 11807:1 13537:1 15019:1 15238:1 16926:1 19239:1 21311:1 23795:1 
0.6522394077222032 0.009841573306935915 1765:1 2381:1 4910:1 9099:1 9746:1 10970:1 15005:1 15300:1 22926:1 
1 0 6437:1 8510:1 10629:1 19239:1 21346:1 21791:1 22167:1 
0.09555145786107379 0 1028:1 1912:1 3763:1 4908:1 5075:1 6888:1 7354:1 10133:1 16315:1 20152:1 23116:1 
0.3475056450613352 0 707:1 7634:1 8874:1 15957:1 16577:1 17702:1 18247:1 20360:1 20719:1 
0.2547296690473865 0 217:1 4979:1 6322:1 13294:1 19239:1 22781:1 
0 0.1908493599150954 60:1 920:1 7102:1 23704:1 
0.2155950473216594 0.3518919883949011 382:1 683:1 10133:1 14287:1 23812:1 
0.2141031034011935 0.03687116640900961 1233:1 2366:1 6866:1 7758:1 7806:1 9923:1 10629:1 10683:1 10735:1 12838:1 13826:1 14131:1 20107:1 23288:1 
0.9107133093050536 0 9122:1 14271:1 18783:1 20058:1 
0.8886374650512254 0 655:1 2068:1 7397:1 8034:1 9377:1 19990:1 23892:1 
0.1752150415601214 0 60:1 1141:1 3577:1 4840:1 12912:1 18389:1 21572:1 21848:1 21906:1 
0.00336279814053983 0 2762:1 2845:1 4308:1 8875:1 11505:1 14681:1 18180:1 19222:1 21435:1 22403:1 
0.7370445742600602 0 2564:1 3846:1 6397:1 17293:1 17703:1 17958:1 19022:1 20164:1 
0.4516936875997757 0 4454:1 5449:1 11303:1 14116:1 17860:1 18960:1 
1 0 6358:1 10335:1 11810:1 16092:1 18389:1 
0 0.01735949798655791 1158:1 1209:1 2052:1 10651:1 19390:1 19988:1 
0.1839122666679027 0 4577:1 5300:1 6224:1 7089:1 8341:1 8745:1 10299:1 11520:1 14480:1 15943:1 19137:1 19141:1 20177:1 21311:1 23554:1 
0.3513532810756965 0 4162:1 4176:1 12448:1 13878:1 14213:1 18247:1 20204:1 22588:1 
0.008027989685661858 0 1212:1 2918:1 4427:1 5727:1 7397:1 7901:1 10821:1 13008:1 15131:1 17205:1 17459:1 22167:1 22643:1 
0.1182342509695415 0 60:1 5338:1 7441:1 8063:1 15943:1 16213:1 19531:1 
1 0 3293:1 3439:1 7483:1 10629:1 11020:1 15651:1 24032:1 
1 0 1975:1 4146:1 6308:1 6389:1 7592:1 10629:1 16691:1 18752:1 19239:1 20544:1 20661:1 22372:1 23615:1 23812:1 
0.6615309067598204 0 373:1 3647:1 10629:1 15943:1 16629:1 19972:1 21046:1 24192:1 
0.1629438804963645 0 1604:1 1715:1 7837:1 18892:1 
0.09521980713013256 0 280:1 6763:1 8969:1 10629:1 15833:1 17473:1 22272:1 
0.4419663887709526 0 1193:1 2803:1 3649:1 4860:1 6946:1 9795:1 9989:1 11015:1 15340:1 16940:1 17585:1 
0.02828963182013793 0 3502:1 9632:1 10629:1 21434:1 22132:1 23717:1 
1 0 2489:1 6798:1 8187:1 10629:1 15943:1 21981:1 24381:1 
1 0.04275039855229281 1876:1 1957:1 6156:1 14136:1 
0.2707593156629784 0 63:1 3379:1 5393:1 9857:1 12767:1 13092:1 13399:1 13647:1 13742:1 18681:1 
0.7258621105152843 0 1975:1 4799:1 10942:1 22909:1 
1 0 44:1 1975:1 10629:1 12000:1 15344:1 15545:1 17522:1 18678:1 21994:1 
0 0.04202539382549213 629:1 2381:1 3293:1 4698:1 6465:1 7475:1 8492:1 19616:1 21311:1 22167:1 24236:1 
0.1602254194757414 0.02267702463731272 37:1 5740:1 9707:1 14029:1 14970:1 15037:1 15339:1 18719:1 19239:1 21642:1 24095:1 
0.8022780480890926 0 2712:1 6106:1 6274:1 6675:1 8183:1 10629:1 13407:1 18362:1 18835:1 23116:1 
0.604791054229284 0.0525979710538331 53:1 4368:1 7208:1 11486:1 12134:1 13103:1 14583:1 16637:1 21314:1 22142:1 23462:1 23926:1 
1 0 4569:1 6213:1 6794:1 7370:1 9084:1 10629:1 11314:1 12316:1 14978:1 16020:1 17739:1 19282:1 22573:1 
0.06461260597959781 0.04711398509550635 1425:1 6210:1 6669:1 10383:1 12331:1 16402:1 21332:1 
1 0 1019:1 7482:1 8523:1 11035:1 15947:1 19239:1 21665:1 
0 0.02279019023890103 828:1 1975:1 3050:1 12467:1 14000:1 14213:1 15106:1 22998:1 
1 0.05505905081663022 6702:1 9207:1 17052:1 24259:1 
0.003016231061948397 0 7317:1 8466:1 12600:1 15472:1 19001:1 20058:1 20204:1 21791:1 22252:1 22533:1 
0.7356841729800239 0 1975:1 3561:1 8387:1 11882:1 15340:1 15943:1 18247:1 21849:1 23318:1 
0.0713872519892101 0 3445:1 10247:1 14018:1 19080:1 19239:1 
0.08047148131831564 0 14230:1 14857:1 19988:1 
1 0 1194:1 4581:1 17012:1 18049:1 20409:1 
1 0 226:1 5187:1 7896:1 23229:1 
1 0 5335:1 5568:1 6274:1 6333:1 11267:1 13851:1 14480:1 16656:1 16952:1 17497:1 19462:1 
0.660352604090479 0 1348:1 3293:1 7833:1 9409:1 10629:1 14241:1 14902:1 15943:1 22467:1 
0.9443217524090934 0 4489:1 5544:1 15718:1 16934:1 19239:1 19737:1 20414:1 
1 0 2668:1 14474:1 
0.09687887457674045 0 48:1 157:1 3311:1 4342:1 7684:1 8845:1 13896:1 16726:1 17609:1 18634:1 21154:1 21237:1 21952:1 23868:1 
0 0.02054033971468638 3012:1 3271:1 11024:1 11437:1 12134:1 14605:1 20333:1 22272:1 23774:1 24148:1 
0.13960396645057 0 157:1 371:1 3502:1 8701:1 10300:1 10994:1 11429:1 12886:1 14438:1 17440:1 
0.2925036147853459 0 1582:1 3565:1 3644:1 6291:1 6866:1 8884:1 9661:1 20132:1 21311:1 24071:1 
1 0.003848712500152299 1158:1 10342:1 11992:1 13144:1 19895:1 
0.6182760930045053 0 267:1 7867:1 8443:1 10649:1 13574:1 14851:1 15119:1 16725:1 17455:1 17652:1 19394:1 20755:1 24339:1 
0.2239723822410747 0 11353:1 18678:1 
0.5721865163683032 0 1193:1 3802:1 9990:1 
0.06002013833425939 0 470:1 1158:1 6274:1 8343:1 9000:1 10943:1 12448:1 12964:1 14626:1 15943:1 18634:1 20909:1 22167:1 22308:1 
0.3744575975566132 0 7547:1 12170:1 20058:1 22670:1 
0.1138467557496934 0 418:1 1193:1 2564:1 3711:1 3875:1 4898:1 10605:1 16092:1 16671:1 18793:1 20766:1 22680:1 
1 0.1505016170131958 914:1 2564:1 10365:1 11035:1 17631:1 
0.6756374139934854 0 60:1 655:1 1440:1 3193:1 3371:1 3526:1 3815:1 5787:1 7622:1 9554:1 9847:1 15943:1 17012:1 20189:1 22120:1 23410:1 
0.4842398427802606 0 16964:1 19398:1 20498:1 
1 0 2924:1 15218:1 19180:1 
1 0 14181:1 19239:1 20673:1 
0.5677747207584487 0.002762153673945713 760:1 1745:1 1975:1 2147:1 5392:1 8730:1 9207:1 11035:1 13408:1 16683:1 16812:1 
0.1977717168043322 0 245:1 2436:1 8882:1 11069:1 12549:1 12986:1 13272:1 14078:1 15943:1 18634:1 19239:1 19525:1 22437:1 
0.2356783669468054 0 9606:1 9784:1 11035:1 18115:1 22035:1 22741:1 
0.6527673259417288 0 1851:1 3012:1 3379:1 5316:1 7199:1 8528:1 10683:1 12929:1 18370:1 18664:1 20673:1 21640:1 22571:1 
0.991455049085023 0 1642:1 9112:1 18349:1 18667:1 
1 0.247768804742774 963:1 8546:1 12861:1 
1 0 10681:1 
0.5942672375800484 0 3815:1 4480:1 5817:1 11887:1 15718:1 16205:1 19437:1 21311:1 21619:1 
0.6529818917889956 0 3012:1 9606:1 18384:1 
0.3991187991193475 0 1243:1 1745:1 2611:1 5749:1 6696:1 7742:1 13273:1 14010:1 19230:1 24090:1 
0.28808283215787 0 251:1 15943:1 16210:1 18972:1 21545:1 23776:1 
0.3137588315075026 0 1158:1 4357:1 11236:1 11985:1 12513:1 16638:1 17112:1 23484:1 
1 0 2254:1 15718:1 15943:1 16515:1 23537:1 
0.008062321676394032 0 6982:1 7397:1 7907:1 12113:1 14070:1 15943:1 17156:1 22864:1 
0.8925008965058552 0 1158:1 2792:1 3490:1 4619:1 6805:1 9923:1 15943:1 17276:1 21311:1 
1 0 1261:1 2436:1 2490:1 4638:1 9082:1 9084:1 10443:1 11035:1 18634:1 19909:1 21952:1 23095:1 
0.003189413786891891 0 5790:1 7915:1 9595:1 12619:1 22167:1 
0.6224573768116032 0 8894:1 9641:1 11071:1 11515:1 15943:1 17512:1 21931:1 
0.2524120592806703 0 3502:1 15622:1 22713:1 
0.3629404377121108 0 120:1 2698:1 6174:1 12429:1 19239:1 21498:1 23984:1 
0.2613262043531332 0 5552:1 5993:1 8882:1 9314:1 14480:1 16210:1 16705:1 18809:1 21311:1 
0.5714738585168714 0.004353032123339632 1209:1 2489:1 3859:1 10854:1 14970:1 15123:1 16505:1 23241:1 
0.7762128435132751 0.2635646880608343 3668:1 5438:1 6047:1 9784:1 23812:1 
0 0.03813075388215736 3895:1 5148:1 6156:1 6503:1 7250:1 13294:1 13300:1 14342:1 14355:1 16194:1 20971:1 
1 0 120:1 6345:1 6407:1 19239:1 
0.999369812476 0 1480:1 7284:1 10629:1 13779:1 14437:1 14681:1 18217:1 21413:1 23664:1 
0.5334553540976795 0 939:1 3049:1 5335:1 5882:1 10629:1 15943:1 18283:1 18835:1 18841:1 22591:1 
0.2566896057893754 0 711:1 2592:1 3698:1 4280:1 6763:1 6944:1 8168:1 10133:1 10643:1 10684:1 11817:1 11924:1 14491:1 18718:1 20845:1 21440:1 
0.1464452600339082 0 3051:1 3559:1 4285:1 5085:1 6026:1 6375:1 7747:1 10326:1 12393:1 13836:1 14030:1 14131:1 15961:1 16809:1 18946:1 20574:1 21526:1 22785:1 23316:1 
0.4731688123815132 0 2859:1 4195:1 6174:1 6401:1 12546:1 13756:1 14177:1 15655:1 18982:1 
0.8360475792066754 0 3372:1 4619:1 8258:1 9112:1 10540:1 10629:1 14185:1 19670:1 
1 0 1975:1 2712:1 5423:1 10629:1 12087:1 15122:1 15943:1 20787:1 21346:1 
0.5994616157093818 0 4862:1 10433:1 13771:1 21578:1 
0.1702106972276303 0 1084:1 2758:1 3577:1 4842:1 4892:1 5075:1 9218:1 12237:1 14155:1 15395:1 
1 0 1975:1 3647:1 9561:1 9605:1 14199:1 14213:1 18353:1 18678:1 20660:1 
0.3186741243091382 0 2641:1 4510:1 6210:1 7417:1 8031:1 10424:1 12773:1 15190:1 16406:1 17274:1 18851:1 23771:1 
0.891992384416087 0 2925:1 3012:1 5335:1 9879:1 11267:1 17159:1 18634:1 21310:1 
0.1005364530483201 0 2372:1 2663:1 5076:1 6461:1 6884:1 7547:1 9857:1 11882:1 15115:1 19209:1 
0.8926043667003872 0 2436:1 3372:1 5335:1 8187:1 13020:1 14088:1 16049:1 17326:1 17486:1 20780:1 
0.5150775680160735 0 360:1 2452:1 7901:1 10104:1 10190:1 11268:1 11314:1 23116:1 23592:1 
0.01777914457883562 0 2424:1 3050:1 3199:1 3588:1 5044:1 6174:1 7003:1 7931:1 8182:1 16881:1 18431:1 22189:1 
0 0.05751369751454842 1370:1 8627:1 10629:1 13272:1 14320:1 14958:1 16080:1 16673:1 17288:1 18634:1 18678:1 
0.5340238338511486 0 5031:1 11377:1 11784:1 
0.6289862506499987 0 1975:1 2449:1 3379:1 8973:1 8983:1 10694:1 11609:1 15785:1 16441:1 19239:1 19356:1 21791:1 
1 0 120:1 1158:1 6275:1 6805:1 10629:1 14402:1 15717:1 16111:1 20132:1 21468:1 22464:1 
0.3108745630936779 0 1414:1 1677:1 3047:1 6156:1 9084:1 9994:1 10015:1 10629:1 11290:1 12134:1 16117:1 17908:1 18851:1 19239:1 21028:1 21792:1 
0.6045907371129325 0 7397:1 10629:1 14271:1 14365:1 15716:1 15943:1 21427:1 24383:1 
0.8687463937090151 0 1975:1 4290:1 5075:1 8213:1 9404:1 13994:1 14131:1 14136:1 17652:1 18228:1 23116:1 
0.3460934683667263 0 212:1 629:1 2694:1 5075:1 8324:1 10592:1 11035:1 11624:1 14116:1 14131:1 15943:1 17205:1 17871:1 19239:1 21998:1 22298:1 22781:1 
0.2513671841498441 0.08231173418723126 2141:1 3503:1 6210:1 7234:1 7427:1 13235:1 17426:1 18023:1 21311:1 23745:1 
0.8972698804112653 0 3280:1 3372:1 13273:1 13458:1 22481:1 
1 0 10133:1 10629:1 11015:1 21727:1 
0.02068010418201473 0 1158:1 1193:1 17486:1 19239:1 19462:1 20086:1 20565:1 
0 0.01376076499214221 626:1 1548:1 4399:1 5889:1 6917:1 15718:1 18879:1 23795:1 
0.02971227238493611 0 670:1 952:1 2803:1 6435:1 10629:1 11438:1 12989:1 16761:1 20132:1 21591:1 22781:1 23101:1 
0.3134070014377069 0 1521:1 2848:1 2924:1 3390:1 4657:1 5957:1 6210:1 14681:1 20281:1 20465:1 21311:1 23956:1 
0.554439664996026 0 83:1 773:1 1209:1 1975:1 2802:1 3509:1 4566:1 7482:1 10629:1 13149:1 14851:1 15231:1 15943:1 18634:1 
0.3514719623182408 0 3903:1 6102:1 11022:1 16032:1 16776:1 
0.8877857103100232 0 3591:1 5280:1 6227:1 6939:1 8390:1 9979:1 14152:1 18634:1 18709:1 
0.110825281074691 0 2845:1 3208:1 4237:1 4799:1 5335:1 8255:1 9280:1 22481:1 22588:1 
1 0 1975:1 3439:1 5538:1 10247:1 10629:1 11697:1 11855:1 20835:1 23668:1 
0.241587743180304 0.0222222827825646 3559:1 12016:1 15288:1 16535:1 18998:1 
0.431909157696471 0 2836:1 6780:1 10681:1 13009:1 13745:1 21474:1 
1 0 7003:1 9114:1 19239:1 
0.6629675815909827 0 1445:1 6616:1 9496:1 10085:1 14199:1 15545:1 16571:1 16671:1 17945:1 19457:1 19591:1 21311:1 21365:1 
1 0 2285:1 
0.05635238826244634 0 1193:1 5237:1 8960:1 9990:1 10696:1 13028:1 14131:1 15870:1 17497:1 20660:1 21253:1 23490:1 24185:1 
0.8146855687549038 0 896:1 1019:1 9532:1 9555:1 10526:1 13601:1 
1 0.1514603508141154 9084:1 9502:1 
0.4765731473944232 0 9993:1 13018:1 18678:1 20164:1 
0.5658085606079323 0 3059:1 3502:1 3632:1 12976:1 20623:1 20943:1 
1 0 19239:1 22272:1 
1 0 12474:1 15654:1 16111:1 19457:1 23735:1 
0.5823901712053897 0.03616731352550769 1975:1 3079:1 5457:1 7012:1 10629:1 12727:1 21909:1 
0.2936550391058472 0 976:1 1193:1 1824:1 15718:1 17191:1 17522:1 18840:1 20362:1 20762:1 21473:1 
0.4566388571561752 0 379:1 1198:1 1261:1 3136:1 3544:1 5112:1 14936:1 15943:1 17446:1 18667:1 23857:1 
0.8847300600670801 0 8038:1 10012:1 10526:1 10629:1 15760:1 16135:1 23134:1 
0.9719640124730795 0.01127147962796181 952:1 7650:1 7692:1 9434:1 10629:1 11035:1 
0.5529636225597252 0.01288689185947229 1370:1 6461:1 7566:1 9195:1 12767:1 14958:1 18932:1 22195:1 
1 0 4979:1 5085:1 17737:1 19670:1 20780:1 21662:1 23116:1 23937:1 
1 0 1998:1 4842:1 5681:1 6171:1 7522:1 10629:1 22973:1 
0.1744254846869511 0 1652:1 8714:1 9743:1 9784:1 12834:1 20330:1 
0.1744622998936902 0 2173:1 3268:1 4793:1 6805:1 13918:1 16253:1 17486:1 19885:1 20132:1 21054:1 22167:1 
0.4636686001608608 0 2113:1 3379:1 3459:1 4052:1 5577:1 10351:1 11987:1 13443:1 18446:1 18467:1 18982:1 21158:1 21650:1 22675:1 23291:1 23370:1 23384:1 
1 0 1975:1 3859:1 10629:1 14320:1 15943:1 
0.6702088223876463 0 11265:1 20199:1 
0 0.03424254044517655 5351:1 7031:1 7774:1 13718:1 13734:1 14029:1 15054:1 15344:1 15943:1 21848:1 
0.4306554528934693 0 1975:1 5987:1 8332:1 14163:1 15196:1 15718:1 17958:1 21150:1 21354:1 21456:1 24191:1 
0.7090034407535607 0 1193:1 10005:1 15931:1 
0.2368867733024836 0 3591:1 4812:1 8263:1 13944:1 14486:1 15528:1 15541:1 18960:1 21192:1 
0.6900894209951539 0 1652:1 5000:1 6274:1 10326:1 10629:1 12259:1 15053:1 16210:1 16307:1 16407:1 21792:1 22266:1 22726:1 
0.3410249472400009 0 2209:1 4860:1 5335:1 8852:1 10916:1 16934:1 21068:1 
0.4039039012916261 0 1193:1 6772:1 18748:1 18932:1 
0.1170672817515265 0 673:1 8457:1 8547:1 9115:1 24192:1 
0.5069777662546285 0 2641:1 5817:1 12316:1 12795:1 
0.2554432613553255 0 9179:1 9958:1 10615:1 10629:1 12337:1 13818:1 15943:1 16571:1 17151:1 19239:1 21383:1 23187:1 
1 0 1975:1 8528:1 10433:1 10629:1 18982:1 
0.2958908471421992 0 2184:1 5076:1 8656:1 8808:1 14551:1 15931:1 16003:1 21923:1 22998:1 
0.171476269976935 0 1642:1 2603:1 2629:1 6564:1 6786:1 7441:1 8481:1 9134:1 13464:1 14474:1 15486:1 22588:1 23366:1 
0 0.01572539043509046 1551:1 2283:1 7251:1 7684:1 9524:1 14272:1 15760:1 17162:1 18786:1 23704:1 
0.1216385371089368 0 4508:1 8209:1 8399:1 9085:1 9636:1 11756:1 12059:1 17941:1 19603:1 22437:1 24228:1 
0.4123494309479969 0 420:1 1632:1 5050:1 8543:1 15472:1 16686:1 20164:1 
0 0.06933336305597111 820:1 5226:1 8918:1 8929:1 9084:1 9958:1 18073:1 19329:1 23620:1 
0.6491352798361493 0 1180:1 1975:1 6174:1 10629:1 11924:1 15340:1 15943:1 17269:1 18583:1 
0.5768733540370309 0.02706234798883699 666:1 6301:1 6934:1 8130:1 11944:1 14655:1 17321:1 17380:1 
0.2828304675930841 0 4065:1 5128:1 8492:1 10629:1 14516:1 17989:1 20671:1 24197:1 
0.07318764305297559 0 10313:1 20465:1 
0.2777673251367812 0 226:1 3861:1 4130:1 6805:1 9715:1 11314:1 12716:1 13273:1 17234:1 
0.1077876821488179 0.04241602598290234 1435:1 1564:1 1732:1 2171:1 4763:1 5503:1 14495:1 14828:1 15931:1 18353:1 23125:1 23336:1 
0.787581860878976 0 4712:1 10064:1 20056:1 20249:1 21848:1 
0.4693781827489088 0 1927:1 2156:1 7583:1 9523:1 10259:1 10629:1 15114:1 15675:1 16468:1 22323:1 
0.4331586083114249 0 483:1 1414:1 11646:1 14704:1 15467:1 18054:1 21062:1 22800:1 23557:1 
0.286243609062085 0.03247274132891741 723:1 1421:1 6274:1 13282:1 13768:1 15094:1 15339:1 18999:1 22756:1 22816:1 23509:1 
0.3330630038302336 0 2698:1 5423:1 9835:1 10005:1 19037:1 
0.8540467089130905 0 1212:1 7547:1 19239:1 19510:1 20058:1 21287:1 
0.6818095718887285 0 1158:1 1975:1 2381:1 4840:1 12134:1 13822:1 13843:1 14924:1 15943:1 19614:1 20209:1 
0 0.0298723165072013 3108:1 6156:1 6914:1 9070:1 16210:1 18809:1 
0.160848915831807 0 1975:1 4673:1 5906:1 9142:1 11345:1 12430:1 13457:1 14681:1 15828:1 20623:1 23471:1 
0.4050683684703453 0 1229:1 1321:1 1975:1 3051:1 5540:1 6156:1 8880:1 10326:1 15684:1 19263:1 19522:1 22959:1 23620:1 
0.08857999317656218 0 109:1 2068:1 6265:1 6873:1 15327:1 15339:1 18322:1 21456:1 
0.2285534130787772 0 991:1 5063:1 5226:1 9004:1 9534:1 15197:1 21311:1 24381:1 
0.3558601466036916 0 5279:1 5673:1 10104:1 15489:1 16655:1 16700:1 18701:1 19971:1 21359:1 21648:1 23116:1 23568:1 
0.02352037538458953 0 3016:1 7397:1 8034:1 10629:1 13769:1 17720:1 19881:1 
0.2025841032503111 0 3588:1 8918:1 8929:1 10108:1 10209:1 13836:1 14511:1 15104:1 16436:1 17933:1 23882:1 
0.1459370666569886 0.1528144522667028 1158:1 7048:1 13926:1 16797:1 
1 0 990:1 1209:1 2174:1 2483:1 8822:1 8848:1 8894:1 9964:1 18632:1 18804:1 24390:1 
1 0 1193:1 10005:1 13014:1 18932:1 
0.02661834286544945 0 2990:1 3277:1 3935:1 9614:1 11277:1 11794:1 12321:1 16111:1 16791:1 16859:1 
0.4620642701678916 0 11:1 1158:1 8345:1 11816:1 23809:1 
0.2392439125199591 0 1158:1 1601:1 5380:1 12432:1 15221:1 15994:1 18293:1 18684:1 23165:1 
0 0.0800805641420996 2291:1 2483:1 6946:1 7854:1 9983:1 10190:1 13869:1 14131:1 16795:1 17434:1 20647:1 21028:1 21244:1 
0.1458493469698677 0 340:1 3058:1 4817:1 5075:1 19457:1 
1 0.1421912450749739 9459:1 15462:1 
1 0.4105342522156112 6174:1 7417:1 12306:1 17581:1 18461:1 20184:1 24339:1 
1 0 5538:1 6389:1 18678:1 20628:1 
0.5704142819390272 0 3274:1 11102:1 11505:1 13100:1 
0.02441313848191829 0 5540:1 6218:1 7990:1 8973:1 10483:1 16344:1 17292:1 17975:1 19239:1 21584:1 23266:1 23368:1 24120:1 
1 0 60:1 3591:1 4638:1 4726:1 5335:1 6106:1 6908:1 11583:1 12337:1 14136:1 
0.2399251606880694 0 16820:1 
0.8902161172033339 0 1651:1 2645:1 5423:1 6099:1 6274:1 12104:1 15718:1 15943:1 18318:1 
0.8968726845962657 0.06379161131155939 5075:1 9618:1 10066:1 11035:1 11281:1 15832:1 16213:1 17670:1 21950:1 24203:1 
1 0 1158:1 8345:1 8656:1 14136:1 24313:1 
0.2065978887151787 0 360:1 2490:1 5954:1 7652:1 12886:1 16111:1 16902:1 17112:1 18565:1 20058:1 22418:1 
1 0 773:1 1158:1 1343:1 1975:1 2472:1 2689:1 2699:1 8345:1 15844:1 17489:1 
0.7086817090168875 0 3379:1 3677:1 6884:1 9115:1 15931:1 15943:1 21046:1 21062:1 
0.5000799647518228 0 2151:1 3037:1 3815:1 8867:1 15506:1 18634:1 19021:1 21952:1 23538:1 
0.4201316108665441 0 2199:1 5641:1 17631:1 17667:1 19321:1 
0.0339047038796172 0.03381456793468617 2141:1 2493:1 3329:1 3439:1 3495:1 6192:1 7740:1 8918:1 10535:1 10629:1 11439:1 13488:1 17264:1 17866:1 17903:1 20019:1 22437:1 
1 0 347:1 3012:1 10629:1 14474:1 17301:1 19239:1 20957:1 21062:1 
0.6600369362807462 0 6106:1 6308:1 7961:1 9420:1 12847:1 17965:1 18634:1 23800:1 
1 0 1975:1 4799:1 9112:1 10302:1 12275:1 12767:1 18976:1 19239:1 22372:1 24381:1 
1 0 15313:1 18678:1 20330:1 
0.03941058112136989 0 134:1 615:1 2277:1 6274:1 7786:1 11345:1 12546:1 15543:1 15943:1 17402:1 17446:1 21825:1 24179:1 
0.4695894716126243 0 174:1 5075:1 9915:1 12134:1 13896:1 14372:1 17029:1 20710:1 22788:1 
0.7397638536446013 0 7414:1 8656:1 17976:1 18634:1 20116:1 21440:1 22167:1 
0.5375392629095224 0 14100:1 15943:1 18809:1 19623:1 21311:1 23939:1 
0.8521237788304062 0 1193:1 3497:1 6939:1 10629:1 12961:1 15931:1 17631:1 17976:1 19239:1 22167:1 
0 0.007114248641085663 1180:1 6899:1 7003:1 14681:1 14947:1 16394:1 17163:1 
0.405210718342249 0 3875:1 9805:1 13199:1 16323:1 19357:1 21601:1 22885:1 
0.3487304395135852 0 3047:1 6607:1 6940:1 7533:1 9218:1 9453:1 10699:1 10778:1 10976:1 11908:1 15260:1 18478:1 19018:1 21640:1 22273:1 22381:1 
0.1837553301496495 0 2076:1 2365:1 3502:1 9994:1 12147:1 17401:1 18700:1 20216:1 20355:1 
1 0 6022:1 9743:1 10629:1 16048:1 18247:1 
1 0 2436:1 3966:1 5076:1 6106:1 8890:1 9084:1 15084:1 16111:1 19239:1 20164:1 20356:1 23116:1 
0.05092676417360828 0 607:1 2161:1 3564:1 6213:1 11128:1 12156:1 16169:1 18785:1 18800:1 19625:1 21640:1 22588:1 
0.1517256673968436 0 1590:1 1704:1 2564:1 4489:1 5045:1 6763:1 11520:1 23015:1 
0.675962834782836 0 1019:1 3293:1 4855:1 5280:1 5337:1 6174:1 8095:1 8526:1 13302:1 13375:1 13533:1 16936:1 17450:1 21311:1 22172:1 
1 0 2864:1 5180:1 9463:1 
1 0 1975:1 10629:1 18428:1 22859:1 
1 0.3913027041071033 2758:1 3559:1 10822:1 11035:1 15651:1 
0.4604471132670142 0 4075:1 5817:1 7199:1 9592:1 14131:1 14599:1 15943:1 16655:1 22189:1 
1 0 6237:1 19223:1 
0.7132805560269596 0 5398:1 6798:1 13696:1 20563:1 22663:1 
0.1421943564648122 0 528:1 773:1 6828:1 8430:1 10247:1 10629:1 14148:1 15506:1 16111:1 18787:1 18910:1 20837:1 21413:1 
0.07024242773698666 0 2316:1 10735:1 12016:1 12711:1 13294:1 15313:1 15890:1 18634:1 22016:1 
0.3917503982439161 0 269:1 2381:1 2452:1 4286:1 6174:1 6446:1 8118:1 9246:1 9605:1 10424:1 10629:1 12900:1 15943:1 18678:1 22172:1 
0.6984030515286377 0 2564:1 3971:1 12749:1 15943:1 17113:1 
0.3603830442458422 0 72:1 2295:1 3903:1 7530:1 14344:1 14718:1 15824:1 
0.1931296432963188 0 1158:1 12689:1 12941:1 15457:1 15931:1 
0.4770381385669981 0.03266247191214058 1193:1 5444:1 9666:1 18430:1 18875:1 
0.07051495507701816 0 1715:1 3860:1 5226:1 7199:1 9433:1 15943:1 18370:1 19239:1 24211:1 
0.0002548035450096873 0 1260:1 3875:1 4424:1 10005:1 11627:1 11882:1 14463:1 15003:1 16459:1 18655:1 21785:1 23987:1 
1 0 404:1 5335:1 13892:1 19256:1 
0.1882752033421508 0 2564:1 7107:1 8118:1 12911:1 17226:1 20212:1 23557:1 24317:1 
0.6931104663959722 0 157:1 3016:1 3903:1 5586:1 7305:1 10948:1 11019:1 14131:1 17652:1 20132:1 
0.9177505355532609 0.02409405004384301 1975:1 7742:1 12728:1 15630:1 16092:1 17259:1 20966:1 21311:1 21791:1 
0.6271832434705058 0 1975:1 2628:1 4899:1 10133:1 10629:1 11207:1 15727:1 16194:1 17735:1 19239:1 20787:1 21311:1 21802:1 22317:1 23959:1 
0.322734528436288 0.04737521086666679 4673:1 6176:1 8208:1 9886:1 11799:1 13542:1 14936:1 22273:1 22372:1 
0.4184204598169537 0 1188:1 1948:1 2699:1 4280:1 5755:1 9504:1 11832:1 12767:1 14228:1 15344:1 15855:1 
0.6103455142410384 0 3875:1 4957:1 10288:1 15571:1 15840:1 
0.6897450497166645 0 1158:1 1210:1 1321:1 4087:1 6044:1 10982:1 14198:1 14253:1 14681:1 15943:1 
0.7585924915641842 0 60:1 1295:1 3439:1 3676:1 7897:1 10629:1 16716:1 18835:1 19239:1 22251:1 
0.10107557027189 0 1851:1 5075:1 5316:1 6174:1 7486:1 8240:1 9635:1 12514:1 12675:1 15718:1 17279:1 18539:1 18854:1 21040:1 21269:1 21311:1 21816:1 
0.8030184997616082 0 1975:1 10629:1 14199:1 16283:1 17446:1 21311:1 22035:1 23822:1 
0.6648721859023194 0 1163:1 4087:1 5045:1 7880:1 8240:1 10169:1 10629:1 12237:1 18389:1 21969:1 23735:1 23777:1 
0.01398278898363353 0 2451:1 4185:1 7699:1 9891:1 9974:1 10370:1 11095:1 11464:1 16464:1 16572:1 17868:1 18040:1 18573:1 19678:1 20039:1 
1 0 4581:1 8481:1 10247:1 
0.1006313538672276 0 349:1 4655:1 5483:1 8010:1 12875:1 12920:1 13049:1 16210:1 18626:1 
0.1418344373763477 0 773:1 3875:1 5335:1 7827:1 10629:1 16185:1 16210:1 16869:1 
0.4887451049348104 0 1652:1 1754:1 1933:1 2910:1 5399:1 11035:1 11640:1 13826:1 13916:1 15021:1 15472:1 16632:1 22432:1 23735:1 
0.7835543008872469 0 4986:1 11035:1 11144:1 12439:1 12547:1 16111:1 20075:1 20177:1 20613:1 
0.7899410852719468 0 2576:1 2792:1 7989:1 8559:1 16130:1 
0.2349357580933535 0 5112:1 10483:1 12767:1 14330:1 17733:1 
0.4033679222474036 0 2564:1 2784:1 6435:1 7161:1 19948:1 21848:1 
1 0.1432436200202593 1595:1 5223:1 6771:1 10692:1 15785:1 
1 0 784:1 1158:1 3012:1 3685:1 6210:1 6771:1 11947:1 12134:1 16142:1 23116:1 
0.7760115746932268 0 4638:1 8492:1 12830:1 14299:1 22167:1 
0.4172130559387349 0.03446885915558708 4104:1 4347:1 10637:1 13282:1 
0.2797493294267564 0 2564:1 7642:1 10629:1 10681:1 12474:1 12546:1 16051:1 21257:1 
0.8166372433375043 0.1686249940293515 5226:1 6647:1 10629:1 14356:1 19606:1 22641:1 23370:1 
0.4562548206403843 0 1975:1 2141:1 6067:1 6233:1 10629:1 11582:1 11656:1 11820:1 15462:1 15515:1 16004:1 17205:1 18899:1 21902:1 22743:1 
0.2049147468052484 0 6988:1 15162:1 15943:1 16790:1 19976:1 20812:1 
0.7837991040575716 0 9474:1 11999:1 12636:1 13393:1 15606:1 18783:1 19288:1 21669:1 22884:1 
0 0.01778113713313222 174:1 1414:1 4420:1 5075:1 6420:1 6594:1 7147:1 8495:1 8683:1 17823:1 19457:1 20683:1 22532:1 
0.6539406417624897 0 9246:1 9554:1 15344:1 17379:1 18678:1 19208:1 21083:1 
0.8839125432619029 0 1212:1 3079:1 14131:1 15943:1 20925:1 24383:1 
0.2137681470010025 0 2882:1 5974:1 9784:1 11274:1 18845:1 18987:1 19965:1 23583:1 
1 0 10747:1 12964:1 15943:1 22372:1 
0 0.01437899328236579 1975:1 2564:1 2694:1 3711:1 3875:1 7428:1 7776:1 10131:1 18872:1 19487:1 24141:1 24317:1 
0 0.09997177274363024 4357:1 10061:1 10608:1 19457:1 22088:1 
0.3456366522935478 0 1601:1 2924:1 5268:1 7003:1 13319:1 18684:1 18809:1 19441:1 20966:1 
0.2801509562615107 0 1944:1 12134:1 12734:1 12883:1 14516:1 17989:1 18460:1 19915:1 20750:1 
0.1076031351488297 0 317:1 2966:1 3647:1 4899:1 5289:1 8305:1 10300:1 10690:1 12767:1 15048:1 18071:1 18107:1 19239:1 20202:1 21029:1 
0.7050679461361601 0 655:1 1064:1 10476:1 13810:1 16753:1 18804:1 19623:1 20687:1 22840:1 
0.4787752840930542 0 6106:1 7905:1 8656:1 10629:1 11777:1 16949:1 17609:1 21311:1 
0.3100949255472096 0 15943:1 21257:1 22775:1 
0.9244066862402222 0 1193:1 2197:1 7003:1 8151:1 18564:1 18730:1 
0.1442470974301318 0 823:1 2499:1 3196:1 10108:1 12567:1 19239:1 23954:1 
0.2486987503187206 0 1622:1 1975:1 6210:1 7480:1 9288:1 9784:1 10486:1 10952:1 15472:1 19885:1 21004:1 21054:1 22704:1 23451:1 24153:1 
0.8360643934726004 0.05729804577375656 1842:1 5641:1 15084:1 15253:1 16338:1 20086:1 21869:1 
0.3275073105225234 0 3026:1 5953:1 6557:1 18180:1 19239:1 19616:1 22508:1 22549:1 
0.03351775244454169 0 43:1 2381:1 2686:1 3037:1 5226:1 13014:1 14513:1 22072:1 24273:1 
0.3593390144873531 0 4893:1 5268:1 6156:1 6780:1 8886:1 12058:1 14271:1 15398:1 18336:1 18719:1 24320:1 
0.2550810538562916 0 6274:1 10629:1 13709:1 15718:1 15943:1 16066:1 23195:1 24283:1 
0.1235681507295953 0 263:1 6351:1 7699:1 8896:1 18080:1 20134:1 20342:1 
1 0 2452:1 4130:1 10629:1 11164:1 16162:1 18835:1 23026:1 
0.631531456679006 0 760:1 1212:1 2792:1 2874:1 5423:1 6210:1 6914:1 8723:1 9921:1 10629:1 16988:1 21752:1 21906:1 
0.9207269587827458 0 7686:1 9463:1 11519:1 13756:1 24339:1 
1 0 1480:1 9523:1 16914:1 
0.04885895242949057 0 1425:1 9990:1 22923:1 
0.03369420430848207 0 1697:1 2252:1 2637:1 3103:1 6174:1 6267:1 6763:1 7686:1 12934:1 12966:1 14131:1 19296:1 20438:1 20780:1 22885:1 
0.7838667293989475 0.02678275117849837 680:1 773:1 2689:1 4953:1 6139:1 6702:1 14839:1 15216:1 16194:1 18678:1 
0.07535365412318273 0 1752:1 1975:1 5335:1 10629:1 17145:1 17159:1 20755:1 22379:1 22749:1 
1 0 2452:1 4884:1 14185:1 
1 0 10667:1 10681:1 14131:1 17159:1 
0.1507591968548938 0.003488937076951444 335:1 2121:1 2970:1 4185:1 7699:1 7990:1 8010:1 8479:1 9549:1 10371:1 12623:1 13049:1 13252:1 17966:1 18138:1 18609:1 19671:1 
0.627979943622497 0 4347:1 4415:1 8890:1 12337:1 12449:1 23735:1 
1 0 7518:1 
0.433834694088245 0 1193:1 2499:1 2908:1 4255:1 5508:1 7631:1 9175:1 10629:1 16884:1 22189:1 
0.1182953922255943 0 851:1 1317:1 4842:1 5505:1 10168:1 15061:1 17092:1 23318:1 
0.2755786577532636 0 7003:1 10629:1 15715:1 15718:1 15943:1 16159:1 18535:1 18809:1 20706:1 
0.301516052357483 0 528:1 5085:1 6908:1 7417:1 7490:1 10432:1 10547:1 13952:1 14459:1 21311:1 21354:1 22547:1 
0.7544659939036606 0 2483:1 5335:1 6274:1 6519:1 8160:1 8183:1 14474:1 19426:1 20157:1 20426:1 21792:1 
0.09608183244573698 0 3293:1 4004:1 4883:1 5603:1 7752:1 12304:1 15914:1 16691:1 19839:1 
0.9412110907596094 0 1280:1 4347:1 4581:1 6795:1 13993:1 
0.3518370432314272 0 1633:1 1975:1 2381:1 4716:1 5075:1 5335:1 6156:1 10629:1 12237:1 12408:1 18389:1 19056:1 23275:1 
0.1380193004748273 0.02750826900911515 801:1 1975:1 4489:1 8096:1 11020:1 11122:1 12841:1 15061:1 16012:1 21230:1 
0.717518982587979 0 157:1 1158:1 6350:1 6904:1 18354:1 19988:1 20262:1 21612:1 
0.4462127889789284 0 1978:1 5015:1 6884:1 10629:1 13698:1 15031:1 15931:1 16881:1 17205:1 19987:1 21375:1 21902:1 23458:1 
0 0.003289979656358213 1830:1 5268:1 5379:1 7003:1 13277:1 17609:1 21474:1 
0.1951959057115162 0 683:1 10342:1 12767:1 15089:1 16520:1 20831:1 22862:1 23116:1 
0.06408736891619636 0 2645:1 3043:1 3903:1 6456:1 6908:1 10247:1 12134:1 12600:1 13579:1 23116:1 
0.6079923002642068 0 3372:1 6763:1 7258:1 13272:1 19588:1 
0.5866530048683702 0 8808:1 11016:1 11267:1 11882:1 13713:1 15752:1 23750:1 24064:1 
0.5647136096552337 0 784:1 6879:1 14075:1 19239:1 
0.119405585811793 0 1551:1 1812:1 3857:1 8149:1 8757:1 17112:1 18315:1 19115:1 21902:1 
0.4057630932699625 0 2381:1 5360:1 5600:1 9218:1 15395:1 16932:1 17720:1 23222:1 23959:1 
0.9035307302713883 0 157:1 596:1 3268:1 5398:1 6978:1 10133:1 10629:1 10685:1 10986:1 15718:1 16331:1 17381:1 19239:1 19457:1 21733:1 
1 0 8523:1 10608:1 11583:1 22354:1 
1 0 1480:1 2639:1 8627:1 11924:1 
0.6786028220081888 0 1193:1 2250:1 2318:1 2645:1 5552:1 6210:1 8216:1 11362:1 12190:1 14067:1 17672:1 19265:1 20152:1 20961:1 
1 0 7169:1 9084:1 11292:1 
0.7939085767954245 0 3502:1 3677:1 4619:1 4670:1 5045:1 5112:1 5970:1 7069:1 10643:1 11722:1 23735:1 
1 0 2874:1 4551:1 19239:1 24044:1 
0.3484175203921922 0 174:1 748:1 8891:1 12553:1 14641:1 15943:1 16256:1 
0.1698604834439276 0 1480:1 8627:1 18667:1 19437:1 23540:1 
0 0.03672546158759919 271:1 6407:1 10282:1 12828:1 13525:1 16111:1 16578:1 17993:1 19936:1 20786:1 
0.2502273856870119 0 1505:1 1867:1 4799:1 4939:1 6974:1 9774:1 10036:1 10821:1 
0.114006961857034 0 11934:1 15943:1 18892:1 21496:1 
1 0 2452:1 8118:1 13859:1 22821:1 24126:1 
0.3837439418675497 0 1014:1 3859:1 5538:1 5749:1 10777:1 15718:1 19550:1 20287:1 20839:1 20939:1 22167:1 24255:1 
0.2806398697749741 0 6514:1 7699:1 14400:1 15416:1 17360:1 21523:1 
0.3267142251034893 0 760:1 3530:1 4910:1 7769:1 10629:1 12054:1 12550:1 13932:1 19591:1 23720:1 
0.4178414304954882 0 828:1 2645:1 3965:1 9784:1 13696:1 15223:1 15340:1 19426:1 20628:1 23471:1 
0.6598339681721841 0 4355:1 8824:1 11035:1 11267:1 12336:1 13726:1 15943:1 23195:1 
0.4801394921425643 0 327:1 3302:1 4087:1 8630:1 10162:1 13349:1 15943:1 19609:1 
0.1248580937157407 0 2712:1 2793:1 5016:1 5268:1 6106:1 6882:1 10629:1 14128:1 14718:1 15445:1 16038:1 16111:1 21526:1 21891:1 23458:1 23927:1 
0.763240702899448 0 4671:1 7483:1 10567:1 13120:1 16407:1 19331:1 21354:1 22657:1 
0.2111158004051731 0.004812154107035042 369:1 3419:1 3976:1 4355:1 6333:1 11731:1 12083:1 14983:1 18809:1 19491:1 23191:1 
1 0 1975:1 3329:1 3859:1 
0.7764376515087339 0 1632:1 5154:1 6213:1 7266:1 9881:1 10629:1 11035:1 11267:1 15650:1 
0.01974778901607361 0 2335:1 6022:1 11999:1 14474:1 15022:1 15718:1 15943:1 18037:1 19357:1 19907:1 20241:1 21311:1 
0.933895668604652 0 1328:1 
1 0 6142:1 7003:1 18566:1 23005:1 
0.01824118906893073 0 4104:1 4638:1 5592:1 6047:1 6415:1 8162:1 10249:1 11035:1 14355:1 17582:1 18583:1 19990:1 21257:1 
0.8174379978545403 0 3502:1 8302:1 11848:1 17294:1 17654:1 19457:1 21125:1 21555:1 
1 0 3517:1 7107:1 7963:1 13282:1 17652:1 18733:1 20355:1 
1 0 3012:1 4799:1 7934:1 11035:1 12569:1 14564:1 16213:1 16256:1 21383:1 23827:1 
0.0700062046039067 0 3559:1 5262:1 6780:1 7482:1 7490:1 9839:1 11035:1 12337:1 15344:1 21583:1 
0.2684185624371349 0 1777:1 1975:1 2912:1 3676:1 9167:1 10629:1 14136:1 23868:1 
1 0 784:1 12499:1 14480:1 15395:1 15943:1 16914:1 23084:1 
1 0 5299:1 6780:1 19239:1 22189:1 22272:1 22696:1 
0.1223269905882554 0 2564:1 5360:1 5723:1 19239:1 19791:1 22298:1 23340:1 23678:1 
0.8686371556288113 0 1081:1 8905:1 10629:1 11770:1 15943:1 17696:1 18972:1 21413:1 21545:1 
0.1647183893606761 0 58:1 2840:1 2936:1 3047:1 4290:1 6480:1 8007:1 8049:1 8232:1 8523:1 15270:1 22029:1 22681:1 
0.5141092529723119 0 977:1 1633:1 4783:1 10089:1 11640:1 16108:1 18607:1 19232:1 23121:1 
0.3257607936337087 0 5335:1 9115:1 15400:1 16210:1 16691:1 16791:1 21311:1 
1 0.006633958401205731 11323:1 17508:1 21028:1 
0.2531849892614723 0 4285:1 10282:1 10616:1 14955:1 16639:1 16691:1 
0.8856154353155745 0 14036:1 14882:1 19239:1 
0.1991787275717313 0 237:1 336:1 371:1 1983:1 3272:1 5538:1 6476:1 7003:1 8481:1 9570:1 12964:1 16374:1 17256:1 19314:1 
0.3778654400115746 0.06101324948072367 1027:1 3331:1 6949:1 7089:1 7377:1 7889:1 11977:1 14131:1 16571:1 18506:1 22515:1 22820:1 
1 0 5268:1 5547:1 6763:1 10629:1 14183:1 20780:1 21000:1 
0.2255555379227741 0.02174072325051583 1261:1 6153:1 13282:1 15652:1 17085:1 19304:1 21601:1 21781:1 
0 0.0137485307209618 9555:1 9575:1 10300:1 13994:1 14522:1 15651:1 19558:1 22238:1 22372:1 
0.4180428031970128 0 1193:1 3916:1 6763:1 7004:1 7120:1 12134:1 13071:1 14718:1 16389:1 19125:1 21848:1 21902:1 
0 0.008460859441878204 613:1 1193:1 6763:1 7518:1 9213:1 9666:1 12412:1 13668:1 15044:1 15545:1 16932:1 20695:1 
1 0 6465:1 13851:1 
0.08860778006270499 0 1992:1 3565:1 3778:1 8341:1 9784:1 13167:1 15943:1 16964:1 
1 0 91:1 16820:1 
1 0.1853714493466924 6771:1 10169:1 23960:1 
0.543229361349882 0 556:1 8952:1 14234:1 18559:1 
0.1471588089266971 0.01315403899867427 352:1 1158:1 2536:1 12035:1 
0.001283992265048984 0.00699584539442904 773:1 5962:1 7031:1 10154:1 14191:1 14387:1 15467:1 15727:1 17532:1 22246:1 22477:1 23782:1 
1 0 1975:1 2699:1 10629:1 15247:1 18851:1 20789:1 
0.9066152154940205 0.02375826157886665 587:1 14100:1 15243:1 16917:1 20593:1 21934:1 23410:1 
0.2774345088688548 0 977:1 2805:1 3642:1 8918:1 13416:1 17875:1 
0.9339412721845928 0 8726:1 
0.5897008129037027 0 2037:1 3005:1 4253:1 5085:1 7097:1 7168:1 8882:1 9385:1 14830:1 20058:1 
0.4562449221759896 0 1193:1 6365:1 7856:1 9438:1 9618:1 10629:1 11035:1 13082:1 18634:1 21354:1 22300:1 
0.3205197477980998 0 1770:1 1860:1 2564:1 5808:1 8013:1 9194:1 10192:1 11486:1 11834:1 12237:1 12484:1 17814:1 18564:1 
0.4449131943222693 0 6780:1 15809:1 21257:1 21381:1 
0.6016616646870858 0 1193:1 2582:1 3268:1 6227:1 10684:1 13277:1 16637:1 21888:1 22372:1 
1 0 2828:1 9331:1 10889:1 12564:1 14480:1 15472:1 20939:1 21311:1 22731:1 23935:1 
0.7681093027950113 0 5162:1 5185:1 6987:1 8492:1 10629:1 15718:1 16351:1 21636:1 22424:1 
0.3499591226316068 0 2712:1 3615:1 4725:1 5050:1 6130:1 8066:1 8528:1 10629:1 13836:1 14136:1 15718:1 18468:1 20247:1 20938:1 22251:1 24023:1 
0.4511948417733109 0 1765:1 1882:1 2990:1 4799:1 5765:1 6771:1 8945:1 11352:1 15947:1 17162:1 17589:1 18501:1 
0.6545507587893049 0 1212:1 2254:1 3903:1 5398:1 7285:1 9179:1 10054:1 15785:1 20082:1 21731:1 
0.07582835501703876 0 3591:1 4015:1 6461:1 6702:1 11857:1 12076:1 15313:1 19465:1 21622:1 22393:1 
0.5066507089709865 0 1908:1 3677:1 4740:1 10653:1 14213:1 16135:1 16476:1 21742:1 21752:1 
0.7969226447202602 0 1794:1 8300:1 9013:1 10361:1 11252:1 11583:1 15943:1 21125:1 
0.6666585626810235 0 4881:1 6174:1 6503:1 12275:1 12937:1 14474:1 15943:1 16213:1 17397:1 21311:1 
0.3752310761358861 0.09151238611399354 4234:1 13615:1 20330:1 
0.09486257942127853 0.007781670492121074 1480:1 13186:1 14241:1 18667:1 22189:1 
0.1954460109665073 0.01300832199066895 673:1 1947:1 2834:1 3059:1 3711:1 3797:1 7272:1 7339:1 10408:1 10629:1 12080:1 
0.9485519780177459 0 6210:1 7547:1 10935:1 19429:1 20058:1 20355:1 
0.6333312106683254 0 9625:1 19321:1 
1 0 88:1 2452:1 6851:1 10629:1 11559:1 15943:1 17895:1 
0.6190737278126885 0 5370:1 11404:1 12877:1 19239:1 
0.5421731391092907 0 626:1 4840:1 13592:1 14480:1 16932:1 17989:1 20762:1 20973:1 22959:1 
1 0 6106:1 9084:1 
0.4104352334670343 0 5889:1 9331:1 10345:1 12928:1 13568:1 22438:1 
0.643773092406186 0 3050:1 5075:1 6221:1 8180:1 10743:1 11505:1 13756:1 15395:1 15489:1 16691:1 17242:1 19375:1 
0.5473474881736012 0.02607831817396496 1425:1 1674:1 3275:1 3876:1 5720:1 6750:1 12212:1 13138:1 15392:1 19570:1 21016:1 22180:1 22656:1 22850:1 
0.09380380294151487 0 1743:1 1975:1 5275:1 7067:1 16194:1 17249:1 20558:1 20787:1 21062:1 24019:1 
0.2201547504819782 0 655:1 2381:1 8728:1 8992:1 10483:1 12832:1 15761:1 16044:1 18678:1 24164:1 
0.323506001049285 0 3198:1 3729:1 15478:1 15943:1 21311:1 24179:1 
0.4692529137171464 0 1316:1 2000:1 6854:1 9784:1 14689:1 15337:1 17126:1 18932:1 22406:1 23537:1 
0.2935813267336553 0 2014:1 3740:1 6174:1 6415:1 10392:1 14131:1 20238:1 22167:1 
0.748809327668444 0 11316:1 18176:1 21475:1 22167:1 22189:1 
1 0 44:1 
0 0.1032177590514347 1326:1 5360:1 5666:1 7089:1 8523:1 9463:1 14909:1 16213:1 
0.3523187153747993 0 1282:1 2699:1 7003:1 8757:1 9218:1 10300:1 13443:1 15395:1 15638:1 16574:1 17112:1 20096:1 20132:1 
0.3025631496406016 0.0007528792747201689 11691:1 16520:1 17951:1 18960:1 
0.239840667438971 0.2024244951763444 1893:1 8751:1 10345:1 18072:1 20151:1 20438:1 21503:1 24217:1 
0.1396319342381726 0 1229:1 6503:1 7796:1 10670:1 12937:1 14699:1 14914:1 18678:1 20168:1 
1 0.01132896990160665 3288:1 4540:1 4967:1 5790:1 6946:1 7978:1 12435:1 12437:1 16117:1 18719:1 19499:1 20613:1 21474:1 21875:1 
0.6905923872855591 0.09551366819566061 1158:1 9084:1 10332:1 11362:1 12134:1 13317:1 13462:1 16932:1 19045:1 22726:1 23330:1 
0.7639599376793832 0 773:1 1056:1 7417:1 9784:1 11947:1 14131:1 20630:1 23384:1 
0.2384842290842163 0 6805:1 10629:1 11035:1 12409:1 16292:1 22189:1 22272:1 
1 0 16256:1 
0.08405163425192304 0 626:1 1899:1 3372:1 8032:1 9084:1 10935:1 13277:1 14091:1 18809:1 22418:1 23116:1 24074:1 
0.3155055546345999 0 1420:1 1758:1 4889:1 6115:1 9467:1 13664:1 14064:1 14322:1 17206:1 18634:1 19623:1 
0.3228040194636118 0 5684:1 9757:1 13054:1 13272:1 13776:1 18453:1 18539:1 20177:1 21669:1 22189:1 
1 0 18379:1 22497:1 23781:1 
0.6321732583566657 0 1316:1 3439:1 3924:1 5183:1 9865:1 15313:1 18752:1 18852:1 21125:1 21311:1 
0.00545972542613659 0 1193:1 1715:1 2212:1 5805:1 8731:1 9066:1 11974:1 14495:1 15931:1 18050:1 18711:1 20209:1 21148:1 23514:1 23568:1 23605:1 
0.4732318666777575 0 2423:1 4619:1 5034:1 7417:1 17311:1 18161:1 22418:1 
0.1284490804057672 0 2645:1 3278:1 9084:1 9248:1 13836:1 15944:1 22172:1 22272:1 23343:1 
0.05421363429926997 0 914:1 1505:1 6149:1 16691:1 17434:1 23410:1 
1 0 4650:1 15718:1 19239:1 
0.8401061453725154 0 406:1 12604:1 16194:1 22752:1 
0 0.03830643811734209 43:1 6937:1 12134:1 15463:1 
1 0 6333:1 13410:1 
1 0 9614:1 15221:1 
0.2438859213296597 0 7566:1 9420:1 18861:1 
0.1736507503695345 0.009029891922014944 5259:1 8103:1 10300:1 10317:1 11351:1 12351:1 16004:1 18318:1 18634:1 23116:1 23479:1 
1 0 6371:1 14204:1 15943:1 17486:1 24372:1 
0.2049681743773829 0 518:1 5075:1 5572:1 14355:1 14551:1 15472:1 15684:1 15924:1 22393:1 
0.464767046610462 0 618:1 1425:1 1957:1 6372:1 7220:1 7897:1 18678:1 22379:1 
0.7116333009725468 0 1019:1 1975:1 4855:1 6174:1 8252:1 10976:1 11035:1 13836:1 15785:1 18742:1 18840:1 20755:1 22124:1 23257:1 
1 0 4395:1 5209:1 5335:1 6802:1 7978:1 8771:1 13669:1 15943:1 
0.04930850552972715 0 1214:1 1295:1 3513:1 8336:1 10133:1 14131:1 18625:1 18908:1 20175:1 21650:1 
0.3673688237164665 0.03573484937438248 2018:1 3594:1 6361:1 7869:1 8390:1 10526:1 13282:1 13880:1 13957:1 17604:1 18040:1 18073:1 19881:1 20812:1 21210:1 21835:1 22431:1 
0.1334364277537842 0.02704227295565226 7485:1 8758:1 10082:1 11456:1 15236:1 16549:1 18584:1 21848:1 
0.006817256271136766 0.01056812839989613 28:1 995:1 1975:1 2531:1 3577:1 4594:1 5727:1 6174:1 14256:1 15340:1 15540:1 16019:1 17301:1 22113:1 
0.5965534000907722 0 3395:1 4104:1 7457:1 8403:1 11064:1 18309:1 18915:1 19016:1 21952:1 22251:1 
0.2805048625648376 0 2254:1 4087:1 6274:1 14350:1 15552:1 15870:1 15943:1 16887:1 18576:1 18634:1 20739:1 
0.3604060737790705 0 766:1 773:1 2633:1 2689:1 4603:1 4638:1 5518:1 7169:1 19239:1 19909:1 21549:1 21849:1 
0.511160365118096 0 60:1 2862:1 3021:1 4104:1 13282:1 14221:1 18849:1 18972:1 19239:1 23024:1 24167:1 
0 0.06290830706708886 3089:1 5992:1 8115:1 12337:1 13282:1 22708:1 23927:1 
1 0 2645:1 7003:1 10629:1 18247:1 19239:1 21440:1 
0.3177022971066527 0.01042072680380671 1750:1 3915:1 4218:1 5085:1 7967:1 8255:1 9224:1 12408:1 14029:1 16946:1 18634:1 23680:1 
0.8677981572219351 0 15938:1 15943:1 19889:1 
0.2797066191388435 0 4619:1 4856:1 15069:1 19018:1 
0.1346130553487891 0 2436:1 7217:1 10629:1 13272:1 13926:1 15913:1 15943:1 
1 0 1193:1 2073:1 6081:1 6389:1 10667:1 17191:1 19239:1 22377:1 
0.4549258468065198 0 421:1 1975:1 2568:1 4893:1 6798:1 8162:1 8495:1 9944:1 10629:1 13429:1 15344:1 16135:1 18152:1 
0.2407268739126306 0 6805:1 7129:1 10538:1 12260:1 14201:1 14718:1 16406:1 16442:1 18634:1 21448:1 23676:1 
0.1491517537882817 0 2254:1 10629:1 10697:1 10757:1 11373:1 12704:1 14272:1 16164:1 16194:1 17735:1 18709:1 19338:1 19398:1 20562:1 21796:1 22854:1 23051:1 
0.953470705647542 0 3012:1 7490:1 10629:1 16946:1 18854:1 22372:1 
0.1014215629027859 0 1217:1 2613:1 8909:1 9084:1 9529:1 10133:1 10317:1 10608:1 10942:1 14029:1 15528:1 16489:1 16936:1 18911:1 23704:1 
1 0 2197:1 3193:1 8151:1 9532:1 10629:1 14520:1 15718:1 
0.4564477206934187 0 1028:1 1752:1 7542:1 7644:1 8844:1 12640:1 14670:1 22523:1 
0.5609852515795392 0 5641:1 5792:1 6918:1 7804:1 8255:1 10629:1 11268:1 11794:1 12393:1 13292:1 16877:1 17663:1 20780:1 21576:1 22418:1 
1 0 5058:1 8918:1 12828:1 17288:1 20132:1 
0.1288777013910833 0 1193:1 3043:1 5162:1 11984:1 13915:1 14474:1 14551:1 17012:1 22418:1 
0.619709491251238 0 1731:1 5075:1 8115:1 11015:1 16629:1 22167:1 
0.760208002595437 0 2436:1 2479:1 5085:1 6031:1 6698:1 14598:1 16948:1 17513:1 18247:1 
1 0 11267:1 15457:1 
0.06601857938088511 0 5075:1 5085:1 5335:1 10935:1 13235:1 13906:1 14030:1 15290:1 17805:1 19391:1 19920:1 19953:1 20362:1 23729:1 
0.7102099797731113 0 5335:1 6890:1 7917:1 10629:1 12139:1 12695:1 15344:1 15784:1 17012:1 18678:1 19823:1 
0 0.04038251777862698 1158:1 8581:1 10133:1 21311:1 21998:1 
0.1048836733981751 0.02906085790700785 2580:1 11460:1 14522:1 20558:1 22272:1 
0.4126222374370754 0 11999:1 14116:1 17652:1 19239:1 
0.1542518825072087 0 4856:1 5572:1 8236:1 10142:1 15943:1 16297:1 19752:1 21028:1 22840:1 
0.1887729182236972 0 6295:1 6805:1 6975:1 7004:1 17440:1 17781:1 
0.07578359857569189 0 1975:1 3903:1 4248:1 6274:1 10629:1 15221:1 17888:1 22035:1 22521:1 23044:1 
0 0.08343050982990567 2266:1 2694:1 4252:1 7542:1 
0.4186352154982593 0 6908:1 8164:1 15392:1 18101:1 
0.452432913926191 0.05870817224456595 2095:1 5024:1 7089:1 7683:1 9618:1 10629:1 11834:1 14490:1 15943:1 17460:1 18108:1 19296:1 22272:1 
0.3870687494472611 0 952:1 10055:1 22336:1 
0.1209077061437923 0.04542395932897286 5334:1 7437:1 9698:1 9897:1 10643:1 13826:1 18634:1 19495:1 24035:1 
0.03843297491933456 0.03424069689773628 1551:1 1726:1 4185:1 5157:1 6712:1 7699:1 7737:1 7989:1 8006:1 8961:1 12579:1 13250:1 16129:1 16512:1 19559:1 21502:1 22645:1 22718:1 23568:1 
1 0 1978:1 3717:1 3875:1 4821:1 5015:1 10629:1 13272:1 13492:1 15931:1 18752:1 20152:1 20290:1 24317:1 
0.1819781977768334 0 766:1 1212:1 1655:1 2039:1 3012:1 3329:1 6333:1 16560:1 17381:1 20164:1 20483:1 21464:1 
0.1618954541522822 0 120:1 1229:1 1610:1 1975:1 2698:1 4126:1 5063:1 6377:1 10629:1 10841:1 12937:1 13294:1 13574:1 15943:1 17895:1 18123:1 18634:1 20820:1 
0.5266792675494735 0 42:1 9784:1 15255:1 22760:1 23116:1 24269:1 
0.3419252375024844 0 60:1 2699:1 4979:1 6780:1 7397:1 13671:1 14148:1 
0.2330208484843935 0.010660434969778 60:1 3591:1 4305:1 8263:1 13759:1 15151:1 22189:1 22405:1 
0.5701280338914239 0 11668:1 12275:1 12908:1 15306:1 16507:1 18623:1 19617:1 20787:1 
0.6238318574717939 0 1016:1 2363:1 6407:1 11825:1 15943:1 16791:1 17895:1 21150:1 23597:1 
0.7644437613779989 0 174:1 735:1 1857:1 2489:1 3439:1 5268:1 8191:1 
0.1917793853071482 0 823:1 1648:1 2499:1 3516:1 9555:1 13096:1 14100:1 18634:1 19239:1 20755:1 20900:1 23952:1 
0.4337977436956905 0 3012:1 7978:1 8183:1 11999:1 14495:1 15718:1 17393:1 18634:1 23800:1 
0.2790970311539062 0 1975:1 2564:1 10629:1 11939:1 13208:1 13294:1 14483:1 15943:1 21601:1 
0.2082455858724033 0 1929:1 4132:1 4347:1 4836:1 5259:1 6254:1 7752:1 9652:1 10330:1 10629:1 15739:1 19789:1 20132:1 20356:1 21574:1 23888:1 24137:1 
0.2590335370907047 0.0913695152353632 6389:1 8036:1 13282:1 14213:1 16437:1 19461:1 21383:1 24032:1 
0.05154068253320304 0 3794:1 4571:1 5666:1 6152:1 6174:1 6503:1 7450:1 7692:1 8918:1 8971:1 9280:1 12937:1 14580:1 15943:1 17029:1 19239:1 21204:1 21399:1 
0.1144073786529413 0.05530569980971698 1765:1 10133:1 10564:1 10643:1 13450:1 17393:1 18628:1 19457:1 22680:1 
0.9081832193335482 0.09132771766218087 613:1 5175:1 9084:1 11284:1 14167:1 15608:1 16210:1 17421:1 20397:1 21311:1 23116:1 
0.516826382966923 0 7530:1 7608:1 14018:1 18752:1 19037:1 
0.5784228380789553 0 1817:1 2474:1 2483:1 4196:1 7699:1 10370:1 11680:1 21612:1 22967:1 
0.1250658107589253 0 6274:1 10424:1 23568:1 
1 0 7417:1 14482:1 21583:1 23116:1 23458:1 
1 0 9958:1 11267:1 
1 0 716:1 5085:1 6174:1 6987:1 11924:1 21636:1 
1 0.0009778253283137344 518:1 3016:1 18501:1 21311:1 24211:1 
0.09742773291499991 0 6174:1 9841:1 12531:1 15483:1 15943:1 23259:1 23795:1 
1 0 15943:1 16747:1 17233:1 20440:1 24317:1 
1 0 3012:1 3948:1 7715:1 8350:1 9562:1 9784:1 11314:1 13452:1 14377:1 17088:1 18547:1 
0.3398274085121337 0 1975:1 5691:1 13696:1 15840:1 15943:1 17008:1 
0.3250580177027265 0 920:1 2611:1 5075:1 10344:1 18265:1 18325:1 23116:1 23276:1 
1 0 1681:1 4004:1 5156:1 11583:1 18678:1 20673:1 
0.2114915992891702 0 615:1 1179:1 1975:1 3502:1 7699:1 8409:1 10434:1 11329:1 12289:1 14131:1 17848:1 20353:1 21161:1 22770:1 22814:1 
0.9877177671155617 0 3047:1 5335:1 12767:1 15344:1 15472:1 21813:1 22372:1 
0.2344026161562861 0 4309:1 10542:1 18176:1 23531:1 
1 0 2243:1 5269:1 5844:1 7251:1 7483:1 8918:1 9434:1 10629:1 11035:1 14978:1 
0.2886671209356122 0 1864:1 1975:1 3502:1 5774:1 7421:1 8591:1 14185:1 17202:1 18123:1 18598:1 22405:1 
0.6635571742674644 0 174:1 2198:1 3205:1 3227:1 6264:1 6877:1 9200:1 10338:1 10542:1 10629:1 15733:1 16508:1 18293:1 19080:1 19947:1 22712:1 23024:1 
0.2200313537944532 0.02328285118700164 732:1 5045:1 8481:1 10677:1 14138:1 14738:1 21219:1 21359:1 23855:1 
0.7635199486996961 0 174:1 2699:1 4404:1 10133:1 20661:1 20974:1 22379:1 
0.05739117954354705 0 209:1 1975:1 4142:1 5122:1 5920:1 6763:1 10629:1 10684:1 14402:1 17895:1 20152:1 20353:1 21002:1 23116:1 23557:1 
1 0.1200598785832695 2053:1 10133:1 11252:1 21869:1 22167:1 24108:1 
0.5541988158946863 0 2564:1 23458:1 
0.6556476623981351 0 8635:1 13836:1 15945:1 21311:1 22481:1 23818:1 
0.07250088753801902 0 43:1 1014:1 2061:1 2507:1 4399:1 10168:1 10729:1 12331:1 16757:1 17766:1 18591:1 19432:1 22167:1 24305:1 
0.2074868131398287 0 3510:1 6407:1 7569:1 18809:1 22670:1 
0.9938003595843282 0 269:1 1091:1 6446:1 7906:1 9858:1 17274:1 18678:1 
0.1755959547062097 0.08035878079873447 3651:1 5817:1 8705:1 10378:1 14029:1 16593:1 19836:1 
0.3860518694390383 0 5031:1 8733:1 8756:1 15943:1 
0.1695738140479553 0.02532854039367151 613:1 896:1 7671:1 7686:1 8172:1 9084:1 12109:1 15867:1 20177:1 
0.4259843149804127 0 5605:1 7547:1 7686:1 14992:1 15408:1 16111:1 21612:1 
1 0 4939:1 6174:1 14402:1 15490:1 
0.2710959921192392 0 6274:1 12995:1 14681:1 19180:1 19518:1 19832:1 20628:1 23134:1 
0.370344706074771 0 655:1 1056:1 3193:1 10519:1 11341:1 12134:1 13515:1 15344:1 20647:1 21311:1 22230:1 
0.1088097239289187 0 1158:1 10133:1 10168:1 10683:1 14851:1 18664:1 19981:1 20795:1 21394:1 21469:1 23926:1 24032:1 
0.3166708629972552 0 5304:1 5638:1 8640:1 14764:1 21893:1 23311:1 
0.2494962337131816 0 9590:1 10789:1 13282:1 13373:1 15943:1 16638:1 17694:1 
0.07980484862810949 0 1715:1 8751:1 10659:1 13823:1 14815:1 18480:1 
0.68967921105717 0 1975:1 3555:1 3925:1 5808:1 8240:1 10629:1 11912:1 12499:1 14896:1 14976:1 15684:1 16111:1 21336:1 22167:1 
0.1423640892103811 0 326:1 4146:1 5050:1 5303:1 6637:1 7137:1 8162:1 9533:1 9991:1 10749:1 11206:1 15388:1 19125:1 
0.1744659947262305 0 386:1 1428:1 1975:1 5075:1 6424:1 10342:1 13928:1 14090:1 14480:1 15943:1 20574:1 20628:1 21308:1 21329:1 21688:1 
1 0 7686:1 21839:1 
0.3894170689061233 0 2489:1 2538:1 3372:1 5083:1 5335:1 8187:1 10629:1 11893:1 12337:1 12496:1 16691:1 17446:1 18667:1 19321:1 19777:1 
0.3483960700013786 0 2508:1 3012:1 4861:1 4924:1 11878:1 18634:1 18662:1 22172:1 
0 0.0803489819617484 884:1 5960:1 6625:1 7857:1 11666:1 12567:1 19047:1 
0.4682411236745809 0 1108:1 4032:1 8199:1 15875:1 15943:1 16220:1 17273:1 17874:1 19665:1 23053:1 
0.4209519611102242 0 829:1 1754:1 5075:1 7486:1 11035:1 11166:1 13240:1 15216:1 15752:1 18800:1 21101:1 21212:1 23432:1 
0 0.06288516731097243 7518:1 13724:1 14070:1 18082:1 19239:1 21311:1 23812:1 
0.07176374896706098 0 6174:1 15809:1 
0.3390226166536491 0 4759:1 5423:1 9179:1 
0.5428588218463415 0.02242609055936155 2141:1 2433:1 2669:1 3118:1 5385:1 6289:1 8118:1 10409:1 16917:1 17154:1 20694:1 22130:1 24203:1 
0.0456621355347748 0 1316:1 2423:1 2699:1 12318:1 
0.3328847688169449 0 3636:1 6008:1 7482:1 7902:1 16194:1 21665:1 
1 0 7699:1 10542:1 13641:1 20650:1 
0.6740230505895174 0 5075:1 12237:1 19587:1 20762:1 22418:1 
0.4306564036011385 0 815:1 6167:1 6908:1 6919:1 7602:1 8852:1 10681:1 14131:1 15553:1 18634:1 22379:1 
0.07273125339343707 0 319:1 655:1 1096:1 2381:1 3205:1 4979:1 5327:1 5335:1 6654:1 6659:1 9330:1 14029:1 14160:1 14947:1 21336:1 23986:1 
0.1918256578484799 0.3795851561209992 871:1 16898:1 18180:1 19564:1 23246:1 24217:1 
0.01034416709603925 0 2157:1 2381:1 3012:1 3454:1 3875:1 3877:1 12964:1 16691:1 21337:1 22010:1 
1 0 784:1 1975:1 12474:1 19239:1 20465:1 
0.9207856001920456 0 514:1 3952:1 5954:1 6407:1 8701:1 11016:1 13121:1 19550:1 20460:1 23116:1 
1 0 1194:1 3012:1 12531:1 23795:1 
1 0 3216:1 7956:1 12271:1 13562:1 15264:1 19239:1 19291:1 
0.09961590436429742 0 1975:1 4176:1 5625:1 10345:1 11443:1 12867:1 14785:1 14947:1 17041:1 21588:1 
0.1878091725513634 0 7317:1 8407:1 10805:1 11197:1 15392:1 20177:1 23811:1 
0.39112516401162 0 5889:1 15943:1 
0.08816414638276003 0 366:1 5075:1 6552:1 8341:1 10345:1 11468:1 14149:1 15480:1 16153:1 16315:1 16917:1 19208:1 21226:1 23668:1 
0.7061806517773934 0 2374:1 2428:1 4832:1 9352:1 14242:1 14522:1 15492:1 22120:1 
1 0 4399:1 6210:1 19239:1 21700:1 24001:1 
1 0 3272:1 5808:1 12567:1 15545:1 17766:1 17965:1 22379:1 
0.1807977276955215 0 2911:1 7699:1 8956:1 9490:1 10271:1 14754:1 18687:1 22419:1 
0.3156081330457379 0 976:1 1256:1 2252:1 4799:1 5586:1 8029:1 13751:1 15768:1 16414:1 19734:1 
0.4861438398905393 0.06928428684483427 713:1 863:1 2058:1 7861:1 8073:1 11211:1 12574:1 18172:1 19845:1 
0.04572211972939015 0 1580:1 1975:1 3079:1 3875:1 9784:1 15931:1 18125:1 18872:1 20927:1 
0.02791067984446654 0.02778512413992349 5352:1 6771:1 6805:1 7928:1 8219:1 12298:1 15684:1 18062:1 21241:1 21459:1 23695:1 
0.7148872814855117 0 991:1 1229:1 1975:1 3012:1 5561:1 8656:1 10629:1 14100:1 18972:1 18986:1 
1 0 1425:1 5209:1 14131:1 17126:1 
0.6479740964729229 0 2367:1 7344:1 9175:1 19239:1 24259:1 
0.565130340775015 0 15931:1 22308:1 
0.3144080013060242 0 226:1 3030:1 3729:1 6389:1 10681:1 13896:1 14402:1 15152:1 17205:1 21750:1 
0.365411043024124 0 1158:1 3439:1 6389:1 8240:1 11644:1 13572:1 
0.7077865847194589 0 9351:1 10005:1 15943:1 19037:1 
0.3416760366670311 0 2208:1 4548:1 6111:1 6720:1 6771:1 8118:1 9420:1 9958:1 21311:1 21727:1 
0.3767632899600523 0 1583:1 1975:1 4569:1 6265:1 6884:1 7547:1 7655:1 10629:1 20058:1 
0.3907467654204351 0 2639:1 6750:1 10348:1 
1 0 1975:1 9784:1 10846:1 15395:1 23460:1 23774:1 
0.7155762880300495 0 568:1 2043:1 2528:1 7353:1 10485:1 15262:1 22804:1 23370:1 
0.1653602561174831 0.02753536662495288 4650:1 12828:1 12986:1 16092:1 20574:1 22054:1 
0.06890865342163062 0 11529:1 17806:1 18908:1 20279:1 23536:1 
0.8280469865789764 0 2381:1 6365:1 6763:1 8240:1 14131:1 15313:1 16018:1 16468:1 20906:1 21888:1 22167:1 
0.4281069769524778 0 1193:1 2862:1 11512:1 11860:1 20985:1 
0.1854515047973421 0 1794:1 3108:1 12546:1 13836:1 15394:1 17976:1 20726:1 22651:1 
0.567018691158061 0.01669781417870014 1370:1 5379:1 6780:1 8523:1 14958:1 23695:1 
1 0 1194:1 2462:1 4839:1 15943:1 16791:1 19071:1 19547:1 20560:1 21046:1 23116:1 23735:1 
0.7281265910112682 0 1141:1 2887:1 3169:1 6566:1 6755:1 6908:1 10007:1 10629:1 15943:1 16940:1 21308:1 24309:1 
0.02654810725791578 0 283:1 7742:1 10979:1 13681:1 18323:1 20058:1 
1 0 12331:1 
0.267338476270141 0.00632653423870627 2489:1 20012:1 21877:1 
1 0.07111943374561919 655:1 773:1 1975:1 2151:1 10071:1 12275:1 16111:1 18778:1 20536:1 21937:1 22051:1 
0.3623403685438317 0 5050:1 6469:1 6940:1 8094:1 19239:1 
0 0.006376883210046117 1193:1 3875:1 7429:1 7757:1 9288:1 10506:1 11737:1 16370:1 16864:1 17672:1 21697:1 21988:1 
0.08756417060476807 0 43:1 1261:1 3193:1 5538:1 5827:1 7169:1 8640:1 10519:1 11984:1 12988:1 13752:1 14131:1 14947:1 16507:1 19239:1 19476:1 21013:1 
0.7202119591456921 0 272:1 2779:1 3647:1 4752:1 5335:1 6846:1 12828:1 16301:1 19403:1 20905:1 
0.4264173078993714 0 3530:1 4856:1 8187:1 10846:1 23223:1 24381:1 
0.9906163576292392 0 3958:1 7003:1 10605:1 10629:1 
1 0 8240:1 21109:1 22167:1 
0.3558354997689345 0 1856:1 1975:1 5590:1 8098:1 10643:1 11454:1 21286:1 23620:1 
0.5223910108228117 0 2457:1 5494:1 7934:1 11377:1 12337:1 15768:1 16028:1 18495:1 21462:1 24321:1 
0.2228135941940001 0 4855:1 5575:1 9420:1 10629:1 12993:1 14091:1 15943:1 16776:1 17895:1 18045:1 19768:1 21602:1 23429:1 24255:1 
0.3788095381052506 0 2004:1 3200:1 10708:1 10935:1 17288:1 22359:1 
0.4372043717201886 0 505:1 9403:1 12221:1 14474:1 16228:1 20565:1 
0.4054475117358526 0 1619:1 12893:1 18316:1 22167:1 23661:1 
1 0.2517316051465223 5607:1 12209:1 20375:1 
1 0 14355:1 19239:1 21456:1 23753:1 24032:1 
0.05524751359187318 0 400:1 5057:1 6213:1 7317:1 11365:1 14839:1 15761:1 18082:1 19180:1 20077:1 
0.4226712557573337 0 7107:1 9475:1 11491:1 13493:1 15408:1 16772:1 17234:1 18346:1 23116:1 
0.05755002255476267 0 4130:1 5787:1 7959:1 10629:1 15009:1 
0 0.06263139935050127 2076:1 2564:1 9666:1 11809:1 16776:1 18972:1 21601:1 22679:1 23376:1 
0.2598545526707876 0 775:1 9234:1 
0.8072546028914788 0.06749202314168332 6694:1 7012:1 9942:1 10643:1 11035:1 12767:1 23274:1 
0.273739302893766 0 3517:1 6805:1 13751:1 13810:1 19018:1 22418:1 22619:1 23116:1 23511:1 
0.1201713404111499 0 2646:1 10695:1 10705:1 17298:1 23178:1 23815:1 
0.7347229808194113 0.04001148871481656 1975:1 6333:1 8312:1 9610:1 16853:1 17678:1 20490:1 20992:1 21090:1 
1 0 2720:1 6937:1 11362:1 11924:1 17559:1 18813:1 19239:1 20755:1 21311:1 21383:1 
0.4874525801934871 0 144:1 1159:1 1209:1 5069:1 6847:1 10044:1 11071:1 12449:1 13333:1 15943:1 
1 0.2655901995289264 9923:1 15344:1 18453:1 
0.002478148816582463 0 11016:1 11512:1 11552:1 15344:1 16691:1 18634:1 18851:1 20132:1 21566:1 
0 0.01863112027051392 2057:1 5039:1 5336:1 10571:1 12855:1 12912:1 13437:1 21906:1 22052:1 
0.3004872062007971 0 3439:1 4889:1 6908:1 7003:1 8640:1 9649:1 10305:1 11521:1 13805:1 15112:1 15943:1 18809:1 20780:1 21311:1 22167:1 22273:1 23116:1 23196:1 23735:1 
0.2286809571118846 0 1975:1 4427:1 6517:1 7920:1 10629:1 15718:1 15943:1 16163:1 22272:1 
0.2687756755690749 0 3903:1 7430:1 9115:1 10082:1 10851:1 11267:1 13673:1 22015:1 22418:1 22519:1 
0.5605230238445025 0 991:1 1975:1 2485:1 14843:1 17762:1 18073:1 18565:1 18634:1 21068:1 22054:1 22281:1 
0.10841302641481 0 2483:1 5335:1 5545:1 6333:1 9001:1 9053:1 9900:1 13408:1 14131:1 16344:1 16791:1 17907:1 19330:1 20630:1 
0.3227313728566456 0 5085:1 5269:1 10629:1 12337:1 14330:1 15977:1 16902:1 
0.4237567385194274 0 15005:1 15494:1 22147:1 
0 0.02836345732212525 1180:1 2862:1 11583:1 13850:1 16591:1 16747:1 16791:1 
1 0 2252:1 2564:1 3193:1 3329:1 3439:1 4283:1 10629:1 21040:1 22113:1 23484:1 24317:1 
1 0 3859:1 7003:1 13869:1 19442:1 23857:1 
0.6862475599866752 0 1193:1 3639:1 4619:1 7145:1 8575:1 10011:1 12485:1 13399:1 13756:1 13886:1 14078:1 15768:1 15943:1 18634:1 19948:1 20694:1 22372:1 23695:1 
1 0.01341073324395788 2603:1 2611:1 9882:1 13525:1 13836:1 23735:1 
0.1701590532241407 0 1414:1 5153:1 6750:1 6780:1 7835:1 8941:1 10450:1 15943:1 17652:1 21462:1 
0.1154657476486425 0.1851362265595307 43:1 1324:1 2141:1 8187:1 11834:1 14513:1 19150:1 22372:1 23986:1 
0.005666127055873927 0 1946:1 3502:1 6210:1 6979:1 11066:1 11138:1 12134:1 13408:1 16914:1 18064:1 20177:1 22498:1 22899:1 
0 0.2055002964583783 1975:1 7988:1 13272:1 14029:1 14681:1 22167:1 
0.02700786919647482 0 3738:1 5335:1 6149:1 9587:1 10629:1 16011:1 16705:1 18678:1 20290:1 21383:1 21413:1 
0.9641334288661153 0 7257:1 10681:1 15340:1 17283:1 19239:1 19392:1 21679:1 
0.4180863171677383 0 692:1 982:1 2779:1 11001:1 13582:1 14363:1 15173:1 15943:1 18073:1 21305:1 23274:1 
0.5852262813519591 0 253:1 3502:1 6864:1 16092:1 17264:1 21383:1 
0.2565439602570567 0.01982021704230683 1158:1 4593:1 10867:1 22588:1 
0.4651674879971677 0.09121205339224328 579:1 6809:1 10643:1 13525:1 15943:1 
1 0 157:1 10629:1 11035:1 13122:1 15782:1 15943:1 16135:1 20574:1 21046:1 21906:1 24211:1 
0.01444883160841119 0.000327224943793076 655:1 656:1 1158:1 2787:1 4044:1 10150:1 11588:1 11747:1 12316:1 12976:1 13057:1 14367:1 18082:1 21311:1 
0.005968365449698506 0 2298:1 3924:1 6798:1 6808:1 9746:1 17126:1 22992:1 23568:1 24038:1 
0.3614758650813509 0 1681:1 5075:1 6407:1 9994:1 10629:1 12763:1 18699:1 19239:1 22167:1 
0.002384901649213258 0 1081:1 1414:1 2570:1 4104:1 4286:1 4839:1 6213:1 6956:1 7235:1 11064:1 15752:1 19547:1 
0.07410539481385532 0 1381:1 1975:1 2141:1 4241:1 6213:1 6228:1 11995:1 12076:1 13751:1 21308:1 23018:1 23797:1 
0.3255817388016003 0 815:1 6210:1 14004:1 14402:1 20174:1 20869:1 
0.5533008714475802 0 760:1 7468:1 7907:1 9666:1 10133:1 10629:1 12363:1 14335:1 15853:1 
1 0 1975:1 2699:1 4799:1 8588:1 10629:1 17265:1 17341:1 22402:1 23173:1 23361:1 
1 0 406:1 6937:1 15943:1 
0.0228815520618099 0.01812477649761036 174:1 5790:1 6021:1 6237:1 7764:1 11386:1 13760:1 14377:1 
0.09263113510858799 0 3915:1 6333:1 6763:1 7507:1 9506:1 10128:1 11529:1 12337:1 12449:1 14175:1 18389:1 19839:1 20574:1 21811:1 23536:1 
0.6588278398956957 0 1715:1 2068:1 3108:1 5237:1 9084:1 10629:1 10763:1 12536:1 14480:1 14681:1 16825:1 17753:1 18379:1 20132:1 
1 0 8095:1 16092:1 17324:1 20132:1 23624:1 
0.08996993402470031 0 2790:1 3647:1 3957:1 6372:1 10796:1 11836:1 11979:1 13825:1 17253:1 
0.2876980118205437 0 418:1 1629:1 3608:1 6949:1 12233:1 20189:1 21102:1 
0 0.01563343542771594 3927:1 6210:1 6620:1 11682:1 12040:1 12767:1 16705:1 16969:1 17622:1 21277:1 
0.2106398633774774 0 3725:1 6763:1 6908:1 13235:1 16111:1 16210:1 18809:1 22261:1 23026:1 
1 0 14136:1 
1 0 4429:1 5316:1 5457:1 5586:1 7199:1 10449:1 14480:1 15718:1 19239:1 21046:1 
0.2076402268725147 0.01219117191867535 1458:1 2156:1 3050:1 3622:1 4216:1 13531:1 15638:1 19823:1 
0 0.03478313303727563 2381:1 7841:1 8481:1 12427:1 13832:1 13836:1 14126:1 15162:1 17584:1 19457:1 22167:1 23822:1 
0.3697231550739998 0.02850369793995044 10724:1 13576:1 22437:1 22831:1 23266:1 
0.1148202537106669 6.992057607153028e-05 4107:1 4185:1 4979:1 5862:1 6280:1 7631:1 7699:1 7737:1 7989:1 10452:1 11036:1 13237:1 13250:1 14362:1 14754:1 15047:1 17863:1 18680:1 19099:1 23522:1 
0.3217641711727622 0 2095:1 2190:1 4062:1 6798:1 7699:1 17609:1 17961:1 23568:1 23661:1 
0.1100969861050693 0 2509:1 3293:1 8970:1 9784:1 11388:1 13801:1 15130:1 16020:1 19966:1 20259:1 21336:1 
0.1354291529464892 0 2156:1 2303:1 5971:1 8905:1 11243:1 16449:1 22418:1 
0.1632924229942532 0 12964:1 14070:1 19239:1 19599:1 
0.3019569826861069 0 578:1 2019:1 2254:1 6680:1 7091:1 8118:1 8144:1 16013:1 16932:1 18426:1 19239:1 24097:1 
0.06332951427304301 0 3026:1 8492:1 13701:1 14921:1 17444:1 18329:1 18634:1 
0.9223255357756849 0 5789:1 7394:1 7417:1 12331:1 20971:1 21791:1 23305:1 23514:1 
1 0 3561:1 15931:1 16691:1 18247:1 20164:1 
1 0 346:1 2581:1 6320:1 7482:1 20293:1 21354:1 22130:1 
0.8536925209442733 0 3502:1 3859:1 6389:1 7799:1 20893:1 22323:1 22372:1 23474:1 
0.2284710322226434 0 1601:1 8563:1 12134:1 12767:1 16829:1 17631:1 22100:1 23882:1 
1 0 1018:1 16873:1 17126:1 19239:1 
0.5185288438196126 0 5156:1 5641:1 6156:1 7861:1 10105:1 18114:1 18429:1 20132:1 23268:1 
0 0.002452051585147094 1815:1 1975:1 10133:1 11708:1 11797:1 13032:1 13214:1 17363:1 17965:1 18168:1 23534:1 
0.328595800663023 0 3012:1 7012:1 8118:1 9463:1 10629:1 10747:1 17210:1 22959:1 23116:1 23274:1 
0.7447816908660401 0.1177544899736998 613:1 6027:1 6888:1 8719:1 16664:1 16946:1 20943:1 20973:1 
0.4546236067845499 0 2645:1 10168:1 11455:1 13660:1 15152:1 16460:1 17113:1 
0.5975211583608159 0 766:1 3453:1 3775:1 9854:1 11813:1 14462:1 17567:1 
0.6271820700877282 0 7:1 7775:1 15844:1 16051:1 17827:1 18871:1 
0.3028794475520679 0 1158:1 2531:1 7317:1 10126:1 10629:1 11882:1 15943:1 17652:1 19674:1 20673:1 23568:1 
0.7644421688261827 0 7404:1 10534:1 20573:1 22424:1 
0.6798898288248184 0 157:1 4619:1 4638:1 4939:1 10461:1 10629:1 15943:1 
0.3714328436727081 0 1261:1 1975:1 2490:1 3442:1 4427:1 5335:1 7901:1 8691:1 17363:1 20202:1 21009:1 21040:1 23882:1 
1 0 5085:1 8443:1 10697:1 11369:1 14681:1 17637:1 19326:1 19741:1 
0.5704156114295809 0 4454:1 5232:1 6825:1 13669:1 18211:1 
0.4966366468118204 0 1158:1 6780:1 7317:1 7462:1 8345:1 9420:1 13140:1 14363:1 15545:1 15943:1 17112:1 21359:1 
0.2115420167165847 0 4127:1 5085:1 6593:1 7217:1 11314:1 13163:1 14030:1 14213:1 18547:1 20132:1 20969:1 21028:1 21029:1 23735:1 23809:1 
0.3905529998460813 0 5635:1 8941:1 15943:1 16574:1 21552:1 22807:1 
0.4293983804894014 0 666:1 3012:1 3966:1 8130:1 9735:1 11362:1 14402:1 14531:1 14655:1 14773:1 20058:1 21383:1 22189:1 22959:1 
1 0 2019:1 3647:1 3815:1 7956:1 8570:1 13271:1 16111:1 
1 0 5335:1 7239:1 
0.2270594633636638 0 5744:1 16691:1 19321:1 19398:1 
1 0 10154:1 12337:1 12449:1 18634:1 19662:1 21952:1 22126:1 
0.7781827501829363 0 1447:1 4638:1 5279:1 6389:1 7599:1 9084:1 10071:1 20375:1 22536:1 
0.04283831570968095 0 108:1 6174:1 7197:1 8751:1 21791:1 23305:1 
0 0.08036175594814256 3392:1 4538:1 7350:1 12838:1 19591:1 20362:1 
1 0 3502:1 10044:1 18972:1 
0.1655724348822331 0 633:1 1480:1 3293:1 12496:1 18809:1 22418:1 
1 0 1975:1 21257:1 22167:1 
0.933772415535649 0 3787:1 
0.01411582533959222 0 1193:1 5103:1 6156:1 7907:1 8864:1 9354:1 11314:1 14131:1 14947:1 21311:1 21462:1 21649:1 23751:1 23836:1 
1 0 10520:1 15517:1 16315:1 20104:1 
0.2027542534382037 0.007867072389931022 2792:1 8848:1 10629:1 12567:1 18021:1 21906:1 
0.5129221609310091 0 3872:1 6106:1 7308:1 7397:1 9409:1 10005:1 19239:1 20074:1 21311:1 
0.09880035286132237 0.07489527888440646 1610:1 3502:1 4382:1 5034:1 5044:1 7131:1 11601:1 17206:1 19457:1 19599:1 20650:1 21626:1 21929:1 23337:1 
0.257016891641428 0 2921:1 6754:1 11208:1 14729:1 15339:1 15943:1 16160:1 21010:1 21757:1 
0.09355881017878344 0.02123455654059212 1159:1 3093:1 6461:1 7562:1 9900:1 10133:1 10491:1 14149:1 16315:1 21010:1 21640:1 22273:1 22423:1 
1 0 3329:1 5790:1 6210:1 10676:1 11834:1 19060:1 19180:1 19239:1 22167:1 
0.549171438769771 0 3915:1 5892:1 6625:1 6711:1 12201:1 18783:1 19288:1 21435:1 21888:1 
0.7482141249220954 0 3869:1 4465:1 14401:1 17283:1 19239:1 21979:1 23704:1 
0.05133537435666241 0.007267503118046006 901:1 4286:1 15141:1 15219:1 16256:1 16900:1 17976:1 18601:1 21383:1 23133:1 
0.09125964953054111 0 2400:1 5335:1 6156:1 7878:1 7963:1 17694:1 18046:1 19590:1 19823:1 20924:1 21858:1 
0.2314954237447938 0.1075772021317025 1975:1 4355:1 5352:1 10469:1 10629:1 11578:1 14105:1 16187:1 17265:1 19403:1 20783:1 21383:1 
0.03642598222001427 0 1770:1 10949:1 12934:1 18809:1 20938:1 21012:1 21257:1 24317:1 
0.07975682637708287 0 1193:1 3439:1 4582:1 12331:1 15472:1 
0.1548896049309556 0 3579:1 12052:1 13443:1 15052:1 15165:1 17694:1 18353:1 
0.3033281644711468 0 1316:1 2639:1 9923:1 10629:1 12567:1 13566:1 14681:1 22270:1 22840:1 24259:1 
0.3664184215412996 0.008529354222111304 775:1 1141:1 5850:1 5916:1 9444:1 10629:1 10747:1 10877:1 12123:1 16632:1 17884:1 17895:1 22072:1 23557:1 
0.548426810471932 0.005068935232934509 2034:1 3258:1 4395:1 10629:1 11622:1 15378:1 15943:1 22167:1 
1 0 1975:1 3903:1 4592:1 6274:1 6755:1 7920:1 10629:1 15943:1 17249:1 19823:1 
0.4333670384778682 0.03748342353893533 2462:1 3439:1 4255:1 4660:1 5335:1 6237:1 6265:1 7035:1 9631:1 13014:1 14213:1 18809:1 19823:1 20182:1 21947:1 22693:1 
0.6292828790257977 0 4172:1 8183:1 10210:1 19239:1 
0.2164860659535762 0 3858:1 7417:1 10406:1 13057:1 22336:1 22402:1 22810:1 23668:1 
1 0 2507:1 5641:1 7978:1 8118:1 12134:1 14463:1 20613:1 23015:1 
0.6885975124987687 0 979:1 4347:1 5335:1 11971:1 16520:1 17753:1 19239:1 22010:1 
0.351282313826761 0 2356:1 5765:1 7920:1 8118:1 9555:1 13756:1 13826:1 14564:1 15288:1 17753:1 18962:1 19545:1 23542:1 
1 0 12362:1 19239:1 21791:1 23305:1 
0.722257137649179 0 5226:1 6156:1 7123:1 15727:1 17692:1 22432:1 
0.5631708342648825 0.008175549029142163 2702:1 6314:1 7045:1 7594:1 10248:1 10375:1 15565:1 16853:1 17459:1 19907:1 21311:1 21875:1 23557:1 
0.31783605815986 0.03744164198591745 1384:1 11512:1 18393:1 
0.1168201852020498 0 784:1 2481:1 2498:1 5088:1 5226:1 8062:1 8255:1 11267:1 11930:1 14605:1 15943:1 17446:1 18781:1 19768:1 20647:1 
0.05341841416238708 0 61:1 542:1 3723:1 4489:1 5085:1 5513:1 7147:1 9597:1 10638:1 11167:1 12010:1 12872:1 13500:1 13565:1 18667:1 18809:1 20280:1 21555:1 21883:1 
0.2025349019738908 0.003811735943892985 1923:1 4185:1 7699:1 7738:1 8010:1 9681:1 10370:1 11032:1 11035:1 15599:1 15881:1 16587:1 21261:1 21714:1 22433:1 24222:1 
0.2679889092697449 0 69:1 1209:1 2198:1 4044:1 5568:1 6798:1 8894:1 9917:1 14674:1 15893:1 18678:1 19793:1 20330:1 21937:1 
0.5143289936714492 0 5789:1 7923:1 8756:1 16549:1 18073:1 
0.5611658209419363 0 1351:1 2457:1 4165:1 12711:1 13282:1 14131:1 23882:1 
0.3403070837472754 0 5335:1 6389:1 6675:1 6780:1 7945:1 8118:1 8252:1 9049:1 9590:1 10572:1 11035:1 14574:1 16194:1 18247:1 19877:1 23889:1 
0.6495446868779243 0 1044:1 4075:1 5335:1 9594:1 15522:1 21981:1 
0.1960351275222102 0 528:1 2834:1 3012:1 6588:1 7169:1 7199:1 7625:1 9784:1 10514:1 10629:1 14516:1 18678:1 20302:1 
0.8949953867091989 0 6389:1 10867:1 12275:1 20755:1 23620:1 
0.3141883356583962 0.04114632371744031 420:1 1677:1 2454:1 4381:1 8295:1 11151:1 14156:1 17976:1 18874:1 20247:1 23959:1 
0.6945678534251917 0 577:1 883:1 1475:1 4044:1 5059:1 5335:1 6673:1 12156:1 13778:1 16549:1 18788:1 
0.03195168944992166 0 1158:1 2419:1 4538:1 9048:1 10114:1 15275:1 16004:1 16986:1 18441:1 20574:1 22620:1 
0 0.01577229428441666 4455:1 8827:1 9377:1 11834:1 16266:1 17977:1 20058:1 20077:1 21150:1 
0.2177788288539127 0.1562995567213782 32:1 2254:1 3012:1 3815:1 5345:1 6174:1 7012:1 8183:1 10149:1 21440:1 23274:1 
0.04404440184655471 0 1446:1 1745:1 6167:1 6309:1 8914:1 21510:1 
0.6571009697698122 0 4062:1 7239:1 10629:1 19623:1 
0.06386553806446234 0 431:1 5045:1 14332:1 15943:1 17085:1 23116:1 24113:1 
0.1087245225166211 0 668:1 1193:1 1975:1 3693:1 4855:1 5156:1 7003:1 7205:1 10498:1 15511:1 15943:1 16458:1 17426:1 17735:1 
0.6630172529557912 0 3136:1 3922:1 5075:1 7806:1 10413:1 11170:1 14948:1 15943:1 17191:1 19083:1 20695:1 21083:1 23015:1 
0.1058077852280851 0 1194:1 3502:1 9563:1 15836:1 
0.6471201039861942 0 2795:1 6389:1 6779:1 12727:1 14131:1 17652:1 19499:1 23376:1 
0.6460845401245889 0 10903:1 12231:1 15943:1 16964:1 22992:1 23431:1 23959:1 
0.1506340224170026 0 3960:1 4831:1 6823:1 7637:1 11306:1 18036:1 23116:1 
0.2098848624709155 0.05310443878661374 864:1 4184:1 6864:1 7776:1 11130:1 14831:1 17454:1 20132:1 21277:1 
0.8595424457094092 0 327:1 768:1 9537:1 10080:1 11102:1 11526:1 14670:1 19803:1 21383:1 23706:1 
0.2677872808106672 0 2064:1 2400:1 3012:1 5335:1 7752:1 7878:1 10629:1 11825:1 12134:1 14139:1 15943:1 18040:1 22324:1 
0.9021985376116011 0 10133:1 16381:1 
1 0 884:1 5085:1 11814:1 17216:1 18634:1 21619:1 22418:1 
1 0 2992:1 10629:1 16914:1 19239:1 20056:1 
0.3915245344525266 0 3393:1 4415:1 8890:1 11505:1 15784:1 15943:1 19778:1 19789:1 22551:1 
0.3122949937367563 0 1187:1 12817:1 19869:1 23226:1 
0.2056989483380708 0 1975:1 3079:1 3345:1 6237:1 6755:1 15313:1 20399:1 20689:1 21311:1 21888:1 22065:1 24175:1 
0.009771725994869375 0 2239:1 2436:1 7573:1 7959:1 9765:1 10629:1 11120:1 15106:1 16007:1 16747:1 17522:1 17652:1 20023:1 21650:1 23116:1 23541:1 24365:1 
0.006335641052253118 0 1158:1 3439:1 4467:1 6086:1 7908:1 8183:1 10542:1 10629:1 13302:1 16969:1 18495:1 20187:1 20412:1 20604:1 21253:1 21383:1 22556:1 
0.8389102427427935 0 205:1 337:1 3864:1 7168:1 11520:1 14476:1 18783:1 19019:1 19288:1 21689:1 
0.9597451393720448 0 4769:1 7199:1 7867:1 10133:1 14871:1 16440:1 17652:1 
1 0 3502:1 10986:1 12986:1 
0.6129393381803734 0.06000344615406688 5794:1 10450:1 12494:1 16022:1 19823:1 21994:1 
0.001750634246567219 0 784:1 3817:1 5540:1 15799:1 16745:1 17276:1 18353:1 23801:1 
0.2159010472136758 0 4994:1 5335:1 12100:1 14271:1 14306:1 15943:1 17895:1 19018:1 
1 0 9388:1 9737:1 11167:1 13282:1 14221:1 14681:1 16791:1 20124:1 20628:1 
0.02371319986082893 0 8312:1 15607:1 
0.3648487429912556 0 1975:1 2010:1 8252:1 22418:1 
0.09050927648857868 0 3875:1 7482:1 9955:1 17922:1 18600:1 20354:1 
0.2008944879621663 0 2551:1 3797:1 7692:1 8926:1 10408:1 11639:1 12337:1 15943:1 17735:1 20906:1 22218:1 22679:1 
0.6824501520683244 0 1955:1 2441:1 13439:1 19239:1 
0.2390731436675715 0 1934:1 1975:1 1977:1 8240:1 10154:1 16377:1 20689:1 21741:1 22076:1 22372:1 
0.0960194738526495 0 2284:1 3802:1 4799:1 5130:1 5335:1 6210:1 6274:1 9115:1 10629:1 17120:1 17587:1 20132:1 22113:1 
0.7793811088072236 0 5209:1 5591:1 7516:1 19101:1 
1 0.1937200244608379 2136:1 6477:1 16014:1 19403:1 
1 0 2489:1 3915:1 15943:1 17205:1 
0.135244389849513 0 1798:1 11437:1 15943:1 17739:1 23774:1 
0.06489947848570024 0 2433:1 5226:1 8523:1 8969:1 
0.08282749572431207 0 7482:1 8189:1 9076:1 9179:1 9897:1 10629:1 11856:1 13780:1 18125:1 18247:1 
1 0 1316:1 6946:1 7003:1 10629:1 13272:1 14670:1 19948:1 22132:1 
0 0.007289311330131569 186:1 850:1 3643:1 7620:1 11437:1 12134:1 19782:1 20077:1 23774:1 
0.5600594727878497 0 4638:1 18092:1 22012:1 23683:1 23882:1 
0.3276663077970723 0 500:1 6297:1 6884:1 10168:1 10368:1 10825:1 10935:1 13641:1 14564:1 19885:1 20650:1 
1 0 2247:1 17486:1 
0.07470226822334139 0.01956628220934591 613:1 1142:1 3769:1 7035:1 12024:1 13756:1 14259:1 15718:1 15924:1 17753:1 18318:1 21192:1 21220:1 22814:1 23229:1 
0.3343850869889444 0 1456:1 2571:1 4675:1 4799:1 5604:1 7671:1 8217:1 10629:1 13873:1 14692:1 14947:1 18918:1 19494:1 21626:1 
0.0964617445752923 0 3081:1 4473:1 6397:1 10629:1 13129:1 14045:1 15238:1 19239:1 19273:1 21090:1 
0.2758094976686484 0.01237824903344584 655:1 2381:1 5031:1 7604:1 8461:1 10338:1 10562:1 11289:1 14380:1 16520:1 18318:1 20777:1 
0.06155826782001696 0 1212:1 4146:1 9991:1 10948:1 14551:1 20132:1 
0.2419951531083253 0 2381:1 4799:1 5237:1 16791:1 19412:1 23361:1 
0.3529691980361863 0.0643677745476381 2170:1 2792:1 3804:1 5039:1 9472:1 21578:1 
1 0.08885274716716479 13029:1 13752:1 13926:1 19465:1 22588:1 
1 0 504:1 828:1 976:1 1975:1 4575:1 7107:1 15054:1 16159:1 18809:1 19239:1 22172:1 
0.2722321783300743 0 6062:1 6081:1 6249:1 11880:1 12711:1 15943:1 19084:1 20097:1 
0.070586709973305 0 1214:1 4619:1 7394:1 14785:1 17165:1 20886:1 
0.6741009653595924 0 71:1 209:1 1316:1 10629:1 13168:1 16117:1 18658:1 22167:1 22379:1 23514:1 
0 0.02952467287283373 2170:1 2852:1 3008:1 3050:1 5988:1 6407:1 8534:1 9667:1 14486:1 16425:1 17609:1 18703:1 21581:1 22090:1 22558:1 22938:1 
0.5249887081994096 0 1681:1 2011:1 2974:1 3108:1 5892:1 10629:1 12134:1 13320:1 13756:1 16111:1 
1 0 6174:1 15344:1 17162:1 19239:1 
0.6317497201452914 0 9504:1 10486:1 
0.4619933972059044 0 1601:1 3603:1 4399:1 4619:1 8260:1 9175:1 14474:1 15223:1 23795:1 
0.09977922214550711 0.03836852016279438 613:1 1489:1 2254:1 2361:1 7482:1 10821:1 12344:1 15545:1 
1 0 13408:1 
0.1805740681490368 0 994:1 2778:1 5815:1 11125:1 23134:1 
0.7664046570065599 0 1633:1 1975:1 10629:1 11035:1 13229:1 14402:1 16691:1 18735:1 21823:1 
0.9737723209345319 0 7045:1 7387:1 10729:1 14272:1 14516:1 19239:1 24339:1 
0.6148494901467656 0 1975:1 7089:1 10236:1 11454:1 18982:1 19239:1 23611:1 
0.04063140197572686 0 773:1 4109:1 5226:1 11493:1 14526:1 16776:1 19238:1 21337:1 23116:1 
1 0 120:1 2698:1 11035:1 15313:1 19796:1 
0.4725019126256973 0 4577:1 5226:1 8851:1 12477:1 14229:1 14851:1 15739:1 16691:1 17803:1 21473:1 
0.746492246509173 0 470:1 1078:1 3194:1 4638:1 4793:1 7417:1 13468:1 16111:1 17268:1 18938:1 19127:1 19345:1 20845:1 23735:1 24263:1 
1 0 
1 0 4855:1 6237:1 9529:1 13272:1 13851:1 15943:1 18045:1 
0.0192759319281112 0 1753:1 3012:1 6780:1 10363:1 11314:1 12746:1 13475:1 14131:1 14320:1 15313:1 22625:1 23320:1 
1 0 6780:1 15931:1 22300:1 22418:1 
0.105450673463776 0 157:1 542:1 2502:1 5647:1 6407:1 7972:1 10629:1 14544:1 14591:1 14870:1 14926:1 16546:1 17676:1 19550:1 19965:1 20460:1 20777:1 22167:1 
0.2336528236218905 0 1669:1 6174:1 19305:1 20755:1 23552:1 
0.233714105891531 0 784:1 1754:1 1975:1 3233:1 4577:1 6156:1 8756:1 10069:1 10278:1 13294:1 13732:1 14249:1 15313:1 15386:1 17811:1 17812:1 18768:1 19311:1 20058:1 
0.151063629021536 0 2141:1 2377:1 2452:1 3047:1 3439:1 3588:1 4566:1 5033:1 6210:1 9085:1 11834:1 14970:1 17205:1 18851:1 22379:1 23082:1 
0.8499915843348673 0 8563:1 15608:1 23537:1 
0.4991708329326613 0 979:1 1975:1 6021:1 7686:1 10629:1 12316:1 20152:1 
0.1034356776516714 0.06088743552393768 1715:1 1879:1 4799:1 4810:1 8073:1 8808:1 9994:1 14121:1 14692:1 15472:1 16490:1 18247:1 18446:1 20229:1 21097:1 21774:1 22721:1 23704:1 
0 0.1300101033508957 60:1 815:1 1856:1 3221:1 3268:1 3957:1 8627:1 10681:1 13778:1 14136:1 20490:1 21311:1 22167:1 
0.32702211971071 0 2833:1 7547:1 23217:1 
0.8252018105486388 0 6177:1 7377:1 10629:1 11084:1 15799:1 20558:1 22418:1 
0.2601962643368121 0 14136:1 14330:1 16020:1 18460:1 19239:1 
1 0 1193:1 5010:1 8162:1 9784:1 12546:1 15344:1 18972:1 19457:1 22418:1 
1 0.01228659824172435 9084:1 10629:1 11983:1 13443:1 13458:1 21789:1 
0.5237586290496159 0 2143:1 10629:1 11479:1 20329:1 21383:1 23611:1 
0.3357283784288419 0 6437:1 10415:1 19239:1 20291:1 
1 0.009184990587893828 1975:1 4138:1 12767:1 21311:1 22785:1 
0.6528012719529478 0 3896:1 4489:1 6763:1 17143:1 21640:1 23216:1 24216:1 
1 0 977:1 1193:1 2818:1 6908:1 10247:1 11711:1 14221:1 19037:1 20704:1 21440:1 
0.6358501332208929 0 5822:1 11102:1 15718:1 20971:1 
0.4540670667543968 0 4771:1 10259:1 10629:1 13407:1 14402:1 15943:1 18092:1 21383:1 21555:1 22272:1 
0.2401531842740499 0 2874:1 8614:1 10629:1 14131:1 14320:1 19239:1 20616:1 22010:1 
1 0.07265633867478544 773:1 2585:1 2819:1 3047:1 4540:1 14241:1 17965:1 19045:1 20177:1 21941:1 23195:1 23624:1 
0.3664268731402694 0 6763:1 8829:1 10908:1 14851:1 16795:1 18809:1 22418:1 22437:1 
0.6694999557230766 0 1193:1 2927:1 11267:1 16194:1 
0.6188926767945432 0 2056:1 12448:1 20962:1 22251:1 
0.8573963668415485 0 1158:1 1316:1 3439:1 3723:1 5335:1 7547:1 9417:1 10629:1 15608:1 15716:1 15943:1 19823:1 20058:1 
0 0.009735035145906245 820:1 1086:1 1158:1 1975:1 6489:1 10629:1 14136:1 15718:1 16468:1 19457:1 19864:1 21090:1 21640:1 
0.3417791480231839 0 1023:1 1975:1 3683:1 5578:1 5892:1 10629:1 14857:1 18228:1 21906:1 
1 0 11035:1 13749:1 14564:1 20501:1 20673:1 
0.2328459200117207 0 2813:1 8038:1 11984:1 
0.3758395365472637 0 6519:1 6680:1 9314:1 10629:1 13501:1 14149:1 14681:1 15247:1 15392:1 15943:1 
1 0 10629:1 14955:1 19588:1 
0.1084029717469514 0.02328764301708825 760:1 766:1 3271:1 14136:1 15541:1 16066:1 23950:1 
0.4164538689140948 0 5156:1 8481:1 10111:1 14374:1 18818:1 18985:1 19588:1 23643:1 
0.2173561942647941 0 760:1 5000:1 9434:1 12828:1 13501:1 15943:1 16694:1 17414:1 19239:1 22614:1 22759:1 
1 0 10629:1 16117:1 18809:1 18835:1 19239:1 
0.2248377493483009 0 538:1 3502:1 4664:1 5604:1 6210:1 6309:1 7893:1 8118:1 10481:1 10629:1 13206:1 14006:1 16946:1 17781:1 18972:1 20058:1 23778:1 
0.4543478754759752 0 1570:1 5075:1 13606:1 13836:1 15943:1 16914:1 18430:1 19310:1 
0.1737295903734738 0 174:1 539:1 540:1 1553:1 1633:1 4701:1 5075:1 6106:1 9406:1 10629:1 16164:1 19437:1 22170:1 
0.620203478567726 0 1927:1 3015:1 3398:1 3457:1 4999:1 7917:1 8642:1 10259:1 10629:1 14199:1 14274:1 14319:1 15497:1 16896:1 18443:1 
0.1283355669701327 0 6899:1 7349:1 9972:1 11604:1 14686:1 20286:1 
0.1557078490672803 0 883:1 1747:1 5031:1 8103:1 9137:1 16182:1 17879:1 
1 0 8459:1 10629:1 11935:1 
0.3528647684576867 0 3823:1 13723:1 
0.5702267912067772 0 1975:1 3012:1 3859:1 6898:1 7199:1 7625:1 9562:1 11882:1 15074:1 22263:1 
1 0 12567:1 
1 0 3559:1 3684:1 
0.0189032941333645 0.03866346392128416 2004:1 3324:1 7417:1 8339:1 9216:1 17105:1 21109:1 22945:1 
0 0.1250464583682927 124:1 3184:1 6805:1 13953:1 15103:1 19808:1 20939:1 20941:1 
0.3017828459472207 0 14:1 2864:1 3502:1 5485:1 6727:1 8172:1 14320:1 15943:1 18161:1 24216:1 
0 0.02394253274462877 1583:1 1858:1 3502:1 3677:1 3723:1 3875:1 4196:1 7849:1 9727:1 13282:1 14495:1 19086:1 19457:1 20710:1 23229:1 
0.1528849062844499 0 2668:1 2941:1 6374:1 7568:1 10133:1 10469:1 11882:1 12852:1 13014:1 18678:1 18849:1 
0.3368198999490666 0 1860:1 2979:1 3502:1 4489:1 5641:1 10629:1 14561:1 15626:1 15943:1 16560:1 16795:1 17522:1 19080:1 22708:1 24309:1 
0.3555675033791039 0 1265:1 2645:1 4043:1 7017:1 8525:1 13458:1 13582:1 15059:1 15853:1 15943:1 18914:1 19079:1 22301:1 
0.9981507577065099 0 1193:1 6780:1 11090:1 13920:1 21446:1 
0.3572204327509567 0 4191:1 4566:1 11035:1 15959:1 21028:1 22167:1 
0.2209994872989635 0 827:1 8751:1 8822:1 10694:1 13378:1 17393:1 20671:1 
0 0.04315014825508767 735:1 6899:1 8159:1 13235:1 14474:1 14681:1 15954:1 18699:1 19083:1 23422:1 23959:1 
0 0.009616067327260315 655:1 6359:1 15923:1 17231:1 21237:1 23139:1 
0.37498313131093 0 2019:1 3591:1 5331:1 7575:1 13014:1 14681:1 15844:1 21474:1 22670:1 
1 0 4999:1 8546:1 11314:1 11689:1 18634:1 19239:1 22167:1 
0.348632050723461 0 773:1 2564:1 4414:1 6237:1 7048:1 7417:1 12474:1 12849:1 15718:1 17567:1 20826:1 24269:1 
0.9664496840617741 0 5079:1 10629:1 12577:1 13008:1 17652:1 20560:1 20755:1 
0.181926274406369 0 2512:1 2564:1 5279:1 10487:1 11252:1 12337:1 12449:1 19609:1 20574:1 21311:1 21422:1 21434:1 22126:1 23015:1 
1 0 2858:1 6805:1 6825:1 7671:1 10629:1 20660:1 22189:1 
0.3257505296618789 0 10522:1 18283:1 19708:1 
0.07011070850689327 0 166:1 3903:1 4663:1 6050:1 6583:1 7006:1 9030:1 12727:1 12935:1 16986:1 
0.7219353940757594 0 767:1 4821:1 6908:1 16759:1 17927:1 18054:1 22597:1 
0.04223072286474884 0.01400148600652127 2924:1 5523:1 10133:1 14054:1 14241:1 14612:1 19277:1 21394:1 21619:1 22938:1 
0.5166984126627597 0 2613:1 6333:1 13282:1 16795:1 22253:1 
0.363316063985011 0 2069:1 2170:1 8450:1 15943:1 23139:1 
0.01612616944429929 0.1608796399941413 10169:1 11575:1 19457:1 22588:1 
1 0 6864:1 12444:1 14131:1 16210:1 16943:1 19239:1 
0.09383490182572145 0 3642:1 6636:1 7003:1 7354:1 8845:1 10629:1 11141:1 16353:1 19239:1 20220:1 20410:1 21253:1 21631:1 
0.2869802448802989 0 6681:1 
0.4712628147909926 0 22492:1 24302:1 
0.3084683230161783 0 2874:1 9562:1 10068:1 14096:1 
1 0 1975:1 4191:1 10629:1 12683:1 16791:1 
0.04825380044219233 0 6140:1 7003:1 9207:1 9247:1 9784:1 11794:1 13915:1 13984:1 17813:1 18775:1 19239:1 21311:1 21614:1 
1 0 5687:1 5785:1 9084:1 10629:1 19239:1 
1 0 7003:1 14752:1 15340:1 20613:1 22379:1 
1 0 2479:1 5050:1 7483:1 8523:1 9660:1 11015:1 13574:1 15588:1 16253:1 16629:1 22498:1 23116:1 
0 0.01637914665546313 1158:1 2680:1 3226:1 3271:1 4619:1 6946:1 11267:1 11341:1 13548:1 14978:1 16791:1 21435:1 22308:1 22418:1 
0.1244381774632847 0.009709904800304196 1406:1 1425:1 4619:1 8546:1 8882:1 12780:1 15832:1 19122:1 20938:1 
1 0 4771:1 8574:1 8604:1 10036:1 10789:1 13723:1 16507:1 17236:1 19239:1 20558:1 24153:1 
0.4902653212495015 0 5600:1 9960:1 10096:1 10629:1 11170:1 13294:1 14851:1 15485:1 17891:1 20177:1 20647:1 20673:1 21346:1 
0.2315610612281473 0 14:1 2514:1 5335:1 6365:1 12767:1 16117:1 21383:1 22372:1 
1 0 1975:1 2300:1 19670:1 
0.04401882762639404 0 1770:1 2560:1 2564:1 3171:1 6942:1 8183:1 8531:1 10629:1 11486:1 13657:1 15498:1 16576:1 18565:1 21311:1 22650:1 23229:1 24032:1 
0.5101902389913847 0 689:1 824:1 2285:1 4786:1 7480:1 8794:1 9330:1 11708:1 16517:1 18247:1 
0.0805074033835098 0 217:1 2924:1 3397:1 3875:1 4702:1 8183:1 14187:1 15966:1 17281:1 18346:1 19948:1 20293:1 21526:1 
0.595392846532381 0 2281:1 4956:1 12901:1 15911:1 19239:1 
0.3165741463044555 0 2712:1 3161:1 3903:1 5279:1 5604:1 8844:1 13565:1 15727:1 17852:1 19623:1 19823:1 22132:1 22328:1 
1 0 4015:1 9084:1 15778:1 19296:1 20787:1 
0.04201950169834644 0 1193:1 1483:1 4603:1 4619:1 4837:1 6366:1 9030:1 12134:1 14774:1 
0.5927626176065692 0 1564:1 3379:1 6755:1 8162:1 8845:1 10643:1 15099:1 16111:1 16456:1 19239:1 21277:1 22547:1 
0.7607678111252597 0 431:1 1975:1 3482:1 4446:1 6119:1 7754:1 9084:1 10629:1 11423:1 13028:1 18139:1 20659:1 24234:1 
0.03506631173642152 0 656:1 2499:1 2699:1 3421:1 4004:1 7915:1 10168:1 13817:1 14320:1 17814:1 18283:1 
0.5235436029482421 0 155:1 2990:1 3059:1 5237:1 8458:1 9497:1 11167:1 16859:1 17295:1 20124:1 21509:1 23413:1 23458:1 
0.02236785289923719 0 2468:1 2699:1 3384:1 4783:1 8563:1 13433:1 13570:1 13620:1 14839:1 15452:1 15938:1 17738:1 21995:1 
0.2450045724446869 0 742:1 2247:1 3016:1 5625:1 12250:1 12767:1 15344:1 22172:1 
1 0 5586:1 22418:1 
1 0.007031456389250108 6798:1 7795:1 8187:1 15658:1 18954:1 22180:1 
0.149938041024738 0 44:1 6174:1 8149:1 11168:1 11486:1 14131:1 15636:1 18678:1 
0.2632096825486709 0 5075:1 7031:1 7257:1 9084:1 11991:1 14718:1 19455:1 20282:1 24329:1 
0.4777837029358017 0.04235347561880087 8183:1 8191:1 13503:1 15394:1 15638:1 17433:1 23597:1 24251:1 
1 0 1975:1 4723:1 9620:1 11270:1 12737:1 16111:1 19437:1 20780:1 23116:1 
0.8522374534896437 0 9948:1 10133:1 15708:1 15718:1 17976:1 19239:1 19357:1 19653:1 
0.7291497739688902 0.02435724570966829 3711:1 6855:1 10265:1 12122:1 12930:1 19907:1 20938:1 21840:1 
0.8709844065042133 0 1193:1 4619:1 6142:1 7397:1 9839:1 14201:1 14330:1 20152:1 
0.8726500579424683 0 662:1 1269:1 2164:1 3255:1 3982:1 5162:1 5727:1 8208:1 9652:1 10629:1 10643:1 11035:1 14906:1 15718:1 17652:1 20293:1 20399:1 21387:1 
0.1611046475948088 0 2457:1 6174:1 6358:1 7699:1 10359:1 10480:1 17404:1 18266:1 21305:1 21942:1 
0.09082854945211144 0 228:1 1158:1 3823:1 4489:1 5485:1 5593:1 7470:1 8450:1 9506:1 12892:1 16694:1 19229:1 19239:1 20077:1 20628:1 22054:1 
0.497205085361509 0.07560747094101511 7003:1 21311:1 24393:1 
0.2488643455723864 0 157:1 801:1 2604:1 5085:1 10681:1 11689:1 14149:1 14338:1 17352:1 18374:1 23369:1 
1 0 14213:1 15608:1 
0.004711635736623521 0 1816:1 2585:1 2789:1 6053:1 7699:1 7838:1 7990:1 7991:1 8010:1 9156:1 10370:1 10399:1 12623:1 13252:1 14575:1 17049:1 18138:1 19678:1 20656:1 20783:1 21714:1 21850:1 23056:1 
0.06537394369183004 0 1555:1 4572:1 5563:1 6210:1 8640:1 9505:1 11284:1 12499:1 13785:1 14424:1 14523:1 14526:1 15463:1 15943:1 16284:1 19624:1 21311:1 21665:1 
1 0 19296:1 19525:1 
0.6918174566884178 0 1935:1 6771:1 10119:1 14000:1 19239:1 19311:1 19892:1 21311:1 23054:1 23485:1 23846:1 
0.3509974568979511 0 12787:1 14316:1 16317:1 
0.6523606657470277 0 1193:1 3050:1 5237:1 15071:1 15472:1 16104:1 
0.7395481253118238 0 3579:1 7192:1 12337:1 15289:1 22418:1 
0.5807109666930154 0 1850:1 1975:1 4327:1 6805:1 7557:1 10629:1 15943:1 16791:1 
0.03814838729197473 0.01421626533061126 151:1 757:1 1860:1 3554:1 4453:1 8389:1 11900:1 12076:1 13836:1 15057:1 
0.6297570549084491 0 2611:1 3097:1 5045:1 13818:1 19239:1 19869:1 20152:1 20355:1 23015:1 
0.5629622181359402 0 200:1 1316:1 5018:1 7003:1 7116:1 7478:1 10629:1 17631:1 18742:1 19239:1 
0.490379403066851 0 760:1 1770:1 10681:1 11035:1 16881:1 19887:1 
1 0 1193:1 2633:1 3271:1 5335:1 5953:1 6942:1 9175:1 10629:1 11356:1 15931:1 16335:1 16445:1 18214:1 23410:1 
0.3322177370198068 0 2436:1 2645:1 2924:1 3579:1 5809:1 6176:1 7417:1 14149:1 17522:1 18972:1 20998:1 23103:1 
0.601412734562451 0 1648:1 7945:1 10629:1 11035:1 16087:1 19239:1 19457:1 
0 0.06695587785487006 820:1 1056:1 1715:1 1745:1 3711:1 4603:1 4638:1 6285:1 7182:1 11035:1 14580:1 17217:1 18539:1 22372:1 
0.004853672130166961 0 2247:1 8844:1 13790:1 17400:1 19239:1 19426:1 21647:1 22864:1 
0.1660923621832804 0 1193:1 1957:1 7445:1 10112:1 11109:1 11639:1 11867:1 12513:1 12943:1 13462:1 15945:1 19239:1 19956:1 
0.9540347114030722 0.0002968809998469826 4359:1 4845:1 7003:1 8492:1 11325:1 12704:1 17845:1 18346:1 
0.2940348531295065 0.009339192953490952 764:1 1584:1 3272:1 8742:1 16687:1 22506:1 22992:1 
0.3139289260596558 0 6295:1 10054:1 10403:1 23194:1 
0.3253469785388505 0 1975:1 5967:1 6176:1 10386:1 12054:1 12983:1 15058:1 15533:1 15768:1 15943:1 18809:1 19534:1 20568:1 20780:1 23237:1 
0 0.001198395095818155 4087:1 6763:1 19587:1 22167:1 
0.4358806981773319 0 4197:1 5140:1 10168:1 14882:1 18804:1 23194:1 23966:1 
0 0.02683301979528378 655:1 3571:1 3587:1 5740:1 6946:1 7482:1 13282:1 14044:1 14681:1 15943:1 17211:1 17477:1 19124:1 19808:1 20357:1 20490:1 20941:1 20971:1 24259:1 
0.02093043565364724 0 836:1 1014:1 2639:1 4920:1 11722:1 11924:1 13272:1 13282:1 13492:1 16090:1 18562:1 21004:1 22072:1 22167:1 
0.08501775982753058 0 557:1 1193:1 9839:1 12337:1 14951:1 15931:1 20058:1 20152:1 
0.396818270299018 0 1652:1 6105:1 10750:1 15943:1 20132:1 
1 0 2254:1 6174:1 15943:1 
0 0.004043385039414102 280:1 365:1 4038:1 8409:1 9085:1 9159:1 9245:1 9379:1 9964:1 10068:1 10637:1 13645:1 19529:1 22520:1 22925:1 
0.3635449084870069 0 655:1 4664:1 16353:1 18576:1 
0.2972879806807034 0 760:1 3903:1 7317:1 8642:1 10472:1 11637:1 
1 0 7274:1 8389:1 15895:1 22189:1 
0.2498643725376879 0 1158:1 4368:1 8316:1 9784:1 10629:1 12431:1 13121:1 13756:1 15943:1 17652:1 18379:1 19591:1 21029:1 21434:1 23826:1 
0.2110658774087087 0 1975:1 2405:1 4568:1 5538:1 6210:1 8183:1 11141:1 12567:1 15247:1 16776:1 19239:1 19967:1 
0.5655165878942786 0 2021:1 2436:1 3903:1 7239:1 8565:1 10651:1 13599:1 15916:1 16111:1 23627:1 
1 0 1975:1 3272:1 13975:1 19552:1 24328:1 
0.213813093856747 0 1193:1 1576:1 4347:1 
0.1747186797286093 0 575:1 700:1 1456:1 1648:1 1974:1 3447:1 3604:1 6644:1 6922:1 7825:1 8746:1 11179:1 12619:1 13752:1 14266:1 19256:1 20033:1 20714:1 
0.9691179251936295 0 3108:1 7199:1 11182:1 18814:1 19296:1 
0.3964077199748651 0 773:1 791:1 1975:1 3293:1 6763:1 8191:1 10629:1 13122:1 14177:1 16440:1 18809:1 18910:1 19623:1 21062:1 21192:1 21383:1 22010:1 22518:1 24019:1 
0.003672254589863815 0 1975:1 3797:1 4619:1 4842:1 6144:1 6174:1 10408:1 10629:1 15943:1 16407:1 16554:1 18678:1 19465:1 21311:1 
0.02645890633526914 0 110:1 2141:1 2728:1 4506:1 6176:1 9614:1 10365:1 12073:1 14402:1 15943:1 19877:1 21952:1 23032:1 23620:1 
0.2101840076496347 0 957:1 2564:1 3802:1 6946:1 11691:1 15768:1 19296:1 19656:1 20182:1 23894:1 
0.0561291075336315 0 2249:1 4939:1 4967:1 6275:1 9663:1 11130:1 12684:1 15339:1 15623:1 17051:1 18325:1 19552:1 
0.04570376642496504 0.01616997731831283 2489:1 5129:1 9590:1 13896:1 15472:1 17797:1 20169:1 23142:1 24175:1 
0 0.02628042843308732 635:1 1112:1 6792:1 14221:1 14731:1 14851:1 15236:1 18318:1 19148:1 20761:1 
1 0 882:1 3437:1 3859:1 4650:1 5625:1 7906:1 22836:1 
0.9049396014705869 0 2284:1 2864:1 10629:1 12444:1 15313:1 19931:1 
0.9351624762741283 0 1975:1 3012:1 5538:1 10629:1 14131:1 23490:1 
0.3837797642967526 0.006547355995741559 2381:1 4484:1 7161:1 7505:1 14030:1 19446:1 
1 0 9234:1 19073:1 
0.4500737212508675 0 12237:1 14070:1 16014:1 18389:1 
0 0.02591755291075349 1620:1 2483:1 2625:1 5189:1 6489:1 7786:1 7920:1 11388:1 15867:1 16054:1 16588:1 18590:1 23459:1 
0.1743742629501639 0.04409659861814032 5162:1 6237:1 6812:1 8183:1 8727:1 9950:1 10629:1 11035:1 14402:1 19321:1 19623:1 20316:1 21670:1 22775:1 
0.8699210250727016 0 60:1 3161:1 6699:1 7251:1 12792:1 16194:1 19239:1 20453:1 
0 0.02512734382654555 1014:1 4586:1 6510:1 7003:1 7238:1 8613:1 10209:1 12237:1 15718:1 17698:1 17819:1 21311:1 21819:1 23311:1 23537:1 24191:1 
1 0 7917:1 19239:1 
0 0.03929541478798818 60:1 773:1 1677:1 2564:1 5420:1 6763:1 7075:1 7212:1 11167:1 11709:1 18353:1 18972:1 20077:1 20476:1 21068:1 
0.2118698338474689 0 963:1 1548:1 4925:1 5075:1 6930:1 7482:1 8219:1 9230:1 11393:1 15943:1 16004:1 21257:1 22180:1 23008:1 
0.4659447032165015 0.0006705000112057719 1975:1 2172:1 6445:1 7848:1 15474:1 15727:1 19045:1 19990:1 20898:1 
0 0.02130373616811972 60:1 1975:1 4247:1 4619:1 4840:1 7542:1 8219:1 8443:1 9659:1 13723:1 15716:1 22236:1 
1 0 607:1 3439:1 13836:1 14681:1 15675:1 
