svm_type c_svc
kernel_type linear
nr_class 3
total_sv 13890
rho -0.0647222 -0.9996 -0.999576
label 0 1 2
nr_sv 6586 6488 816
SV
0.8912377165377781 0 3627:1 6005:1 11305:1 12982:1 15110:1 15646:1 16283:1 18178:1 18905:1 23128:1 
1 0 1809:1 6009:1 
1 0 2192:1 3006:1 5526:1 6826:1 10114:1 
0.1573099647481091 0 574:1 5870:1 14534:1 15654:1 17621:1 19205:1 19996:1 20293:1 
0.1095715108882859 0 81:1 1207:1 4192:1 8227:1 8714:1 10289:1 11366:1 14690:1 15913:1 16815:1 
1 0.022134294772831 4789:1 14495:1 14938:1 16838:1 20871:1 21968:1 
0.9896217339339921 0 628:1 3264:1 7012:1 10228:1 10647:1 12937:1 17038:1 20258:1 22970:1 
0.4397822324837065 0 1489:1 17885:1 19287:1 19951:1 20991:1 
1 0 3006:1 
0.8529705282207849 0 1281:1 11675:1 18060:1 18215:1 
0.7059534048514408 0 2476:1 4053:1 5053:1 5388:1 8102:1 8478:1 9599:1 16759:1 16857:1 
0.5931920225568181 0 1423:1 9845:1 17043:1 21952:1 
0.3258317422280658 0 3207:1 7220:1 7376:1 16408:1 18321:1 19395:1 19526:1 22143:1 
0.2269253134118923 0 2242:1 5436:1 15913:1 16932:1 22628:1 
0 0.0008818329325345895 60:1 2175:1 2563:1 4640:1 5844:1 5955:1 6811:1 17983:1 18290:1 22900:1 
1 0 2663:1 5535:1 13780:1 22141:1 22292:1 23641:1 23800:1 
0.9029915362330948 0 7882:1 7919:1 19514:1 20147:1 
1 0 5257:1 6009:1 11330:1 16127:1 
0.137476580094128 0 2485:1 3521:1 3894:1 4006:1 4029:1 5324:1 8328:1 9899:1 10623:1 10674:1 11792:1 12054:1 13125:1 13731:1 17979:1 19587:1 20991:1 23117:1 
0.7908133224396446 0 3141:1 3376:1 6661:1 6894:1 8167:1 8496:1 15434:1 15935:1 16321:1 20485:1 20664:1 
0.2238151848009539 0 3435:1 8572:1 13362:1 15558:1 18462:1 
0.8615252834885573 0.1498824930187583 9552:1 17944:1 19003:1 
0.9088790554321989 0 43:1 8112:1 9634:1 10323:1 11575:1 16920:1 17242:1 19299:1 
0.6139777755705719 0 821:1 2242:1 2494:1 5669:1 10663:1 15913:1 17500:1 18533:1 18632:1 20338:1 23490:1 
0.2359799486763423 0.001860339202053896 2091:1 3642:1 10715:1 19538:1 19802:1 
0.08902079026991232 0.07223823809628534 618:1 3830:1 4200:1 6998:1 8596:1 8816:1 11122:1 12253:1 12436:1 13050:1 15248:1 17294:1 22544:1 24065:1 
0.4620547219345998 0.2418814992515737 1694:1 1766:1 3774:1 8873:1 9462:1 19957:1 20347:1 21864:1 
0.02091084140941399 0 1646:1 3887:1 4789:1 5324:1 6294:1 8901:1 12087:1 12665:1 20713:1 20933:1 
0.1159772729628266 0 4105:1 4176:1 6335:1 6625:1 6675:1 7684:1 7974:1 7994:1 9872:1 9955:1 10351:1 10925:1 11991:1 12601:1 13810:1 15387:1 16334:1 18246:1 
0.2052136807638706 0.0387358029249988 419:1 6260:1 6805:1 8940:1 14537:1 15277:1 18041:1 18533:1 18546:1 19929:1 22230:1 22903:1 23781:1 
0.8322306794961096 0 3814:1 5047:1 14274:1 15024:1 
0.8930973147537543 0 4989:1 15783:1 19205:1 20065:1 
0.6924601901381311 0.001527987854305793 863:1 8597:1 9157:1 19769:1 19990:1 23196:1 23265:1 
0.6996186160360455 0 7380:1 15516:1 16659:1 17256:1 
0.05483260755702406 0 2052:1 2640:1 6661:1 7907:1 13059:1 14175:1 18977:1 23080:1 
0.5593181317642225 0 485:1 2376:1 2854:1 6552:1 19205:1 
0.3731914870671542 0 14:1 43:1 308:1 1227:1 10674:1 12745:1 15689:1 15972:1 21881:1 
0.3311823022380176 0 2090:1 2753:1 6811:1 8448:1 10884:1 11917:1 16513:1 17702:1 17944:1 19427:1 
0.06860892056819773 0 574:1 4500:1 5631:1 8984:1 9354:1 15697:1 17181:1 20244:1 20749:1 22762:1 23881:1 
0.2351194031537486 0 10351:1 11287:1 14011:1 21750:1 22740:1 23972:1 
0.185051634015698 0 866:1 2192:1 4060:1 6925:1 8749:1 8905:1 10851:1 10915:1 11352:1 16759:1 20021:1 21503:1 21950:1 
0.3110508364625842 0 3866:1 16375:1 17124:1 17369:1 20049:1 20179:1 22254:1 
0.7144350541738755 0 1972:1 3808:1 4142:1 6791:1 7268:1 8102:1 20651:1 23636:1 
0.3217550660804648 0 2630:1 3595:1 5417:1 6039:1 10319:1 11267:1 12427:1 14145:1 18801:1 22373:1 
0.4091890992310417 0 22970:1 23151:1 23526:1 24181:1 
1 0 4359:1 19205:1 21658:1 24335:1 
0.2484341582185104 0 442:1 826:1 4640:1 6688:1 12283:1 15689:1 22625:1 
0.9373227986979858 0 4789:1 8700:1 11617:1 15913:1 24229:1 
0.01370874696109862 0 2447:1 3338:1 5417:1 6196:1 7492:1 8816:1 13419:1 15363:1 15913:1 17689:1 23709:1 24157:1 
1 0 16475:1 
0.6061799203323166 0 2661:1 4557:1 11203:1 12390:1 15471:1 18779:1 19205:1 
0.3296639695911527 0 4594:1 6784:1 12082:1 14653:1 15865:1 15963:1 19569:1 23445:1 
0 0.01288385302139269 268:1 1178:1 2080:1 2136:1 2702:1 6196:1 6432:1 6989:1 11880:1 12136:1 14375:1 16817:1 20152:1 23522:1 
0.329081001823466 0.01870287795472898 55:1 1035:1 1186:1 1853:1 4078:1 4975:1 7873:1 10623:1 19205:1 21777:1 23511:1 
1 0 5324:1 6766:1 9822:1 14173:1 17130:1 18179:1 19205:1 
0.2138949795992305 0 9322:1 10036:1 10777:1 16546:1 18748:1 21237:1 
0.1664146836383011 0 3858:1 4832:1 4975:1 5324:1 6333:1 14475:1 15913:1 16061:1 16293:1 18645:1 
0.9818401662209738 0 2249:1 3585:1 4375:1 8529:1 12427:1 19205:1 21860:1 
0.693129585764037 0 1178:1 2247:1 4653:1 11453:1 12102:1 12745:1 15273:1 18906:1 19222:1 19838:1 20745:1 21798:1 21801:1 22637:1 23249:1 
0.3057206025235359 0 5737:1 10479:1 14993:1 16162:1 16534:1 16715:1 17799:1 21325:1 21480:1 22033:1 22520:1 22760:1 
1 0 19205:1 20933:1 
0.2752301915622046 0 6555:1 10283:1 11244:1 16914:1 18041:1 18602:1 19295:1 23228:1 
0.6960432233124595 0 6623:1 8175:1 8812:1 14892:1 15895:1 17445:1 22452:1 
0 0.1767002263462851 3368:1 5887:1 8157:1 9022:1 11810:1 14127:1 19038:1 
1 0 2745:1 2813:1 5198:1 6196:1 11246:1 13731:1 14375:1 16150:1 18645:1 23710:1 
0.5039517082750804 0 1415:1 3044:1 4471:1 6176:1 6403:1 10823:1 12418:1 14493:1 20496:1 
0.09094897569064288 0 4390:1 16659:1 16751:1 21477:1 
1 0 4789:1 6791:1 17184:1 
0.1492383068022136 0 910:1 2254:1 6196:1 6731:1 7947:1 9303:1 9741:1 10093:1 13767:1 19484:1 20140:1 23850:1 
0.196305586868683 0 5324:1 6375:1 14468:1 20927:1 
0.3504839682023211 0 3948:1 4832:1 5047:1 5661:1 12559:1 14453:1 18297:1 21496:1 22017:1 
0.367572833400466 0 3579:1 5324:1 6260:1 6916:1 16759:1 18645:1 19786:1 22280:1 23274:1 
0.4259123532992576 0 2640:1 3043:1 4789:1 5324:1 5745:1 7117:1 7929:1 10751:1 11260:1 15737:1 16474:1 18295:1 18940:1 22373:1 23071:1 
0.9386825698991494 0 1973:1 2935:1 5005:1 5268:1 6989:1 10150:1 10228:1 10623:1 10993:1 14827:1 15174:1 15310:1 
1 0 2485:1 6766:1 8246:1 9348:1 10114:1 10744:1 13883:1 20742:1 22146:1 22461:1 
0.3039064249387918 0 4654:1 8319:1 10999:1 13175:1 15013:1 15059:1 15443:1 16206:1 17286:1 20636:1 21899:1 
0.4299368425523844 0 1222:1 4480:1 4604:1 5021:1 5198:1 6766:1 8739:1 10114:1 12460:1 13888:1 14245:1 18078:1 19211:1 20933:1 21064:1 22303:1 22663:1 22754:1 
0.5999755601487078 0 1191:1 1697:1 8597:1 12745:1 12786:1 18076:1 
0.3256549351628885 0 8331:1 12706:1 12928:1 13355:1 14091:1 15534:1 21513:1 
0.5638190379283656 0 225:1 2249:1 5161:1 6137:1 14277:1 21806:1 22270:1 22657:1 
0.8563336425140556 0 2663:1 3785:1 6154:1 15246:1 17629:1 21008:1 
0.7314726396076653 0 2099:1 2193:1 8099:1 15435:1 17783:1 19049:1 19205:1 20623:1 21510:1 
0.3167655381719684 0.01156215145338851 3261:1 7827:1 8616:1 11962:1 14328:1 15689:1 16901:1 22573:1 
0.5959048457023645 0 3535:1 16659:1 17196:1 18602:1 
0.0358895829137169 0 4557:1 5324:1 15428:1 19962:1 23216:1 
0.3351681998998425 0 1314:1 9970:1 16655:1 18042:1 19205:1 21987:1 
0.2720959573270808 0 212:1 3999:1 5629:1 9659:1 12997:1 13090:1 15323:1 15913:1 21258:1 
0.4734090751129161 0 2249:1 3833:1 10683:1 12427:1 12674:1 18645:1 20603:1 21114:1 23578:1 
0.5847870308606475 0 912:1 1191:1 1259:1 4789:1 8201:1 9355:1 10831:1 14524:1 17528:1 18771:1 19050:1 
0 0.001174027836113092 120:1 2693:1 4772:1 9136:1 10927:1 12407:1 13537:1 15025:1 15349:1 20337:1 21266:1 23324:1 
0 0.003456608624785367 11:1 43:1 370:1 444:1 3702:1 3852:1 8043:1 9765:1 11667:1 12496:1 14032:1 14819:1 17578:1 18082:1 18719:1 19929:1 21570:1 
0.2285097705193409 0 2376:1 6260:1 7962:1 9180:1 10281:1 15802:1 21518:1 23759:1 
0.8371316818489714 0 1191:1 5654:1 6196:1 15443:1 18503:1 18771:1 20973:1 
0.4568835250962016 0 370:1 1191:1 6749:1 8303:1 12689:1 13811:1 16849:1 21314:1 21995:1 22511:1 23159:1 
1 0.127481265482336 6405:1 15315:1 
0 0.02689571584019011 1054:1 2032:1 4113:1 12676:1 16213:1 16832:1 18131:1 22419:1 24235:1 
0.7409773690293162 0 2400:1 2431:1 6989:1 7070:1 7444:1 8080:1 9851:1 11245:1 17589:1 
0.2037301365302923 0 2869:1 5412:1 5535:1 6423:1 15913:1 16956:1 23647:1 
0.2342748421895455 0 8167:1 9157:1 15366:1 19205:1 21807:1 22524:1 23940:1 
0.2887090500460953 0 1012:1 5246:1 8877:1 9200:1 9975:1 13102:1 15839:1 15913:1 16881:1 17056:1 18602:1 18984:1 23056:1 
0.02035635923214189 0 1325:1 1423:1 3722:1 4527:1 6375:1 8379:1 9636:1 16098:1 17583:1 18798:1 19131:1 
0.39655947988048 0 11583:1 21797:1 23423:1 
0.08538304579232114 0 764:1 3953:1 5198:1 5311:1 5324:1 6393:1 8529:1 14288:1 18093:1 21896:1 23445:1 
0.5408515911340555 0 848:1 2787:1 6840:1 8506:1 14032:1 15443:1 15519:1 18215:1 19287:1 20095:1 22659:1 23649:1 23811:1 
1 0 4832:1 12315:1 13212:1 23763:1 
0 0.007034066286412374 1751:1 12483:1 14828:1 16374:1 16475:1 21392:1 22279:1 23428:1 
0.1468332508636476 0 1207:1 9945:1 10190:1 10679:1 15059:1 16302:1 20751:1 20766:1 21896:1 22336:1 22420:1 23291:1 
0.06756233132087267 0 2388:1 6009:1 8746:1 12315:1 18602:1 21910:1 21956:1 
0.03722302032297933 0 4446:1 13634:1 14447:1 15015:1 15223:1 16744:1 
0.05956969501652105 0 5324:1 5535:1 6254:1 6260:1 6784:1 10939:1 11955:1 14653:1 21658:1 
0.9185927286638172 0 12745:1 13480:1 18221:1 
0.2282415801459164 0 782:1 8546:1 12688:1 17085:1 
0.07875865142728199 0 5024:1 5368:1 8873:1 14032:1 14375:1 14822:1 15780:1 17331:1 
1 0 764:1 3072:1 3850:1 6447:1 9544:1 11464:1 15315:1 15913:1 17817:1 17945:1 18446:1 
1 0 1423:1 10114:1 16181:1 
1 0 6989:1 19205:1 
0.2469588050046058 0 370:1 6645:1 6925:1 10146:1 12205:1 13328:1 15913:1 16701:1 18041:1 22480:1 23590:1 
0.01668041274166949 0 918:1 5324:1 7713:1 10995:1 21567:1 
1 0 1588:1 2559:1 5047:1 
0.1136823774786254 0 83:1 1593:1 3582:1 9189:1 12745:1 15499:1 18881:1 22482:1 23003:1 23416:1 
1 0 2447:1 6260:1 10661:1 14653:1 17299:1 20452:1 
1 0 3185:1 10053:1 15913:1 21607:1 23697:1 
0.1985233279472739 0.06236671265962108 1139:1 4625:1 9865:1 10114:1 12674:1 15437:1 18041:1 18838:1 22302:1 
0.2370496789637362 0.0383638635128114 4359:1 7819:1 10100:1 17199:1 20357:1 21783:1 22017:1 
0.9310362386444817 0 446:1 14375:1 
1 0 6375:1 8235:1 10214:1 15913:1 17621:1 18061:1 
0.2564185306211614 0 2991:1 8295:1 12597:1 14375:1 18571:1 19004:1 21675:1 23006:1 24331:1 
0.4501003728523638 0 1631:1 1903:1 8272:1 9505:1 11673:1 12059:1 16375:1 17792:1 19022:1 20318:1 23229:1 23511:1 24228:1 
0.612232486905035 0 2694:1 5594:1 9509:1 13659:1 19205:1 20042:1 20602:1 
0.5609259851340095 0 10114:1 12745:1 21695:1 21818:1 
0.4950748251239945 0 173:1 826:1 1156:1 1872:1 3385:1 4276:1 5613:1 9328:1 11444:1 18433:1 
0.1537323639035864 0 2005:1 4258:1 5574:1 10367:1 12112:1 13080:1 13277:1 14653:1 20942:1 21392:1 23151:1 
0.2328520506582961 0 1631:1 4280:1 4692:1 5921:1 6159:1 8938:1 16208:1 18405:1 18645:1 20185:1 
0.5245153474311541 0 11:1 2661:1 3164:1 4100:1 8615:1 14611:1 
0.6458960112188741 0 1200:1 4167:1 8016:1 10100:1 15586:1 19427:1 
1 0.01043400209303834 5285:1 14031:1 14918:1 20900:1 
0.02827983596018422 0 2242:1 3875:1 7259:1 13105:1 14653:1 
0.3561033005854703 0 4186:1 6579:1 7457:1 12542:1 15874:1 17368:1 18076:1 18478:1 20527:1 21749:1 
0.2353082993125976 0.04584030878492409 3290:1 5797:1 8890:1 11530:1 17578:1 
0.1760186911027006 0 283:1 370:1 1451:1 3431:1 3915:1 10064:1 11133:1 15495:1 16354:1 18261:1 18498:1 18503:1 19399:1 20090:1 22821:1 23444:1 24129:1 
0 0.0278963795814443 1587:1 5667:1 7551:1 7885:1 10623:1 12054:1 22348:1 23467:1 
0.7910358036962133 0 13561:1 15083:1 15913:1 18341:1 18356:1 18455:1 
0.4518168222818177 0 2431:1 2478:1 11245:1 13844:1 16293:1 19863:1 22775:1 23237:1 
0.08688665162044237 0 1318:1 1319:1 2402:1 2810:1 2900:1 3646:1 8078:1 8901:1 12745:1 14468:1 17944:1 18277:1 
1 0 7224:1 13249:1 13434:1 
1 0.03180545868520101 2549:1 4629:1 9659:1 13850:1 14819:1 20547:1 
1 0 18645:1 
0.5677136256153831 0 1156:1 15248:1 19205:1 20253:1 22543:1 
0.05768254014263229 0 3850:1 5877:1 6766:1 11512:1 13451:1 15284:1 15913:1 22657:1 
1 0 5035:1 13671:1 17864:1 20990:1 
0.596632276473047 0 255:1 1580:1 3894:1 6196:1 7894:1 14489:1 15218:1 20990:1 
0.2450324505578299 0 480:1 3244:1 3957:1 9572:1 9881:1 10008:1 10773:1 11330:1 11908:1 14050:1 14453:1 16080:1 20095:1 20902:1 21392:1 22249:1 22334:1 
1 0 10608:1 17256:1 21414:1 
0.2358061622337344 0 1630:1 3264:1 6765:1 7904:1 10931:1 11785:1 13513:1 14990:1 15209:1 16894:1 19205:1 23749:1 
0.5663355523221333 0 1762:1 2376:1 4900:1 9081:1 9727:1 10949:1 14976:1 15271:1 22881:1 
1 0 6423:1 8493:1 19205:1 21306:1 21749:1 
0.08728034868376044 0 1026:1 1909:1 3754:1 4898:1 5065:1 6874:1 7339:1 10114:1 16283:1 20115:1 23071:1 
0.4541399712783455 0 706:1 7619:1 8857:1 16545:1 17671:1 18215:1 20323:1 20681:1 
0.1257284061821032 0 216:1 4969:1 6308:1 13270:1 19205:1 22736:1 
0 0.1873028397320068 60:1 918:1 7088:1 23658:1 
0.3179314053106145 0.3435922317285626 381:1 682:1 10114:1 14260:1 23766:1 
0.1269107720257177 0.060506559976131 1231:1 2361:1 6852:1 7743:1 7791:1 9904:1 10663:1 10715:1 12816:1 13801:1 20070:1 23242:1 
0.8350731101126778 0 9104:1 14245:1 18750:1 20021:1 
0.9246022598995366 0 654:1 2063:1 7382:1 8018:1 9359:1 19953:1 23846:1 
0.1577445578301379 0 60:1 1139:1 3568:1 4830:1 12890:1 18357:1 21530:1 21806:1 21864:1 
0.6830011608966381 0 2559:1 6383:1 16815:1 17261:1 17672:1 17926:1 18988:1 20127:1 
0.4923878818012241 0 4445:1 5438:1 11281:1 14091:1 17829:1 18926:1 
1 0.001763383627120514 6344:1 10316:1 11788:1 16061:1 18357:1 
0 0.01715381782436827 1156:1 1207:1 2047:1 10631:1 19356:1 19951:1 
0.09151019505262101 0 4568:1 5289:1 6210:1 7075:1 8324:1 8728:1 10280:1 11498:1 14453:1 15913:1 19103:1 19107:1 20140:1 23508:1 
0.3121441304856017 0 4153:1 4167:1 12426:1 13853:1 14187:1 18215:1 20167:1 22543:1 
0.4074270048008501 0 1210:1 2912:1 4418:1 5715:1 7382:1 7885:1 10801:1 12985:1 15102:1 17173:1 17427:1 22598:1 
0.2178828863103381 0 60:1 5327:1 7426:1 8047:1 15913:1 16181:1 19495:1 
1 0 7468:1 10999:1 15622:1 23986:1 
0.2654924373075635 0 1191:1 2113:1 15901:1 20674:1 20923:1 
1 0 4137:1 6294:1 6375:1 7577:1 16659:1 18719:1 19205:1 20506:1 20623:1 23569:1 23766:1 
0.6385498683634888 0 372:1 3638:1 15913:1 16597:1 19935:1 21008:1 24146:1 
0.003661527697557966 0 279:1 6749:1 8952:1 15804:1 17441:1 22229:1 
0.5446149268246122 0 1191:1 2798:1 3640:1 4850:1 6932:1 9776:1 9970:1 10994:1 15311:1 16908:1 17554:1 
1 0 2484:1 6784:1 8171:1 15913:1 21939:1 24335:1 
1 0.01836895043907483 1873:1 1954:1 14110:1 
0.04321366228307548 0 56:1 773:1 5737:1 14596:1 14918:1 16299:1 
0.2792736359921659 0 63:1 3371:1 5382:1 9838:1 12745:1 13069:1 13375:1 13622:1 13717:1 18648:1 
1 0 4789:1 22864:1 
1 0 44:1 11978:1 15315:1 15516:1 17490:1 18645:1 21952:1 
0 0.01748028754144994 628:1 2376:1 4688:1 6451:1 7460:1 8475:1 19580:1 24190:1 
0.3798643917552413 0.01094085385104136 37:1 5728:1 9688:1 14004:1 14941:1 15008:1 15310:1 18686:1 19205:1 21600:1 24049:1 
1 0 2707:1 6094:1 6260:1 6661:1 8167:1 13383:1 18330:1 18801:1 23071:1 
0.6590182191683567 0.05177983329898167 53:1 4359:1 7194:1 11464:1 12112:1 13080:1 14556:1 16605:1 21274:1 22100:1 23416:1 23880:1 
0.9963357005252907 0 4560:1 6199:1 6780:1 7355:1 11292:1 12294:1 14949:1 15989:1 17708:1 19248:1 22528:1 
0.04301344993867498 0.04555284669526465 1423:1 6196:1 6655:1 10364:1 12309:1 16370:1 21292:1 
0.3284800391065014 0 1017:1 7467:1 8506:1 15917:1 19205:1 21623:1 
0 0.01623212174929413 826:1 3043:1 12445:1 13975:1 14187:1 15077:1 22953:1 
0 0.002841641779153953 4207:1 4988:1 6336:1 7664:1 8444:1 10114:1 11669:1 12215:1 15469:1 17806:1 20788:1 21544:1 21895:1 23986:1 24352:1 
1 0.05846144178937628 6688:1 9189:1 17020:1 24213:1 
0.2965459206564401 0 7302:1 8449:1 12578:1 15443:1 18967:1 20021:1 20167:1 21749:1 22209:1 22488:1 
0.1559858076231911 0 3552:1 8370:1 11860:1 15311:1 15913:1 18215:1 21807:1 23272:1 
0.1955025613068085 0 3436:1 10228:1 13993:1 19046:1 19205:1 
0.1476030109138404 0 14204:1 14828:1 19951:1 
1 0 1192:1 4572:1 16980:1 18017:1 20372:1 
1 0 225:1 5176:1 7880:1 23183:1 
1 0 5324:1 5556:1 6260:1 6319:1 11245:1 13826:1 14453:1 16624:1 16920:1 17465:1 19427:1 
0.4223558714978023 0 1346:1 7818:1 9391:1 14215:1 14873:1 15913:1 22422:1 
1 0 4480:1 5532:1 15689:1 16902:1 19205:1 19701:1 20377:1 
1 0 2663:1 14447:1 
0.1496679860791709 0 48:1 156:1 3303:1 4333:1 7669:1 8828:1 13871:1 16694:1 17578:1 18602:1 21115:1 21198:1 21910:1 23822:1 
0 0.01749250539592488 3006:1 3264:1 11003:1 11415:1 12112:1 14578:1 20296:1 22229:1 23728:1 24102:1 
0.03795087767745199 0 156:1 370:1 3493:1 8684:1 10281:1 10973:1 11407:1 12864:1 14411:1 17408:1 
0.2435784860448999 0 1580:1 3556:1 3635:1 6277:1 6852:1 8867:1 9642:1 20095:1 24025:1 
1 0.006119045781892728 1156:1 10323:1 11970:1 13121:1 19858:1 
0 0.0001904828417254223 370:1 2920:1 11498:1 14800:1 15474:1 15516:1 16751:1 16997:1 20900:1 
0.6799413257274441 0 266:1 7851:1 8426:1 10629:1 13550:1 14822:1 15090:1 16693:1 17423:1 17621:1 19360:1 20717:1 24293:1 
0.08559541577281515 0 3043:1 7567:1 14075:1 19216:1 20019:1 20045:1 21086:1 21229:1 
0.1234066089350455 0 11331:1 18645:1 
1 0.02969570296068531 1985:1 8869:1 14642:1 
0.6502203484279618 0 1191:1 3793:1 9971:1 
0.153325332377595 0 469:1 1156:1 6260:1 8326:1 8983:1 10922:1 12426:1 12941:1 14598:1 15913:1 18602:1 20871:1 22264:1 
0.4987574148387628 0 7532:1 12148:1 20021:1 22625:1 
0.1190621104642005 0 417:1 1191:1 2559:1 3702:1 3866:1 4888:1 10586:1 16061:1 16639:1 18760:1 20728:1 22635:1 
1 0.08859103362971928 912:1 2559:1 10346:1 17600:1 
0.6234514845127931 0 60:1 654:1 1438:1 3363:1 3517:1 3806:1 5775:1 7607:1 9536:1 9828:1 15913:1 16980:1 20152:1 22078:1 23364:1 
0.5148738143509479 0 16932:1 19364:1 20460:1 
1 0 2918:1 15189:1 19146:1 
1 0 14155:1 19205:1 20635:1 
0.1857114044424821 0 1742:1 2142:1 5381:1 8713:1 9189:1 13384:1 16651:1 16780:1 
0.3930865408362048 0 244:1 2431:1 8865:1 11047:1 12527:1 12963:1 13249:1 14053:1 15913:1 18602:1 19205:1 19489:1 22392:1 
0.1946663702296137 0 9587:1 9765:1 18083:1 21993:1 22696:1 
0.5638178845950185 0 1848:1 3006:1 3371:1 5305:1 8511:1 10663:1 12907:1 18338:1 18632:1 20635:1 21598:1 22526:1 
0.08650208451707654 0 1640:1 9094:1 18317:1 
1 0.2386425156720297 961:1 8529:1 12839:1 
1 0 10661:1 
0.5590851103770882 0 3806:1 4471:1 5805:1 11865:1 15689:1 16173:1 19403:1 21577:1 
0.03418090377438877 0 6991:1 12199:1 13144:1 13384:1 14312:1 14776:1 18645:1 
0.5875129131607736 0 3006:1 9587:1 18352:1 
0.3459508181057593 0 1241:1 1742:1 2606:1 5737:1 6682:1 7727:1 13250:1 13985:1 19196:1 24044:1 
0.3926143395110643 0 250:1 15913:1 16178:1 18938:1 21503:1 23730:1 
0.2188329995926084 0 1156:1 4348:1 11214:1 11963:1 12491:1 16606:1 17080:1 23438:1 
1 0 2249:1 15689:1 15913:1 16483:1 23491:1 
0.5688141289724862 0 1156:1 2787:1 3481:1 4610:1 6791:1 9904:1 15913:1 17244:1 
1 0 1259:1 2431:1 2485:1 4629:1 9065:1 10424:1 18602:1 19872:1 21910:1 23050:1 
0.2475543405962128 0 5778:1 7899:1 9577:1 12597:1 
0.5770414596959079 0 8877:1 9622:1 11049:1 11493:1 15913:1 17480:1 21889:1 
0.2533939963340563 0 3493:1 15593:1 22668:1 
0.6490343345044089 0 120:1 2693:1 12407:1 19205:1 21456:1 23938:1 
0.2987013397625345 0 5540:1 5981:1 8865:1 9296:1 14453:1 16178:1 16673:1 
0.4967585049746751 0.007273290902540633 1207:1 2484:1 3850:1 10834:1 14941:1 15094:1 16473:1 23195:1 
1 0.2592607241274329 3659:1 5427:1 6035:1 9765:1 23766:1 
0 0.04396380128628596 3886:1 5137:1 6489:1 7235:1 13270:1 13276:1 14315:1 14328:1 16162:1 20933:1 
1 0 120:1 6331:1 6393:1 19205:1 
1 0 1478:1 7269:1 13754:1 14410:1 14653:1 18185:1 21371:1 23618:1 
0.426633034102598 0 937:1 3042:1 5324:1 5870:1 15913:1 18251:1 18801:1 18807:1 22546:1 
0.2835977616421381 0 710:1 2587:1 3689:1 4271:1 6749:1 6930:1 8152:1 10114:1 10623:1 10664:1 11795:1 11902:1 14464:1 18685:1 20807:1 21398:1 
0.1846169518310087 0 3044:1 3550:1 4276:1 6014:1 6361:1 7732:1 10307:1 12371:1 13811:1 14005:1 15930:1 16777:1 18912:1 20536:1 21484:1 22740:1 23270:1 
0.8316857391232676 0 2854:1 4186:1 6387:1 12524:1 14151:1 15626:1 18948:1 
0.8272815960748603 0 3364:1 4610:1 8241:1 9094:1 10521:1 14159:1 19634:1 
0.7137026629508997 0 2707:1 5412:1 12065:1 15093:1 15913:1 20749:1 21306:1 
0.7294358928270301 0 4852:1 10414:1 13746:1 21536:1 
0.01505748555465132 0 4065:1 5132:1 7131:1 7771:1 14976:1 15059:1 15913:1 16517:1 21750:1 22389:1 22740:1 
0.316806158948622 0 1082:1 2753:1 3568:1 4832:1 4882:1 5065:1 9200:1 12215:1 14129:1 15366:1 
1 0 3638:1 9543:1 13731:1 14173:1 14187:1 18321:1 18645:1 20622:1 
0.3557859545412747 0 2636:1 4501:1 6196:1 7402:1 8015:1 10405:1 12751:1 15161:1 16374:1 17242:1 18817:1 23725:1 
0.7872561643655386 0 2919:1 3006:1 5324:1 9860:1 11245:1 17127:1 18602:1 21271:1 
0.159435856481262 0 2367:1 2658:1 5066:1 6447:1 6870:1 7532:1 9838:1 11860:1 15086:1 19175:1 
0.9831479885437919 0 2431:1 3364:1 5324:1 8171:1 12997:1 14063:1 16018:1 17294:1 17454:1 20742:1 
0.5922487375538257 0 359:1 2447:1 7885:1 10085:1 10171:1 11246:1 11292:1 23071:1 23546:1 
0.2442119906324694 0 2419:1 3043:1 3192:1 3579:1 5034:1 6989:1 7915:1 8166:1 16849:1 18399:1 22146:1 
0 0.08709284161428317 1368:1 8610:1 13249:1 14293:1 14929:1 16049:1 16641:1 17256:1 18602:1 18645:1 
0.5521196155396446 0 5021:1 11355:1 11762:1 
0.5415914030073983 0 2444:1 3371:1 8956:1 8966:1 10674:1 11587:1 15756:1 16409:1 19205:1 19322:1 21749:1 
1 0 120:1 1156:1 6261:1 6791:1 14375:1 15688:1 16080:1 20095:1 21426:1 22419:1 
0.1872819085249844 0 1412:1 1674:1 9975:1 9996:1 11268:1 12112:1 17877:1 18817:1 19205:1 20990:1 21750:1 
0.2114803931564691 0 1192:1 3556:1 11347:1 14447:1 20866:1 22373:1 24156:1 
0.163531262024779 0 7382:1 14245:1 14338:1 15687:1 15913:1 21385:1 24337:1 
0.8909681997558655 0 4281:1 5065:1 8197:1 9386:1 13969:1 14110:1 17621:1 18196:1 23071:1 
0.3247013549687074 0 211:1 628:1 2689:1 5065:1 8307:1 10573:1 11602:1 14091:1 15913:1 17173:1 17840:1 19205:1 21956:1 22254:1 22736:1 
0.1454287805544712 0.08119218741287083 2136:1 3494:1 6196:1 7220:1 7412:1 13212:1 17394:1 17991:1 23699:1 
0.9434333115320549 0 3273:1 3364:1 13250:1 13434:1 22436:1 
1 0 10114:1 10994:1 21685:1 
0.3582608614178273 0 1156:1 1191:1 17454:1 19205:1 19427:1 20049:1 20527:1 
0.4918036734160099 0 1519:1 2843:1 2918:1 3382:1 4647:1 5945:1 6196:1 14653:1 20244:1 20428:1 23910:1 
0.4745866600805504 0 83:1 1207:1 2797:1 3500:1 4557:1 7467:1 13126:1 14822:1 15202:1 15913:1 18602:1 
0.3957338109913121 0 3894:1 6090:1 11001:1 16001:1 16744:1 
0.9514247221802949 0 3582:1 5269:1 6213:1 6925:1 8373:1 9960:1 14126:1 18602:1 18676:1 
0.1141481452224011 0 4069:1 4568:1 4693:1 7506:1 7801:1 10530:1 13856:1 14949:1 17678:1 19103:1 19205:1 19804:1 
0.7950993160696563 0 5526:1 10228:1 11675:1 11833:1 20797:1 23622:1 
0.2224753024135688 0.02146921212069075 3550:1 11994:1 15259:1 16503:1 18964:1 
0.5015125855046063 0 2831:1 6766:1 10661:1 12986:1 13720:1 21432:1 
1 0 6989:1 9096:1 19205:1 
0.6816550496541878 0 1443:1 6602:1 9478:1 10066:1 14173:1 15516:1 16539:1 16639:1 17913:1 19555:1 21325:1 
1 0 2280:1 
1 0 894:1 1017:1 9514:1 9537:1 10507:1 13577:1 
1 0 9484:1 
0.4187065899153266 0 9974:1 12995:1 18645:1 20127:1 
0.5810264844361083 0 3052:1 3493:1 3623:1 12953:1 20585:1 20905:1 
1 0 19205:1 22229:1 
1 0 12452:1 15625:1 16080:1 23689:1 
1 0.1251409905506961 3072:1 6998:1 12705:1 21867:1 
0.2275530209549597 0 1954:1 2911:1 7069:1 9961:1 15579:1 17740:1 
0.4152127955136775 0 974:1 1191:1 1821:1 15689:1 17159:1 17490:1 18806:1 20325:1 20724:1 
0.1050937551288032 0 6791:1 10671:1 20095:1 22090:1 22761:1 23058:1 
0.2165510647212536 0 378:1 1196:1 1259:1 3129:1 3535:1 5101:1 14907:1 15913:1 17414:1 23811:1 
0.8373437972106673 0 8022:1 9993:1 10507:1 15731:1 16103:1 23089:1 
0.4753540932176683 0.02183625096820106 950:1 7635:1 7677:1 9416:1 
0.4505937353530958 0.001928289196899695 1368:1 6447:1 7551:1 9177:1 12745:1 14929:1 18898:1 22152:1 
1 0 4969:1 17706:1 19634:1 20742:1 21620:1 23071:1 23891:1 
1 0.04649335123461895 1993:1 4832:1 5669:1 6158:1 7507:1 22928:1 
0.249552969166378 0 1650:1 8697:1 9724:1 9765:1 12812:1 20293:1 
0.08797530003994199 0 60:1 2563:1 3638:1 3806:1 3962:1 4464:1 5476:1 5540:1 13745:1 18215:1 18290:1 24249:1 
0.5266107141924598 0 2168:1 3261:1 4783:1 6791:1 13893:1 16221:1 17454:1 19848:1 20095:1 21016:1 
0.4402683649359141 0 2108:1 3371:1 3450:1 4043:1 5565:1 10332:1 11965:1 13419:1 18414:1 18435:1 18948:1 21119:1 21608:1 22630:1 23245:1 23324:1 23338:1 
1 0 3850:1 14293:1 15913:1 
0.894082797068128 0 11243:1 20162:1 
0 0.02788871725709742 5340:1 7017:1 7759:1 13693:1 13709:1 14004:1 15025:1 15315:1 15913:1 21806:1 
0.2126073675431286 0 5975:1 8315:1 14137:1 15167:1 15689:1 17926:1 21111:1 21314:1 21414:1 24145:1 
0.8404539510502962 0 1191:1 9986:1 15901:1 
0.2167173795441502 0 3582:1 4802:1 8246:1 13919:1 14459:1 15499:1 15512:1 18926:1 21153:1 
0.7372314406444309 0 1650:1 4990:1 6260:1 10307:1 12237:1 15024:1 16178:1 16275:1 16375:1 21750:1 22223:1 22681:1 
0.4589474412040305 0 2204:1 4850:1 5324:1 8835:1 10896:1 16902:1 21029:1 
0.3153284335018324 0 1191:1 6758:1 18715:1 18898:1 
0.06172029532959481 0 6375:1 6997:1 7818:1 8607:1 18029:1 
0.5024330219006807 0 672:1 8440:1 8530:1 9097:1 24146:1 
0.06022685609263921 0 2506:1 5079:1 5387:1 8587:1 10503:1 10681:1 17580:1 18274:1 22373:1 
0.5350184036228952 0 2636:1 5805:1 12294:1 12773:1 
0.1260103066333867 0 9161:1 9939:1 10596:1 12315:1 13793:1 15913:1 16539:1 17119:1 19205:1 23142:1 
1 0 8511:1 10414:1 18948:1 
0.1388814141598299 0 2179:1 5066:1 8639:1 8791:1 14524:1 15901:1 15972:1 21881:1 22953:1 
0.1137408345920017 0 1640:1 2598:1 2624:1 6550:1 6772:1 7426:1 8464:1 9116:1 13440:1 14447:1 15457:1 22543:1 23320:1 
0.07391727432965532 0.01673030474986614 1549:1 2278:1 7236:1 7669:1 9506:1 15731:1 17130:1 18753:1 23658:1 
0.1069114116989799 0 4499:1 8193:1 8382:1 9067:1 9617:1 11734:1 12037:1 17909:1 19567:1 22392:1 24182:1 
0.5305377159808713 0 419:1 1630:1 5040:1 8526:1 15443:1 16654:1 20127:1 
0.9348589410367635 0 1178:1 11902:1 15311:1 15913:1 17237:1 18551:1 
0.5294591577791689 0.02169680271530853 665:1 6287:1 6920:1 8114:1 11922:1 14627:1 17289:1 17348:1 
0.1741720013774859 0 4056:1 5117:1 8475:1 14489:1 17957:1 20633:1 24151:1 
0.3097603180686259 0 10294:1 20428:1 
0.3028169414362534 0 225:1 3852:1 4121:1 6791:1 9696:1 11292:1 12694:1 13250:1 17202:1 
0.1039517487886387 0.04021908163247297 1433:1 1562:1 1729:1 2166:1 4753:1 5491:1 14468:1 14799:1 15901:1 18321:1 23080:1 23290:1 
0.7746582020332224 0 4702:1 10045:1 20019:1 20212:1 21806:1 
0.2182700520197045 0 1924:1 2151:1 7568:1 9505:1 10240:1 15085:1 15646:1 16436:1 22279:1 
0.3689267539882976 0 482:1 1412:1 11624:1 14676:1 15438:1 18022:1 22755:1 23511:1 
0.3367167776157112 0.02383926056403519 722:1 1419:1 6260:1 13743:1 15065:1 15310:1 18965:1 22711:1 22771:1 23463:1 
0.5136535990636918 0 2693:1 5412:1 9816:1 9986:1 19003:1 
0.7746576763464595 0 1210:1 7532:1 19205:1 19474:1 20021:1 21248:1 
0.4327715382880609 0 1156:1 2376:1 4830:1 12112:1 13797:1 13818:1 14895:1 15913:1 19578:1 20172:1 
0.6018039816947056 0.06295236631210835 3101:1 6900:1 9053:1 16178:1 
0.07872389278968946 0 4663:1 5894:1 9124:1 11323:1 12408:1 13433:1 14653:1 15799:1 20585:1 23425:1 
0.3375202851843886 0 1227:1 1319:1 3044:1 5528:1 8863:1 10307:1 15655:1 19229:1 19486:1 22914:1 23574:1 
0.02000004605556592 0 109:1 2063:1 6251:1 6859:1 15298:1 15310:1 18290:1 21414:1 
0.1233138082932647 0 2113:1 5526:1 5540:1 7379:1 9776:1 11245:1 15913:1 17752:1 19552:1 20749:1 
0.2663247658437551 0 989:1 5053:1 5215:1 8987:1 9516:1 15168:1 24335:1 
0.4484004496594987 0 5268:1 5661:1 10085:1 15460:1 16623:1 16668:1 18668:1 19934:1 21319:1 21606:1 23071:1 23522:1 
0.1947568323507565 0 3579:1 8901:1 8912:1 10089:1 10190:1 13811:1 14484:1 15075:1 16404:1 17901:1 23836:1 
0.1741445192054507 0.1343132575824002 1156:1 7034:1 13901:1 16765:1 
1 0 988:1 1207:1 2169:1 2478:1 8805:1 8831:1 8877:1 9945:1 18600:1 18771:1 24344:1 
0.5901577754457481 0 488:1 2707:1 3006:1 9544:1 15913:1 18926:1 19529:1 
1 0 1191:1 9986:1 12991:1 18898:1 
0.02802037261347086 0 4134:1 5628:1 10319:1 10548:1 11772:1 15471:1 15913:1 16475:1 20253:1 21967:1 
0.02191907711622371 0 2984:1 3270:1 3926:1 9595:1 11255:1 11772:1 12299:1 16080:1 16759:1 16827:1 
0.325461690127723 0 11:1 1156:1 8328:1 11794:1 23763:1 
0.08210542827906449 0 1156:1 1599:1 5369:1 12410:1 15192:1 15963:1 18261:1 18651:1 23120:1 
0 0.08483848935308611 2286:1 2478:1 6932:1 7839:1 9964:1 10171:1 13844:1 16763:1 17402:1 20609:1 20990:1 21205:1 
0.3401098642757651 0 339:1 3051:1 4807:1 5065:1 
1 0.163678301636942 9441:1 15433:1 
1 0.4511942671267103 7402:1 12284:1 17550:1 18429:1 20147:1 24293:1 
1 0 5526:1 6375:1 18645:1 20590:1 
0.5900795662589436 0 3267:1 11080:1 11483:1 13077:1 
0.07391653830323601 0 5528:1 6204:1 7974:1 8956:1 10464:1 16312:1 17260:1 17943:1 19205:1 21542:1 23220:1 23322:1 24074:1 
1 0 60:1 3582:1 4629:1 4716:1 5324:1 6094:1 6894:1 11561:1 12315:1 14110:1 
0.8289449629951255 0 1649:1 2640:1 5412:1 6087:1 6260:1 12082:1 15689:1 15913:1 18286:1 
0.8349896830595575 0.02155526172217116 5065:1 9599:1 10047:1 11259:1 15803:1 16181:1 17639:1 21908:1 24157:1 
1 0 1156:1 8328:1 8639:1 14110:1 24267:1 
0.1788931801845942 0 359:1 2485:1 5942:1 7637:1 12864:1 16080:1 16870:1 17080:1 18533:1 20021:1 22373:1 
0.8351539039184432 0 1156:1 1341:1 2467:1 2684:1 2694:1 8328:1 17457:1 
0.3496161274423214 0 3371:1 3668:1 6870:1 9097:1 15901:1 15913:1 21008:1 
0.7581023948236727 0 2146:1 3031:1 3806:1 8850:1 15477:1 18602:1 18987:1 21910:1 23492:1 
0.4678390352293904 0 2194:1 5629:1 17600:1 17636:1 19287:1 
0.01304753590124681 0.05597738565180031 2136:1 2488:1 3321:1 3486:1 6178:1 7725:1 8901:1 10516:1 11417:1 13464:1 17232:1 17835:1 17872:1 19982:1 22392:1 
1 0 346:1 3006:1 14447:1 17269:1 19205:1 20919:1 
0.7121285495321391 0 6094:1 6294:1 7945:1 9402:1 12825:1 17933:1 18602:1 23754:1 
0.7190205221691058 0 4789:1 9094:1 10283:1 12253:1 12745:1 18942:1 19205:1 24335:1 
1 0 15284:1 18645:1 20293:1 
0.2352587663254991 0 134:1 614:1 2272:1 6260:1 7771:1 11323:1 12524:1 15514:1 15913:1 17370:1 17414:1 21783:1 24133:1 
0.4545335932292702 0 173:1 5065:1 9896:1 12112:1 13871:1 14345:1 16997:1 20672:1 22743:1 
1 0.002423809951177778 7399:1 8639:1 17944:1 18602:1 20079:1 21398:1 
0.5925646927175467 0 14075:1 15913:1 19587:1 23893:1 
1 0 1191:1 3488:1 6925:1 12938:1 15901:1 17600:1 17944:1 19205:1 
0 0.01727078275220851 1178:1 6885:1 6989:1 14653:1 14918:1 16362:1 17131:1 
0.443110097518674 0 3866:1 9786:1 13176:1 16291:1 19323:1 21559:1 22840:1 
0.2367305916045421 0 6593:1 6926:1 7518:1 9200:1 9435:1 10679:1 10758:1 10955:1 11886:1 15231:1 18446:1 18984:1 21598:1 22230:1 22336:1 
0.2300834604085692 0 2071:1 2360:1 3493:1 9975:1 12125:1 17369:1 18667:1 20179:1 20318:1 
1 0 6010:1 9724:1 16017:1 18215:1 
1 0 2431:1 3957:1 5066:1 6094:1 8873:1 15055:1 16080:1 19205:1 20127:1 20319:1 23071:1 
0.07892100678739554 0 606:1 2156:1 3555:1 6199:1 11106:1 12134:1 16137:1 18752:1 18767:1 19589:1 21598:1 22543:1 
0.6771963730734513 0 1017:1 4845:1 5269:1 5326:1 8079:1 8509:1 13278:1 13351:1 13509:1 16904:1 17418:1 22129:1 
1 0 2859:1 5169:1 9445:1 
0.8912360723241047 0 18396:1 22814:1 
0 0.1738085817891062 2753:1 3550:1 10802:1 15622:1 
0.4072499997936709 0 4066:1 5805:1 9574:1 14572:1 15913:1 16623:1 22146:1 
1 0 6223:1 19189:1 
0.6885612408355636 0 5387:1 6784:1 13671:1 20525:1 22618:1 
0.208524551238486 0 527:1 6814:1 8413:1 10228:1 14122:1 15477:1 16080:1 18754:1 18876:1 20799:1 21371:1 
0.2199934842768957 0 2753:1 16738:1 21266:1 
0.0668420910907257 0 2311:1 10715:1 11994:1 12689:1 13270:1 15284:1 15860:1 18602:1 21974:1 
0.3650639345305517 0 268:1 2376:1 2447:1 4277:1 6432:1 8102:1 9228:1 10405:1 12878:1 13731:1 15913:1 18645:1 22129:1 
0.5363734022719338 0 2559:1 3962:1 12727:1 15913:1 17081:1 
0.219268468997811 0 72:1 2290:1 3894:1 7515:1 14317:1 14690:1 15795:1 
0.07160021728827773 0 1156:1 12667:1 12918:1 15428:1 15901:1 
0.3251404722646927 0.03508644785120132 1191:1 5433:1 9647:1 18398:1 18841:1 
0.01515251157695295 0 1712:1 3851:1 5215:1 9415:1 15913:1 18338:1 19205:1 24165:1 
0.07645245251980659 0 1258:1 3866:1 4415:1 9986:1 11605:1 11860:1 14436:1 14974:1 16427:1 18623:1 21743:1 23941:1 
0.003515775899066042 0 108:1 977:1 2814:1 4512:1 5037:1 12545:1 15024:1 18779:1 19205:1 22767:1 
1 0 403:1 5324:1 13867:1 19222:1 
0.04982989365095034 0 2559:1 7093:1 8102:1 12889:1 17194:1 20175:1 23511:1 24271:1 
0.8249752104365433 0 156:1 3010:1 3894:1 5574:1 7290:1 10927:1 10998:1 17621:1 20095:1 
0.8234373201835055 0.009551376206955222 7727:1 12706:1 15601:1 16061:1 17227:1 20928:1 21749:1 
0.3539875897294316 0 2623:1 4889:1 10114:1 11185:1 15698:1 16162:1 17704:1 19205:1 20749:1 21760:1 22273:1 23913:1 
0.4428303454168473 0.03355721371585602 4663:1 6162:1 8192:1 9867:1 11777:1 13518:1 14907:1 22230:1 
0.4406637048417758 0 1186:1 1945:1 2694:1 4271:1 5743:1 9486:1 11810:1 12745:1 14202:1 15315:1 15825:1 
0.6888597409616839 0 3866:1 4947:1 10269:1 15542:1 15811:1 
0.5446800462426326 0 1156:1 1208:1 1319:1 4078:1 6032:1 10961:1 14172:1 14227:1 14653:1 15913:1 
0.7610373623520513 0 60:1 1293:1 3667:1 7881:1 16684:1 18801:1 19205:1 22208:1 
0.2468511071671126 0 1848:1 5065:1 5305:1 7471:1 8223:1 9616:1 12492:1 12653:1 15689:1 17247:1 18507:1 18820:1 21002:1 21230:1 21774:1 
0.6241108616920367 0 1161:1 4078:1 5035:1 7864:1 8223:1 10150:1 12215:1 18357:1 21927:1 23689:1 23731:1 
0.01455043695365478 0 2446:1 4176:1 7684:1 9872:1 9955:1 10351:1 11073:1 11442:1 16432:1 16540:1 17837:1 18008:1 18541:1 19642:1 20002:1 
0.9544907756884031 0 4572:1 8464:1 10228:1 
0.1057213919072237 0 348:1 4645:1 5471:1 7994:1 12853:1 12898:1 13026:1 16178:1 18594:1 
0.1943163648643422 0 3866:1 5324:1 7812:1 16153:1 16178:1 16837:1 
0.3974648702035809 0 1650:1 1751:1 1930:1 2904:1 5388:1 11618:1 13801:1 13891:1 14992:1 15443:1 16600:1 22387:1 23689:1 
0.6795254653439103 0 4976:1 11122:1 12417:1 12525:1 16080:1 20038:1 20140:1 20575:1 
1 0 2571:1 2787:1 7973:1 8542:1 16098:1 
0.2929927119479571 0 5101:1 10464:1 12745:1 14303:1 17702:1 
0.3050316852792619 0 2559:1 2779:1 6421:1 7147:1 19911:1 21806:1 
1 0.1265313845285577 1593:1 5212:1 6757:1 10672:1 15756:1 
1 0 782:1 1156:1 3006:1 3676:1 6196:1 6757:1 11925:1 12112:1 16110:1 23071:1 
1 0 4629:1 8475:1 12808:1 14272:1 
0.4696153431054613 0 4095:1 4338:1 10617:1 
0.7003695546673941 0.2167585136629237 5215:1 6633:1 14329:1 19570:1 22596:1 23324:1 
0.0635507952837318 0 654:1 2906:1 9592:1 11285:1 12979:1 13003:1 14050:1 15218:1 15687:1 20175:1 20627:1 23994:1 
0.2576251870638723 0.005882776292063991 2136:1 6055:1 6219:1 11560:1 11634:1 11798:1 15433:1 15486:1 15973:1 17173:1 18865:1 21860:1 22698:1 
0.1604294606397494 0 6974:1 15133:1 15913:1 16758:1 19939:1 20774:1 
0.7469404721545009 0 9456:1 11977:1 12614:1 13369:1 15577:1 18750:1 19254:1 21627:1 22839:1 
0 0.01839007325554972 173:1 1412:1 4411:1 5065:1 6406:1 6580:1 7133:1 8478:1 8666:1 17792:1 20645:1 22487:1 
0 0.01570237016014302 370:1 4866:1 8444:1 8576:1 10134:1 10965:1 11403:1 13384:1 15963:1 16118:1 16954:1 18233:1 20127:1 22091:1 
0.5585664913229444 0 9228:1 9536:1 15315:1 17347:1 18645:1 19174:1 21044:1 
0.9750340284391464 0 1210:1 3072:1 15913:1 20887:1 24337:1 
0.1719361543917182 0 2877:1 5962:1 9765:1 11252:1 18811:1 18953:1 19928:1 23537:1 
1 0 10727:1 12941:1 15913:1 
0 0.01122039778522803 2559:1 2689:1 3702:1 3866:1 7185:1 7413:1 7761:1 10112:1 18838:1 24095:1 24271:1 
0.3743896330476021 0.09485505223442392 4348:1 10042:1 10589:1 22046:1 
0.5968132744834657 0 1599:1 2918:1 5257:1 6989:1 13295:1 18651:1 19407:1 20928:1 
0.1046889358978993 0 1941:1 12112:1 12712:1 12861:1 14489:1 17957:1 18428:1 19878:1 20712:1 
0.1814550396932307 0 316:1 2960:1 3638:1 4889:1 5278:1 8288:1 10281:1 10670:1 12745:1 15019:1 18039:1 18075:1 19205:1 20165:1 20991:1 
0.5629989686548411 0 654:1 1062:1 10457:1 13785:1 16721:1 18771:1 19587:1 20649:1 22795:1 
0.3733951110104364 0 6094:1 7889:1 8639:1 11755:1 16917:1 17578:1 
0.3975574072094744 0 15913:1 21218:1 22730:1 
0.9234002403248297 0 1191:1 2192:1 6989:1 8135:1 18532:1 18697:1 
0.2725298298779513 0 821:1 2494:1 3189:1 10089:1 12545:1 19205:1 23908:1 
0.8170811277650485 0.05834981200784147 1839:1 5629:1 15055:1 15224:1 16306:1 20049:1 21827:1 
0 0.009616786346149139 1646:1 13540:1 15194:1 21749:1 
0.4045377514040713 0 3020:1 5941:1 6543:1 18148:1 19205:1 19580:1 22463:1 22504:1 
0.4067118244178308 0 4883:1 5257:1 6766:1 8869:1 12036:1 14245:1 15369:1 18304:1 18686:1 24274:1 
0.1817687839971957 0 6260:1 13684:1 15689:1 15913:1 16035:1 23150:1 24237:1 
0.1199940917480309 0 262:1 6337:1 7684:1 8879:1 18048:1 20097:1 20305:1 
1 0 2447:1 4121:1 11142:1 16130:1 18801:1 22981:1 
0.4070926502014042 0 1210:1 2787:1 2869:1 5412:1 6196:1 6900:1 8706:1 9902:1 16956:1 21710:1 21864:1 
0.837251478364007 0 7671:1 9445:1 11497:1 24293:1 
1 0 1478:1 9505:1 16882:1 
0.1063815093311741 0 1694:1 2247:1 2632:1 3096:1 6253:1 6749:1 7671:1 12943:1 19262:1 20401:1 20742:1 22840:1 
0.765786116410618 0 679:1 2684:1 4943:1 6127:1 6688:1 14810:1 15187:1 16162:1 18645:1 
1 0 2447:1 4874:1 14159:1 
1 0 10647:1 10661:1 17127:1 
0.1799434903879118 0.003711873575853784 334:1 2116:1 2964:1 4176:1 7684:1 7974:1 7994:1 8462:1 9531:1 10352:1 12601:1 13026:1 13229:1 17934:1 18106:1 18577:1 19635:1 
0.5304020417789216 0 4338:1 4406:1 8873:1 12315:1 12427:1 23689:1 
1 0 7503:1 
0.3841178163092834 0 1191:1 2494:1 2902:1 4246:1 5496:1 7616:1 9157:1 16852:1 22146:1 
0.08677027434214399 0 849:1 1315:1 4832:1 5493:1 10149:1 15032:1 17060:1 23272:1 
0.2088821335207225 0 6989:1 15686:1 15689:1 15913:1 16127:1 18503:1 20668:1 
0.3640307783916249 0 527:1 6894:1 7402:1 7475:1 10413:1 10528:1 13927:1 14432:1 21314:1 22502:1 
0.7050247726433141 0 2478:1 5324:1 6260:1 6505:1 8144:1 8167:1 14447:1 19392:1 20120:1 20389:1 21750:1 
0.01607069283317786 0 3995:1 4873:1 5591:1 7737:1 12282:1 15884:1 16659:1 19802:1 
0.8401703131176943 0 1278:1 4338:1 4572:1 6781:1 13968:1 
0.1921473393353298 0 1631:1 2376:1 4706:1 5065:1 5324:1 12215:1 12386:1 18357:1 19022:1 23229:1 
0.09338629930319564 0.01453098395868845 799:1 4480:1 8080:1 10999:1 11100:1 12819:1 15032:1 15981:1 21191:1 
0.7156784491982474 0 156:1 1156:1 6336:1 6890:1 18322:1 19951:1 20225:1 21570:1 
0.4480038313294424 0 1973:1 5005:1 6870:1 13673:1 15002:1 15901:1 16849:1 17173:1 19950:1 21335:1 21860:1 23412:1 
0 0.005160777256292633 1827:1 5257:1 5368:1 6989:1 13254:1 17578:1 21432:1 
0.1855372023008915 0 682:1 10323:1 12745:1 15060:1 16488:1 20793:1 22817:1 23071:1 
0.2975671445738449 0 2640:1 3037:1 3894:1 6442:1 6894:1 10228:1 12112:1 12578:1 13555:1 23071:1 
0.9386148858956295 0 3364:1 6749:1 7243:1 13249:1 19552:1 
0.6021904921582081 0 8791:1 10995:1 11245:1 11860:1 13688:1 15723:1 23704:1 24018:1 
0.4506769127223057 0 782:1 6865:1 14050:1 19205:1 
0.02745592445092306 0 1549:1 1809:1 3848:1 8133:1 8740:1 17080:1 18283:1 19081:1 21860:1 
0.6296832586800228 0 2376:1 5349:1 5588:1 9200:1 15366:1 16900:1 17689:1 23177:1 23913:1 
1 0 156:1 595:1 3261:1 5387:1 6964:1 10114:1 10665:1 10965:1 15689:1 16299:1 17349:1 19205:1 21691:1 
1 0 8506:1 10589:1 11561:1 22310:1 
0.1830105346487641 0 5583:1 9514:1 10450:1 17656:1 18575:1 
1 0 1478:1 2634:1 8610:1 11902:1 
0.5023654235580486 0 1191:1 2245:1 2313:1 2640:1 5540:1 6196:1 8200:1 11340:1 12168:1 14042:1 17641:1 19231:1 20115:1 20923:1 
1 0 7155:1 11270:1 
0.9335110147819204 0 3493:1 3668:1 4610:1 4660:1 5035:1 5101:1 5958:1 7055:1 10623:1 11700:1 23689:1 
1 0 2869:1 4542:1 19205:1 23998:1 
0.3537837580387673 0 173:1 747:1 8874:1 12531:1 14613:1 15913:1 16224:1 
0.01626724768665172 0.02796560178681784 270:1 6393:1 10263:1 12806:1 13501:1 16080:1 16546:1 17961:1 19899:1 20748:1 
0.1766779645756471 0 1503:1 1864:1 4789:1 4929:1 6960:1 9755:1 10017:1 10801:1 
0.1523627331336446 0 11912:1 15913:1 18858:1 21454:1 
1 0 2447:1 8102:1 13834:1 22776:1 24080:1 
0.5444045018346736 0 1012:1 3850:1 5526:1 5737:1 10757:1 15689:1 19514:1 20250:1 20801:1 20901:1 24209:1 
0.3105893021237082 0 6500:1 7684:1 14373:1 15387:1 17328:1 21481:1 
0.440634699075008 0 3521:1 4900:1 7754:1 12032:1 12528:1 13907:1 19555:1 23674:1 
0.3624954640448356 0 826:1 2640:1 3956:1 9765:1 13671:1 15194:1 15311:1 19392:1 20590:1 23425:1 
0.03461555817094675 0 430:1 2496:1 5176:1 7118:1 10346:1 11669:1 12224:1 14742:1 17637:1 19262:1 21750:1 23071:1 
0.2107424185720621 0 4346:1 8807:1 11245:1 12314:1 13701:1 15913:1 23150:1 
0.4740286962128912 0 326:1 3294:1 4078:1 8613:1 10143:1 13325:1 15913:1 19573:1 
0.1769486396893497 0.03039461065172941 2707:1 2788:1 5006:1 5257:1 6094:1 6868:1 14103:1 14690:1 15416:1 16007:1 16080:1 21484:1 21849:1 23412:1 23881:1 
0.7694404955100462 0 4661:1 7468:1 10548:1 13097:1 16375:1 19297:1 21314:1 22612:1 
0.3037761741395297 0.01030058692105921 368:1 3411:1 3967:1 4346:1 6319:1 11709:1 12061:1 14954:1 19455:1 23146:1 
1 0 3321:1 3850:1 
0.3427768636155124 0 1630:1 5143:1 6199:1 7251:1 9862:1 11245:1 15621:1 
0.9349684250699878 0 1326:1 
1 0 6130:1 6989:1 18534:1 22960:1 
1 0 3493:1 8285:1 11826:1 17262:1 17623:1 21086:1 21513:1 
1 0 3508:1 7093:1 7947:1 17621:1 18700:1 20318:1 
0.9634007507198735 0 3006:1 4789:1 7918:1 12547:1 14537:1 16181:1 16224:1 23781:1 
0.09706020181342453 0 1774:1 2906:1 3667:1 9149:1 14110:1 23822:1 
1 0 782:1 12477:1 14453:1 15366:1 15913:1 16882:1 23039:1 
1 0 5288:1 6766:1 19205:1 22146:1 22229:1 22651:1 
0.1121554664222631 0 2559:1 5349:1 5711:1 19205:1 19754:1 22254:1 23294:1 23632:1 
0.7264351430977265 0 1079:1 8888:1 11748:1 15913:1 17665:1 18938:1 21371:1 21503:1 
0.1337028973290962 0 58:1 2835:1 2930:1 4281:1 6466:1 7991:1 8033:1 8215:1 8506:1 15241:1 21987:1 22636:1 
0.5976029945518092 0 975:1 1631:1 4773:1 10070:1 11618:1 16077:1 18575:1 19198:1 23076:1 
0.1546328172668048 0 5324:1 9097:1 15371:1 16178:1 16659:1 16759:1 
1 0.001294192980123958 11301:1 17476:1 20990:1 
0.3187291511576195 0 4276:1 10263:1 10597:1 14926:1 16607:1 16659:1 
0.6999992273318906 0 14011:1 14853:1 19205:1 
0.156449376160819 0.0009061387999563334 236:1 335:1 370:1 1978:1 3265:1 5526:1 6462:1 6989:1 8464:1 9552:1 12941:1 16342:1 17224:1 19280:1 
0.3573951084188559 0.07358967882683069 1025:1 3323:1 6935:1 7075:1 7362:1 7873:1 11955:1 16539:1 18474:1 22470:1 22775:1 
1 0 5257:1 5535:1 6749:1 14157:1 20742:1 20962:1 
0.3706175506902941 0.004512340785506727 1259:1 6141:1 15623:1 17053:1 19270:1 21559:1 21739:1 
0.3637086965683252 0 1191:1 3907:1 6749:1 6990:1 7106:1 12112:1 13048:1 14690:1 16357:1 19091:1 21806:1 21860:1 
0.150037419814374 0 654:1 4950:1 5778:1 6615:1 19419:1 20011:1 22229:1 22357:1 23071:1 23637:1 24209:1 
0 0.02025966512549764 612:1 1191:1 6749:1 7503:1 9195:1 9647:1 12390:1 13643:1 15015:1 15516:1 16900:1 20657:1 
1 0 6451:1 13826:1 
0.1518300573961462 0 2591:1 4789:1 5526:1 5535:1 12712:1 14375:1 15689:1 17756:1 19185:1 20367:1 21605:1 
0.07942066265966428 0 1987:1 3556:1 3769:1 8324:1 9765:1 13144:1 15913:1 16932:1 
0.007688308604055442 0 315:1 3006:1 4610:1 6375:1 13005:1 14718:1 17314:1 19248:1 20990:1 21432:1 22424:1 23390:1 24341:1 
0.8973566799525037 0 91:1 16788:1 
1 0.1787432343616654 6757:1 10150:1 23914:1 
0.5491718066572049 0 555:1 8935:1 14208:1 18527:1 
0.1640447905045955 0.007483301607811381 351:1 1156:1 2531:1 12013:1 
0.1084165411962807 0 5950:1 7017:1 10135:1 14165:1 14360:1 15438:1 15698:1 17500:1 22203:1 22432:1 23736:1 
1 0 2694:1 15218:1 18817:1 20751:1 
1 0.01948141826002526 586:1 14075:1 15214:1 16885:1 20555:1 21892:1 23364:1 
0.1662227383793298 0.003205923103524252 975:1 2800:1 3633:1 8901:1 13392:1 17844:1 
0.9350966856345531 0 8709:1 
0.5820901485947131 0 2032:1 2999:1 4244:1 7083:1 7154:1 8865:1 9367:1 14801:1 20021:1 
0.08604965277816727 0 1191:1 6351:1 7841:1 9420:1 9599:1 13059:1 18602:1 21314:1 22256:1 
0.2457133232204911 0 1767:1 1857:1 2559:1 5796:1 7997:1 9176:1 10173:1 11464:1 11812:1 12215:1 12462:1 17783:1 18532:1 
0.3110944851623397 0 6766:1 15780:1 21218:1 21341:1 
0.4828289831415667 0 1191:1 2577:1 3261:1 6213:1 10664:1 13254:1 16605:1 21846:1 
0.9334199593648002 0 2823:1 9313:1 10869:1 12542:1 14453:1 15443:1 20901:1 22686:1 23889:1 
0.3415950191695621 0 5151:1 5174:1 6973:1 8475:1 15689:1 16319:1 21594:1 22379:1 
0.306828750453531 0 2707:1 3606:1 4715:1 5040:1 6118:1 8050:1 8511:1 13811:1 14110:1 15689:1 18436:1 20210:1 20900:1 22208:1 23977:1 
0.6488469032560957 0 1762:1 1879:1 2984:1 4789:1 5753:1 6757:1 8928:1 11330:1 15917:1 17130:1 17558:1 18469:1 
0.5845993200871761 0 1210:1 2249:1 3894:1 5387:1 7270:1 9161:1 10035:1 15756:1 20045:1 21689:1 
0.1354267782213538 0 3582:1 4006:1 6447:1 6688:1 11835:1 12054:1 15284:1 19430:1 21580:1 22348:1 
0.486885598420575 0 1905:1 3668:1 4730:1 10633:1 14187:1 16103:1 16444:1 21700:1 21710:1 
0.8488155108388684 0 4871:1 6489:1 12253:1 12914:1 14447:1 15913:1 16181:1 17365:1 
0.3107239453786346 0.09392991905161309 4225:1 13590:1 20293:1 
0 0.01109150766107831 1478:1 13163:1 14215:1 22146:1 
0.04545686956493575 0 4480:1 9333:1 11846:1 14110:1 15311:1 
0.1087865033374805 0.03969437421002688 672:1 1944:1 2829:1 3052:1 3702:1 3788:1 7257:1 7324:1 10389:1 12058:1 
0.6225575350031762 0 6196:1 7532:1 10915:1 19395:1 20021:1 20318:1 
0.6296863413915924 0 9606:1 19287:1 
1 0 88:1 2447:1 6837:1 11537:1 15913:1 17864:1 
0.2466270117938058 0 5359:1 11382:1 12855:1 19205:1 
0.6960951202784641 0 625:1 4830:1 13568:1 14453:1 16900:1 17957:1 20724:1 20935:1 22914:1 
1 0 6094:1 
0.4174130434200379 0 5877:1 9313:1 10326:1 12906:1 13544:1 22393:1 
0.6071995856852397 0 3043:1 5065:1 6207:1 8164:1 10723:1 11483:1 15366:1 15460:1 16659:1 17210:1 19341:1 
0.5762529784512538 0.03014061070951294 1423:1 1671:1 3268:1 3867:1 5708:1 6736:1 12190:1 13115:1 15363:1 19534:1 20978:1 22137:1 22611:1 22805:1 
0.1311387956933769 0 1740:1 5264:1 7053:1 16162:1 17217:1 20520:1 20749:1 23973:1 
0.1981544336466264 0.03017324863416103 7382:1 10356:1 14662:1 15315:1 16447:1 19253:1 20785:1 
0.09361326848711882 0 654:1 2376:1 8711:1 8975:1 10464:1 12810:1 15732:1 16013:1 18645:1 24118:1 
0.1345359117071437 0 3191:1 3720:1 15449:1 15913:1 24133:1 
0.6099061890399983 0 1314:1 1995:1 6840:1 9765:1 14661:1 15308:1 17094:1 18898:1 22361:1 23491:1 
0.7512092734036534 0 2009:1 3731:1 6401:1 10373:1 20201:1 
1 0 11294:1 18144:1 21433:1 22146:1 
1 0 44:1 
0 0.1034090318596829 1324:1 5349:1 5654:1 7075:1 8506:1 9445:1 14880:1 16181:1 
0.9020351955765684 0 1280:1 2694:1 6989:1 8740:1 9200:1 10281:1 13419:1 15366:1 15609:1 16542:1 17080:1 20059:1 20095:1 
0.03476402355980514 0 11669:1 16488:1 17919:1 18926:1 
0.1694985272132849 0.2029867856085802 1890:1 8734:1 10326:1 18040:1 20114:1 20401:1 21461:1 24171:1 
0.1651132185471263 0 1227:1 6489:1 7781:1 10650:1 12914:1 14671:1 14885:1 18645:1 20131:1 
1 0 3281:1 4531:1 4957:1 5778:1 6932:1 7962:1 12413:1 12415:1 18686:1 19463:1 20575:1 21432:1 21833:1 
0.6235703934198754 0.06943824839148241 1156:1 10313:1 11340:1 12112:1 13293:1 13438:1 16900:1 19011:1 22681:1 23284:1 
1 0 1054:1 7402:1 9765:1 11925:1 20592:1 23338:1 
0.2737842173347576 0 8156:1 8426:1 8623:1 10553:1 13468:1 19205:1 22017:1 23080:1 23843:1 
1 0 16224:1 
0.1680444883423449 0 625:1 1896:1 3364:1 8016:1 10915:1 13254:1 14066:1 22373:1 23071:1 24028:1 
0.2535496695865282 0 1418:1 1755:1 4879:1 6103:1 9449:1 13639:1 14039:1 14295:1 17174:1 18602:1 19587:1 
0.2681381020021293 0 5672:1 9738:1 13031:1 13249:1 13751:1 18421:1 18507:1 20140:1 21627:1 22146:1 
1 0 18347:1 22452:1 23735:1 
0.5504325404913344 0 1314:1 3915:1 5172:1 9846:1 15284:1 18719:1 18818:1 21086:1 
0.5670218767499038 0 2418:1 4610:1 5024:1 7402:1 17279:1 18129:1 22373:1 
0.1160530415932618 0 2640:1 3271:1 9230:1 13811:1 15914:1 22129:1 22229:1 23297:1 
0.07721124747576821 0 912:1 1503:1 6137:1 16659:1 17402:1 23364:1 
1 0 4640:1 15689:1 19205:1 
0.9003179167153509 0 405:1 12582:1 16162:1 22707:1 
0 0.1072634988455572 43:1 6923:1 12112:1 15434:1 
1 0 6319:1 13386:1 
0.9103334026555044 0 9595:1 15192:1 
0.2435957301373231 0 7551:1 9402:1 18827:1 
0.2305660990645549 0.0110354023977202 5248:1 8087:1 10281:1 10298:1 11329:1 12329:1 15973:1 18286:1 18602:1 23071:1 23433:1 
1 0 6357:1 14178:1 15913:1 17454:1 24326:1 
0.2169830072777589 0 517:1 5065:1 5560:1 14328:1 14524:1 15443:1 15655:1 15894:1 22348:1 
0.8298962101013267 0 617:1 1423:1 1954:1 6358:1 7206:1 7881:1 18645:1 22334:1 
0.5569779128197346 0 1017:1 4845:1 8235:1 10955:1 13811:1 15756:1 18709:1 18806:1 20717:1 22082:1 23211:1 
0.910269117240023 0 4386:1 5198:1 5324:1 6788:1 7962:1 8754:1 13644:1 15913:1 
0.3051176326985591 0 4676:1 5324:1 6884:1 11794:1 12854:1 17969:1 19091:1 23071:1 
0.03705061690105012 0 1212:1 1293:1 3504:1 8319:1 10114:1 18593:1 18874:1 20138:1 21608:1 
0.01053783174753065 0.0009353397951843193 2051:1 3957:1 4274:1 12274:1 12847:1 14110:1 15284:1 15389:1 16605:1 18093:1 20021:1 21143:1 
0.3564943735805504 0.03007793744471524 2013:1 3585:1 6347:1 7853:1 8373:1 10507:1 13855:1 13932:1 17573:1 18008:1 18041:1 19844:1 20774:1 21171:1 21793:1 22386:1 
0.1421092792185887 0.01132784304900605 7470:1 8741:1 10063:1 11434:1 15207:1 16517:1 18552:1 21806:1 
0 0.008940236538842444 28:1 993:1 2526:1 3568:1 4585:1 5715:1 14230:1 15311:1 15511:1 15988:1 17269:1 22071:1 
0.7060498479886896 0 3387:1 4095:1 7442:1 8386:1 11042:1 18277:1 18881:1 18982:1 21910:1 22208:1 
0.1346887150254301 0 2249:1 4078:1 6260:1 14323:1 15523:1 15840:1 15913:1 16855:1 18544:1 18602:1 20701:1 
0.4638107490839137 0 764:1 2628:1 2684:1 4594:1 4629:1 5506:1 7155:1 19205:1 19872:1 21507:1 21807:1 
0.5253087569149324 0 60:1 2857:1 3015:1 4095:1 14195:1 18815:1 18938:1 19205:1 22979:1 24121:1 
1 0 2640:1 6989:1 18215:1 19205:1 21398:1 
0.3421057938806455 0.05776107591194524 1747:1 3906:1 4209:1 7951:1 8238:1 9206:1 12386:1 14004:1 16914:1 18602:1 23634:1 
0.8369549395032693 0 15908:1 15913:1 19852:1 
0.3758585796434826 0 4610:1 4846:1 15040:1 18984:1 
0.09877130182956614 0 2431:1 7203:1 13249:1 13901:1 15883:1 15913:1 
1 0 1191:1 2068:1 6069:1 6375:1 10647:1 17159:1 19205:1 22332:1 
0.2858417379327586 0.0009769328830256426 420:1 2563:1 4883:1 6784:1 8146:1 8478:1 9925:1 13405:1 15315:1 16103:1 18120:1 
0.2756800069002756 0 6791:1 7115:1 10519:1 12238:1 14175:1 14690:1 16374:1 16410:1 18602:1 21406:1 23630:1 
0.2810696404458065 0 2249:1 10677:1 10737:1 11351:1 12682:1 16132:1 16162:1 17704:1 18676:1 19304:1 19364:1 20524:1 21754:1 22809:1 23006:1 
0.9618493162655942 0 3006:1 7475:1 16914:1 18820:1 
0.1986755760121986 0.02918587125787907 1215:1 2608:1 8892:1 9511:1 10114:1 10298:1 10589:1 14004:1 15499:1 16457:1 16904:1 18877:1 23658:1 
1 0 2192:1 8135:1 9514:1 14493:1 15689:1 
0.003874734532150983 0 2857:1 10783:1 15755:1 20681:1 21143:1 22057:1 
0.4946261334194822 0 1026:1 1749:1 7527:1 7629:1 8827:1 12618:1 14642:1 22478:1 
0.55271587755542 0 5629:1 5780:1 6904:1 7789:1 8238:1 11246:1 11772:1 12371:1 13268:1 16845:1 17632:1 20742:1 21534:1 22373:1 
1 0 5048:1 8901:1 12806:1 17256:1 20095:1 
0.09589296562335095 0 1191:1 3037:1 5151:1 11962:1 13890:1 14447:1 14524:1 16980:1 22373:1 
1 0 1728:1 5065:1 8099:1 10994:1 16597:1 
0.7573723841068736 0 2431:1 2474:1 6019:1 6684:1 14571:1 16916:1 17481:1 18215:1 
1 0 11245:1 15428:1 
0.04870270783685018 0 5065:1 5324:1 10915:1 13212:1 13881:1 14005:1 15261:1 17774:1 19357:1 19883:1 19916:1 20325:1 23683:1 
0.3233899171971226 0 5324:1 6876:1 7901:1 12117:1 12673:1 15315:1 15755:1 16980:1 18645:1 19786:1 
0.1141952389111277 0.03446935054563895 2575:1 11438:1 14495:1 20520:1 22229:1 
0.04434468494818537 0 11977:1 14091:1 17621:1 19205:1 
0.2099347191712757 0 4846:1 5560:1 8219:1 10123:1 15913:1 16265:1 19716:1 20990:1 22795:1 
0.1711535111007196 0 6281:1 6791:1 6961:1 6990:1 17408:1 17750:1 
0.006948485325193083 0 3894:1 4239:1 6260:1 15192:1 17857:1 21993:1 22476:1 22999:1 
0 0.09274187523283102 2261:1 2689:1 4243:1 7527:1 
0.4467523911107495 0 6894:1 8148:1 15363:1 18069:1 
0.4967453482892465 0.06436154548410378 2090:1 5014:1 7075:1 7668:1 9599:1 11812:1 14463:1 15913:1 17428:1 18076:1 19262:1 22229:1 
0.4294305055545062 0 330:1 2559:1 12452:1 15913:1 16815:1 
0.8490291907663402 0 950:1 10036:1 22292:1 
0.1563875839890354 0.0452035824558837 5323:1 7422:1 9679:1 9878:1 10623:1 13801:1 18602:1 19459:1 23989:1 
0.0834624543062945 0.03518170516332218 1549:1 1723:1 4176:1 5146:1 6698:1 7684:1 7722:1 7973:1 7990:1 8944:1 12557:1 13227:1 16097:1 16480:1 19523:1 21460:1 22600:1 22673:1 23522:1 
0.731637184270641 0 1973:1 3708:1 3866:1 4811:1 5005:1 13249:1 13468:1 15901:1 18719:1 20115:1 20253:1 24271:1 
0.1322682036485936 0 764:1 1210:1 1652:1 2034:1 3006:1 3321:1 6319:1 16528:1 17349:1 20127:1 20445:1 21422:1 
0.5656235714763633 0 42:1 9765:1 15226:1 22715:1 23071:1 24223:1 
0.3236128179935059 0 60:1 2694:1 4969:1 6766:1 7382:1 13646:1 14122:1 
0.229760323672996 0 60:1 3582:1 4296:1 8246:1 13734:1 15122:1 22146:1 22360:1 
0.6362414550765482 0 11646:1 12253:1 12886:1 15277:1 16475:1 18591:1 19581:1 20749:1 
0.003963949540464532 0 880:1 1699:1 5065:1 18941:1 19205:1 21422:1 
0.8947212485664231 0 1014:1 2358:1 6393:1 11803:1 15913:1 16759:1 17864:1 21111:1 23551:1 
0.7559702732612193 0 173:1 734:1 1854:1 2484:1 5257:1 8175:1 
0.3031118233420286 0 821:1 1646:1 2494:1 3507:1 9537:1 13073:1 14075:1 18602:1 19205:1 20717:1 20862:1 23906:1 
1 0 3006:1 7962:1 8167:1 11977:1 14468:1 15689:1 17361:1 18602:1 23754:1 
0.1176303915450345 0 1926:1 4123:1 4338:1 4826:1 5248:1 6240:1 7737:1 9633:1 10311:1 15710:1 19752:1 20095:1 20319:1 21532:1 23842:1 24091:1 
0.3691378803632601 0.1426883297516237 6375:1 8020:1 14187:1 16405:1 19426:1 23986:1 
0.1972532357630321 0 3785:1 4562:1 5654:1 6140:1 6489:1 7435:1 7677:1 8901:1 8954:1 9262:1 12914:1 14553:1 15913:1 16997:1 19205:1 21165:1 21357:1 
0.4754733975439507 0.03220103153593346 1762:1 10114:1 10545:1 10623:1 13426:1 17361:1 18596:1 22635:1 
0.7342315804609479 0.05557361454969748 612:1 5164:1 11262:1 14141:1 15579:1 16178:1 17389:1 20360:1 23071:1 
0.5518516948939132 0 7515:1 7593:1 13993:1 18719:1 19003:1 
0.5925807619761271 0 1814:1 2469:1 2478:1 4187:1 7684:1 10351:1 11658:1 21570:1 22922:1 
0.0257736426879463 0 6260:1 10405:1 23522:1 
1 0 2559:1 4832:1 19205:1 
1 0 7402:1 14455:1 21541:1 23071:1 23412:1 
1 0 9939:1 11245:1 
1 0 715:1 6973:1 11902:1 21594:1 
1 0 517:1 3010:1 18469:1 24165:1 
0.3350170148538337 0 9822:1 12509:1 15454:1 15913:1 23213:1 23749:1 
1 0 15913:1 16715:1 17201:1 20403:1 24271:1 
1 0 3006:1 3939:1 7700:1 8333:1 9544:1 9765:1 11292:1 13428:1 14350:1 17056:1 18515:1 
0.1432693443962179 0 5679:1 13671:1 15811:1 15913:1 16976:1 
0.2718630601963138 0 918:1 2606:1 5065:1 10325:1 18233:1 18293:1 23071:1 23230:1 
1 0 1678:1 3995:1 5145:1 11561:1 18645:1 20635:1 
0.3668438153442843 0 614:1 1177:1 3493:1 7684:1 8392:1 10415:1 11307:1 12267:1 17817:1 20316:1 21122:1 22725:1 22769:1 
0.571635274162176 0 5324:1 12745:1 15315:1 15443:1 21771:1 
0.03746000000371911 0 4300:1 10523:1 18144:1 23485:1 
0.7040042418089569 0.005915871808623224 2238:1 5258:1 5832:1 7236:1 7468:1 8901:1 9416:1 14949:1 
0.2016943038614133 0 1861:1 3493:1 5762:1 7406:1 8574:1 14159:1 17170:1 18091:1 18566:1 22360:1 
0.7129081034331922 0 173:1 2193:1 3198:1 3220:1 6250:1 6863:1 9182:1 10319:1 10523:1 15704:1 16476:1 18261:1 19046:1 19910:1 22667:1 22979:1 
0.2554116212765669 0.03132835740202708 731:1 5035:1 8464:1 10657:1 14112:1 14710:1 21180:1 21319:1 23809:1 
0.7406409072169708 0 173:1 2694:1 4395:1 10114:1 20623:1 20936:1 22334:1 
1 0.1111987560393494 2048:1 10114:1 11230:1 21827:1 24062:1 
0.7478338505522553 0 2559:1 23412:1 
0.5124715296881304 0 8618:1 13811:1 15915:1 22436:1 23772:1 
0.2807404488319062 0 43:1 1012:1 2056:1 2502:1 4390:1 10149:1 10709:1 12309:1 16725:1 17735:1 18559:1 19398:1 24259:1 
0.5252255694616622 0 3501:1 6393:1 7554:1 22625:1 
0.8125516399650815 0 268:1 1089:1 6432:1 7890:1 9839:1 17242:1 18645:1 
0.784993197774791 0 10114:1 15546:1 
0.1463259833138273 0 43:1 1139:1 1592:1 1969:1 4432:1 4575:1 7842:1 7997:1 8321:1 15726:1 16882:1 17474:1 18602:1 20990:1 21218:1 
0.3473032883122679 0.07682674759311126 3642:1 5805:1 8688:1 10359:1 14004:1 16561:1 19799:1 
0.4408612362676502 0 5021:1 8716:1 8739:1 15913:1 
0.4527583247711539 0 5593:1 7532:1 7671:1 14963:1 15379:1 16080:1 21570:1 
0.01380272204248234 0 441:1 3843:1 5257:1 9342:1 9717:1 10284:1 13172:1 13610:1 15015:1 16632:1 17693:1 19010:1 
1 0 4929:1 14375:1 15461:1 
0.1712830347518964 0 6260:1 12972:1 14653:1 19146:1 19482:1 19795:1 20590:1 23089:1 
0.2081061830186585 0 654:1 1054:1 10500:1 11319:1 12112:1 13491:1 15315:1 20609:1 22187:1 
0.1126857517579944 0 1156:1 10114:1 10149:1 10663:1 14822:1 18632:1 19944:1 20757:1 21352:1 21427:1 23880:1 23986:1 
0.2707121921454688 0 5293:1 5626:1 8623:1 14735:1 21851:1 23265:1 
0.1221872170551969 0 9572:1 10769:1 13349:1 15913:1 16606:1 17663:1 
0.0469159085079224 0 1712:1 8734:1 10639:1 13798:1 14786:1 18448:1 
0.5611418908467827 0 3546:1 3916:1 5796:1 8223:1 11890:1 12477:1 14867:1 14947:1 15655:1 16080:1 21296:1 
0.1241038090946447 0 325:1 4137:1 5040:1 5292:1 6623:1 7123:1 8146:1 9515:1 9972:1 10729:1 11184:1 15359:1 19091:1 
0.06910196407044786 0 385:1 1426:1 5065:1 6410:1 10323:1 13903:1 14065:1 14453:1 15913:1 20536:1 20590:1 21269:1 21289:1 21646:1 
0.06914073702467655 0 2559:1 3473:1 6749:1 6791:1 7093:1 8507:1 13441:1 15973:1 20318:1 
1 0 7671:1 21797:1 
0.1469188636512135 0 2484:1 2533:1 3364:1 5073:1 5324:1 8171:1 11871:1 12315:1 12474:1 16659:1 17414:1 19287:1 19740:1 
0.3176245604531565 0 2503:1 3006:1 4851:1 4914:1 11856:1 18602:1 18630:1 22129:1 
0 0.0759816205486346 882:1 5948:1 6611:1 7842:1 11644:1 12545:1 19013:1 
0.4906142533675832 0 1106:1 4023:1 8183:1 15845:1 15913:1 16188:1 17241:1 17843:1 19629:1 23008:1 
0.1704052134528319 0 827:1 1751:1 5065:1 7471:1 11144:1 13217:1 15187:1 15723:1 18767:1 21062:1 21173:1 23386:1 
0 0.0166088502715395 7503:1 13699:1 14045:1 18050:1 19205:1 23766:1 
1 0 15780:1 
0.5253808258176541 0 4749:1 5412:1 9161:1 
0.4903099844268954 0.02657026781340949 2136:1 2428:1 2664:1 3111:1 5374:1 6275:1 8102:1 10390:1 16885:1 17122:1 20656:1 22088:1 24157:1 
0.1728377963200576 0 3814:1 4620:1 5159:1 7379:1 8866:1 9363:1 10010:1 14004:1 15913:1 23071:1 23330:1 23533:1 
0.6800970134813223 0 3627:1 5996:1 7467:1 7886:1 16162:1 21623:1 
1 0 7684:1 10523:1 13616:1 20612:1 
0.5714814715205111 0 813:1 6154:1 6894:1 6905:1 7587:1 8835:1 10661:1 15524:1 18602:1 22334:1 
0.005607479513246894 0 318:1 654:1 1094:1 2376:1 3198:1 4969:1 5316:1 5324:1 6640:1 6645:1 9312:1 14004:1 14134:1 14918:1 21296:1 23940:1 
0.1673420663393311 0.3857683683810161 869:1 16866:1 18148:1 19528:1 23200:1 24171:1 
0.03207901725704669 0 2800:1 2902:1 5576:1 9076:1 13392:1 14776:1 15443:1 24285:1 
0.9099454779806487 0 513:1 3943:1 5942:1 6393:1 8684:1 10995:1 13098:1 19514:1 20423:1 23071:1 
1 0 1192:1 3006:1 12509:1 23749:1 
1 0 3209:1 7940:1 12249:1 13538:1 15235:1 19205:1 19257:1 
0.03152781544048185 0 4167:1 5613:1 10326:1 11421:1 12845:1 14756:1 14918:1 17009:1 21546:1 
0.1070916251238968 0 7302:1 8390:1 10785:1 11175:1 15363:1 20140:1 23765:1 
0.1846598379662846 0 5877:1 15913:1 
0.2097044523980182 0 365:1 5065:1 6538:1 8324:1 10326:1 11446:1 14123:1 15451:1 16121:1 16283:1 16885:1 19174:1 21187:1 23622:1 
0.7951442172446893 0.001090439272948673 2369:1 2423:1 4822:1 9334:1 14216:1 14495:1 15463:1 22078:1 
1 0 4390:1 6196:1 19205:1 21658:1 23955:1 
1 0 3265:1 5796:1 12545:1 15516:1 17735:1 17933:1 22334:1 
0.1956127353672994 0 2905:1 7684:1 8939:1 9472:1 10252:1 14725:1 18654:1 22374:1 
0.2789274551622399 0 974:1 1254:1 2247:1 4789:1 5574:1 8013:1 13726:1 15739:1 16382:1 19698:1 
0.4394067318984223 0.09153248810705079 712:1 861:1 2053:1 8057:1 11189:1 12552:1 18140:1 19808:1 
0.07329435679931372 0 5341:1 6757:1 6791:1 7912:1 12276:1 15655:1 18030:1 21202:1 21417:1 23649:1 
0.5506133502522913 0 989:1 1227:1 3006:1 5549:1 8639:1 14075:1 18938:1 18952:1 
1 0 1423:1 5198:1 17094:1 
0.5805513329046439 0 2362:1 7329:1 9157:1 19205:1 24213:1 
0.02739259929343453 0 2506:1 4241:1 7604:1 7829:1 10135:1 13386:1 13777:1 19081:1 19197:1 
0.5039314547888845 0 225:1 3024:1 3720:1 6375:1 10661:1 13871:1 14375:1 15123:1 17173:1 21708:1 
0.05253629374847577 0 3676:1 6403:1 13362:1 15913:1 18938:1 19205:1 23444:1 
0.3220014981184655 0 1156:1 6375:1 8223:1 11622:1 13548:1 
0.5962076909082735 0 9333:1 9986:1 15913:1 19003:1 
0.302999809043517 0 2203:1 4539:1 6099:1 6706:1 6757:1 8102:1 9402:1 9939:1 21685:1 
0.2648437420144109 0 1581:1 4560:1 6251:1 6870:1 7532:1 7640:1 20021:1 
0.3186943465741758 0 2634:1 6736:1 10329:1 
0.3765811721163833 0 9765:1 10826:1 15366:1 23414:1 23728:1 
0.6864748189700566 0 567:1 2038:1 2523:1 7338:1 10466:1 15233:1 22759:1 23324:1 
0.6313585284337579 0.04551283574516587 4640:1 12806:1 12963:1 16061:1 20536:1 22012:1 
1 0 2376:1 6351:1 6749:1 8223:1 15284:1 15987:1 16436:1 20868:1 21846:1 
0.4881443499948975 0 1191:1 2857:1 11490:1 11838:1 20947:1 
0.1239820179561669 0 1791:1 3101:1 12524:1 13811:1 15365:1 17944:1 20688:1 22606:1 
0.6234285871539702 0.01139192324042544 1368:1 5368:1 6766:1 8506:1 14929:1 23649:1 
1 0 1192:1 2457:1 4829:1 15913:1 16759:1 19037:1 19511:1 20522:1 21008:1 23071:1 23689:1 
0.6871321170129283 0 1139:1 2882:1 3162:1 6552:1 6741:1 6894:1 9988:1 15913:1 16908:1 21269:1 24263:1 
0.02414244538923625 0 282:1 7727:1 10958:1 13656:1 18291:1 20021:1 
1 0 12309:1 
0.2498206769607076 0 2484:1 19975:1 21835:1 
0.9793877720059688 0.03952069763464022 654:1 2146:1 10052:1 12253:1 16080:1 18745:1 20498:1 21895:1 22009:1 
0.1935181131404587 0 5040:1 6455:1 6926:1 8078:1 19205:1 
0 0.01206552168920424 1191:1 3866:1 7414:1 7742:1 9270:1 10487:1 11715:1 16338:1 16832:1 17641:1 21655:1 21946:1 
0.1697353258620868 0 43:1 1259:1 5526:1 5815:1 7155:1 8623:1 10500:1 11962:1 12965:1 13727:1 14918:1 16475:1 19205:1 19441:1 20975:1 
0.747532973896891 0 271:1 2774:1 3638:1 4742:1 5324:1 6832:1 12806:1 16269:1 19369:1 20867:1 
0.8510748703187976 0 3521:1 4846:1 8171:1 10826:1 24335:1 
0.7925534372239942 0 3949:1 6989:1 10586:1 
1 0 8223:1 21070:1 
0 0.002263057129934996 1253:1 2478:1 4647:1 5579:1 6199:1 8167:1 8260:1 8713:1 10503:1 10935:1 14828:1 15643:1 20864:1 22274:1 22663:1 23374:1 
0.2664396092155438 0 1853:1 5578:1 8082:1 10623:1 11432:1 21247:1 23574:1 
0.5193720067549128 0 2452:1 5482:1 7918:1 11355:1 12315:1 15739:1 15997:1 18463:1 21420:1 24275:1 
0.1897146483658638 0 4845:1 5563:1 9402:1 12970:1 14066:1 15913:1 16744:1 17864:1 18013:1 19731:1 21560:1 23383:1 24209:1 
0.2079461901091166 0 912:1 6758:1 14453:1 14918:1 15315:1 18602:1 
0.3987261174516749 0 1999:1 3193:1 10688:1 10915:1 17256:1 22315:1 
0.04122887457514698 0 1054:1 5172:1 5595:1 5662:1 6375:1 7737:1 8924:1 11237:1 12405:1 21198:1 
0.6223205098845059 0 504:1 9385:1 12199:1 14447:1 16196:1 20527:1 
0.8149979802623463 0 1617:1 12871:1 18284:1 23615:1 
1 0.2567265717957813 5595:1 12187:1 20338:1 
1 0 14328:1 19205:1 21414:1 23707:1 23986:1 
0.4286205294243076 0 7093:1 9457:1 11469:1 13469:1 15379:1 16740:1 17202:1 18314:1 23071:1 
0 0.06959648049616847 2071:1 2559:1 9647:1 11787:1 16744:1 18938:1 21559:1 22634:1 23330:1 
0.3714258253262746 0 773:1 9216:1 
0.4942875836481218 0.01751855648471405 6680:1 6998:1 9923:1 10623:1 12745:1 23228:1 
0.2416707311100584 0 3508:1 6791:1 13726:1 13785:1 18984:1 22373:1 22574:1 23071:1 24191:1 
0.1034059802616803 0 2641:1 10675:1 10685:1 17266:1 23133:1 23769:1 
0.6396733162302836 0.02429345586883657 6319:1 8295:1 9591:1 16821:1 17647:1 20452:1 20954:1 21051:1 
0.8348071872887557 0 2715:1 6923:1 11340:1 11902:1 17528:1 18779:1 19205:1 20717:1 
0 0.004824123911949166 1191:1 12694:1 15602:1 21807:1 
0.353932110643305 0 144:1 1157:1 1207:1 5059:1 6833:1 10025:1 11049:1 12427:1 13309:1 15913:1 
1 0.1275408729883974 9904:1 15315:1 18421:1 
0 0.001325558620309651 2052:1 5029:1 5325:1 10552:1 12833:1 12890:1 13413:1 21864:1 22010:1 
0.4250867229885794 0 4879:1 6894:1 6989:1 8623:1 9630:1 10286:1 11499:1 13780:1 15083:1 15913:1 20742:1 22230:1 23071:1 23151:1 23689:1 
0.04648484991646996 0 4418:1 6503:1 7904:1 15689:1 15913:1 16131:1 22229:1 
0.2263570598256446 0 3894:1 7415:1 9097:1 10063:1 10831:1 11245:1 13648:1 21973:1 22373:1 22474:1 
0.4782417346150936 0.01867057324361225 989:1 2480:1 14814:1 17731:1 18041:1 18533:1 18602:1 21029:1 22012:1 22238:1 
0.1774203047732063 0 2478:1 5324:1 5533:1 6319:1 8984:1 9036:1 9881:1 13384:1 16312:1 16759:1 17876:1 19296:1 20592:1 
0.02262635045779579 0 1191:1 4832:1 7684:1 8785:1 10114:1 10230:1 16649:1 18041:1 19205:1 20126:1 22725:1 
0.927741597687439 0 5258:1 12315:1 14303:1 15946:1 16870:1 
0.09410595569361195 0 8167:1 8666:1 11145:1 11433:1 19205:1 21111:1 
0.5809977848677604 0 14976:1 15465:1 22105:1 
0.04432257090058097 0.02226475625199644 1178:1 2857:1 11561:1 13825:1 16559:1 16715:1 16759:1 
0.01354938205339912 0 8546:1 10362:1 11859:1 14812:1 15459:1 18551:1 23622:1 
1 0 2247:1 2559:1 3321:1 4274:1 21002:1 22071:1 23438:1 24271:1 
1 0 3850:1 6989:1 13844:1 19408:1 23811:1 
0.7082888198262755 0 1191:1 3630:1 4610:1 7131:1 8558:1 9992:1 12463:1 13375:1 13861:1 14053:1 15739:1 15913:1 18602:1 19911:1 20656:1 23649:1 
0.1727211887779494 0 41:1 1012:1 4629:1 9572:1 10246:1 15913:1 20578:1 21782:1 22643:1 
0.03562344467206663 0 2276:1 7814:1 9239:1 16162:1 18648:1 19205:1 19922:1 22207:1 
0.0559553615161292 0 9402:1 9632:1 10405:1 10434:1 13583:1 13698:1 15913:1 17303:1 17926:1 23151:1 23649:1 
1 0.002950484840972226 2598:1 2606:1 9863:1 13501:1 13811:1 23689:1 
0.1826956222045689 0 1412:1 5142:1 6736:1 6766:1 7820:1 8924:1 10431:1 15913:1 17621:1 21420:1 
0.2118924611679343 0.1282972129742098 43:1 1322:1 2136:1 8171:1 11812:1 14486:1 19116:1 23940:1 
0 0.1778402264431268 7972:1 13249:1 14004:1 14653:1 
0.1271060122321122 0 6989:1 9167:1 10709:1 15913:1 16606:1 16763:1 20635:1 
0.9372160801427386 0 7242:1 10661:1 15311:1 17251:1 19205:1 19358:1 21637:1 
0.369978752977676 0 691:1 980:1 2774:1 10980:1 13558:1 14336:1 15144:1 15913:1 18041:1 21266:1 23228:1 
0 0.008707567942056189 60:1 1762:1 12941:1 17388:1 19828:1 20152:1 21728:1 22373:1 23565:1 
0.6380925084541933 0 252:1 3493:1 6850:1 16061:1 17232:1 
0.4803435193082937 0.01121202986732855 1156:1 4584:1 10847:1 22543:1 
0.3835570027099609 0.08787214295889803 578:1 6795:1 10623:1 13501:1 15913:1 
1 0 156:1 13099:1 15753:1 15913:1 16103:1 20536:1 21008:1 21864:1 24165:1 
0.04302626966545804 0 654:1 655:1 1156:1 2782:1 4035:1 10131:1 11566:1 11725:1 12294:1 12953:1 13034:1 14340:1 18050:1 
0.04250926469721891 0 2293:1 3915:1 6784:1 6794:1 9727:1 17094:1 22947:1 23522:1 23992:1 
0.7481808370397862 0 1678:1 5065:1 6393:1 9975:1 12741:1 18666:1 19205:1 
0.3509358660746138 0 813:1 6196:1 13979:1 14375:1 20137:1 20831:1 
0.5451135587863045 0.03156582530179948 7453:1 7891:1 9647:1 10114:1 12341:1 14308:1 15823:1 
1 0 2694:1 4789:1 8571:1 17233:1 17309:1 22357:1 23128:1 23315:1 
1 0 405:1 6923:1 15913:1 
0 0.01361568701819701 173:1 5778:1 6009:1 6223:1 7749:1 11364:1 13735:1 14350:1 
0.1162621531456766 0 3906:1 6319:1 6749:1 7492:1 9488:1 10109:1 11507:1 12315:1 12427:1 14149:1 18357:1 19802:1 20536:1 21769:1 23490:1 
0.6592714574141824 0 1712:1 2063:1 3101:1 5226:1 10743:1 12514:1 14453:1 14653:1 16793:1 17722:1 18347:1 20095:1 
1 0 8079:1 16061:1 17292:1 20095:1 23578:1 
0.1111558373014822 0 2785:1 3638:1 3948:1 6358:1 10776:1 11814:1 11957:1 13800:1 17221:1 
0.3790028185282305 0 417:1 1627:1 3599:1 6935:1 12211:1 20152:1 21063:1 
0 0.02414323531637851 3918:1 6196:1 6606:1 11660:1 12018:1 12745:1 16673:1 16937:1 17591:1 21238:1 
0.1822593764024029 0 3716:1 6749:1 6894:1 13212:1 16080:1 16178:1 22218:1 22981:1 
1 0 14110:1 
0.3980501328844511 0 6029:1 6780:1 6916:1 8791:1 17256:1 17368:1 19205:1 19392:1 
1 0 4420:1 5305:1 5574:1 10430:1 14453:1 15689:1 19205:1 21008:1 
0.2208847192407163 0.02373590434879302 1456:1 2151:1 3043:1 3613:1 4207:1 13507:1 15609:1 19786:1 
0.8403326352172102 0.03782055661307178 2376:1 7826:1 8464:1 12405:1 13807:1 13811:1 14101:1 15133:1 17553:1 23776:1 
0.3705655280451541 0 10704:1 13552:1 22392:1 22786:1 23220:1 
0.1153663588042024 0 4098:1 4176:1 4969:1 5850:1 6266:1 7616:1 7684:1 7722:1 7973:1 10433:1 11014:1 13214:1 13227:1 14335:1 14725:1 15018:1 17832:1 18647:1 19065:1 23476:1 
0.1910199925604077 0 2090:1 2185:1 4053:1 6784:1 7684:1 17578:1 17929:1 23522:1 23615:1 
0.3261113685457699 0 2151:1 2298:1 5959:1 8888:1 11221:1 16417:1 22373:1 
0.005947475099041701 0 5353:1 10677:1 12386:1 12925:1 13379:1 15755:1 19205:1 21789:1 
0.3669776354518677 0 12941:1 14045:1 19205:1 19563:1 
0.4271283828604179 0 577:1 2014:1 2249:1 6666:1 7077:1 8102:1 8128:1 15982:1 16900:1 18394:1 19205:1 24051:1 
0 0.003499059120811883 3020:1 8475:1 13676:1 14892:1 17412:1 18297:1 18602:1 
0.6506630265058031 0 5777:1 7379:1 7402:1 12309:1 20933:1 21749:1 23259:1 23468:1 
1 0 3552:1 15901:1 16659:1 18215:1 20127:1 
1 0 345:1 2576:1 6306:1 7467:1 20256:1 21314:1 22088:1 
0.8984555164628468 0 3493:1 3850:1 6375:1 7784:1 20855:1 22279:1 23428:1 
0.1197078875029728 0 1599:1 8546:1 12112:1 12745:1 16797:1 17600:1 22058:1 23836:1 
1 0 1016:1 16841:1 17094:1 19205:1 
0.6610596727795376 0 5145:1 5629:1 10086:1 18082:1 18397:1 20095:1 23222:1 
0 0.008093393074271225 1812:1 10114:1 11686:1 11775:1 13009:1 13191:1 17331:1 17933:1 18136:1 23488:1 
0.220740686750816 0 3006:1 6998:1 8102:1 9445:1 10727:1 17178:1 22914:1 23071:1 23228:1 
0.8525564320600505 0.1177138181236082 612:1 6015:1 6874:1 8702:1 16632:1 16914:1 20905:1 20935:1 
0.3325303166315579 0 2640:1 10149:1 11433:1 13635:1 15123:1 16428:1 17081:1 
0.5130827073914009 0 764:1 3444:1 3766:1 9835:1 11791:1 14435:1 17536:1 
0.5550786626201796 0 7:1 7760:1 16020:1 17796:1 18837:1 
0.09455555821885099 0 1156:1 2526:1 7302:1 10107:1 11860:1 15913:1 17621:1 19638:1 20635:1 23522:1 
0.8588458528545175 0 7389:1 10515:1 20535:1 22379:1 
0.5507610121533481 0 156:1 4610:1 4629:1 4929:1 10442:1 15913:1 
0.214661070142709 0 1259:1 2485:1 3433:1 4418:1 5324:1 7885:1 8674:1 17331:1 20165:1 20971:1 21002:1 23836:1 
0.05314099844089858 0 324:1 4661:1 8489:1 12643:1 14045:1 14949:1 15913:1 17443:1 21314:1 22157:1 23071:1 23689:1 
0.9734525198836417 0 8426:1 10677:1 11347:1 14653:1 17606:1 19292:1 19705:1 
0.3286568401783977 0 4445:1 5221:1 6811:1 13644:1 18179:1 
0.4041087487953551 0 1156:1 6766:1 7302:1 7447:1 8328:1 9402:1 13117:1 14336:1 15516:1 15913:1 17080:1 21319:1 
0.2217617718397985 0 4118:1 6579:1 7203:1 11292:1 13140:1 14005:1 14187:1 18515:1 20095:1 20931:1 20990:1 20991:1 23689:1 23763:1 
0.1783798501883187 0 5623:1 8924:1 15913:1 16542:1 21510:1 22762:1 
0.432637037169276 0 665:1 3006:1 3957:1 8114:1 9716:1 11340:1 14375:1 14504:1 14627:1 14744:1 20021:1 22146:1 22914:1 
0.4429507031174607 0 1191:1 9992:1 13301:1 14317:1 15901:1 20535:1 21570:1 23071:1 
1 0 2014:1 3638:1 3806:1 7940:1 8553:1 13248:1 16080:1 
1 0 5324:1 7224:1 
0.3320156639061965 0 5732:1 16659:1 19287:1 19364:1 
1 0 10135:1 12315:1 12427:1 18602:1 19626:1 21910:1 22084:1 
0.6501429273103759 0 1445:1 4629:1 5268:1 6375:1 7584:1 10052:1 20338:1 22491:1 
0.4516605928590521 0 108:1 7183:1 8734:1 21749:1 23259:1 
0 0.08410898512494143 3384:1 4529:1 7335:1 12816:1 19555:1 20325:1 
1 0 3493:1 10025:1 18938:1 
0.1089336238450562 0 632:1 1478:1 12474:1 22373:1 
1 0 21218:1 
0.9350544167029308 0 3778:1 
0.1100398770127982 0 1191:1 5092:1 7891:1 8847:1 9336:1 11292:1 14918:1 21420:1 21607:1 23705:1 23790:1 
1 0 10501:1 15488:1 16283:1 20067:1 
0.06838635947937317 0.05359013245585316 2787:1 8831:1 12545:1 17989:1 21864:1 
0.6087958432816906 0 3863:1 6094:1 7293:1 7382:1 9391:1 9986:1 19205:1 20037:1 
0.1796201319117235 0.07735024348733419 1608:1 3493:1 4373:1 5024:1 5034:1 7117:1 11579:1 17174:1 19563:1 20612:1 21584:1 21887:1 23291:1 
0.2254333248564095 0 2915:1 6740:1 11186:1 14701:1 15310:1 15913:1 16128:1 20972:1 21715:1 
0 0.01607041834039285 10995:1 14187:1 15249:1 18555:1 18817:1 20935:1 
0.06996214355577821 0.01473764416663893 1157:1 3086:1 6447:1 7547:1 9881:1 10114:1 10472:1 14123:1 16283:1 20972:1 21598:1 22230:1 22378:1 
0.1246204689945915 0 975:1 2151:1 3948:1 4434:1 5387:1 5877:1 6894:1 7795:1 14734:1 14822:1 15187:1 16788:1 19205:1 19596:1 20375:1 21097:1 
1 0 3321:1 5778:1 6196:1 10656:1 11812:1 19026:1 19146:1 19205:1 
0.6756105919099902 0 3906:1 5880:1 6611:1 6697:1 12179:1 18750:1 19254:1 21393:1 21846:1 
0.7524534132512036 0 3860:1 4456:1 14374:1 17251:1 19205:1 21937:1 23658:1 
0.05190891268862424 0.0187447092833254 899:1 4277:1 15112:1 15190:1 16224:1 16868:1 17944:1 18569:1 23088:1 
0.1631133604878051 0 2395:1 5324:1 7862:1 7947:1 17663:1 18014:1 19554:1 19786:1 20886:1 21816:1 
0 0.1413744811093016 4346:1 5341:1 10450:1 11556:1 14080:1 16155:1 17233:1 19369:1 20745:1 
0.3220013480095255 0 1767:1 10928:1 20900:1 20974:1 21218:1 24271:1 
0 0.03733656526732226 199:1 2048:1 8067:1 14375:1 18082:1 19479:1 21584:1 22970:1 23845:1 
0.1906669834427792 0 1191:1 4573:1 12309:1 15443:1 
0.1137933193431023 0 3570:1 12030:1 13419:1 15023:1 15136:1 17663:1 18321:1 
0.1986406894007484 0 1314:1 2634:1 9904:1 12545:1 13542:1 14653:1 22227:1 22795:1 24213:1 
0.3249240087126933 0.0341009749805652 773:1 1139:1 5838:1 5904:1 9426:1 10727:1 10857:1 12101:1 16600:1 17853:1 17864:1 22030:1 23511:1 
0.7154645891544495 0.04897459249948412 2029:1 3251:1 4386:1 11600:1 15349:1 15913:1 
1 0 3894:1 4583:1 6260:1 6741:1 7904:1 15913:1 17217:1 19786:1 
0.6258797646460689 0.03655727060989747 2457:1 4246:1 4650:1 5324:1 6223:1 6251:1 7021:1 9612:1 12991:1 14187:1 19786:1 20145:1 21905:1 22648:1 
0.7218273739164796 0 4163:1 8167:1 10191:1 19205:1 
0.2967394580969018 0 3849:1 7402:1 10387:1 13034:1 22292:1 22357:1 22765:1 23622:1 
1 0 2502:1 5629:1 7962:1 8102:1 12112:1 14436:1 20575:1 22970:1 
0.7061099625392621 0 977:1 4338:1 5324:1 11949:1 16488:1 17722:1 19205:1 21968:1 
0.423772072015708 0 2351:1 5753:1 7904:1 8102:1 9537:1 13801:1 14537:1 15259:1 17722:1 18928:1 19509:1 23496:1 
0.283893750491823 0 6998:1 19205:1 20318:1 23228:1 
1 0 12340:1 19205:1 21749:1 23259:1 
1 0 5215:1 7109:1 15698:1 17661:1 22387:1 
0.09369061309520403 0 3752:1 19552:1 21889:1 22017:1 23071:1 
0.5523443330522938 0 2697:1 6300:1 7031:1 7579:1 10229:1 10356:1 15536:1 16821:1 17427:1 19870:1 21833:1 23511:1 
0.1243214423795094 0.02461002791952738 1382:1 11490:1 18361:1 
0.2659123072853756 0 782:1 2476:1 2493:1 5077:1 5215:1 8046:1 8238:1 11245:1 11908:1 14578:1 15913:1 17414:1 18748:1 19731:1 20609:1 
0.02057428184297093 0 61:1 541:1 3714:1 4480:1 5501:1 7133:1 9579:1 10618:1 11145:1 11988:1 12850:1 13476:1 13541:1 20243:1 21513:1 21841:1 
0.1393571189430099 0 1920:1 4176:1 7684:1 7723:1 7994:1 9662:1 10351:1 10877:1 11011:1 15570:1 15851:1 21222:1 21672:1 22388:1 24176:1 
0.1869165799081831 0 69:1 1207:1 2193:1 4035:1 5556:1 6784:1 8877:1 9898:1 14646:1 15863:1 18645:1 19756:1 20293:1 21895:1 
0.5070221413723024 0 5777:1 7907:1 8739:1 16517:1 18041:1 
0 0.0281498117870592 14123:1 16283:1 16788:1 18286:1 
0.6295454606635399 0 1349:1 2452:1 4156:1 12689:1 23836:1 
0.08391958567532237 0 2634:1 10485:1 15913:1 18742:1 20966:1 22279:1 
0.1680286667835721 0 5324:1 6375:1 6661:1 6766:1 7929:1 8102:1 8235:1 9032:1 9572:1 10553:1 14547:1 16162:1 18215:1 19840:1 23843:1 
0.7300055374992004 0 1042:1 4066:1 5324:1 9576:1 15493:1 21939:1 
0.1554612759702352 0 527:1 2829:1 3006:1 6574:1 7155:1 7610:1 9765:1 10495:1 14489:1 18645:1 20265:1 
1 0 6375:1 10847:1 12253:1 20717:1 23574:1 
0.2706127074184692 0.03520526275236965 419:1 1674:1 2449:1 4372:1 8278:1 11129:1 14130:1 17944:1 18840:1 20210:1 23913:1 
0.6422504767410326 0 576:1 881:1 1473:1 4035:1 5049:1 5324:1 6659:1 12134:1 13753:1 16517:1 18755:1 
0.1441300593920537 0 1156:1 2414:1 4529:1 9031:1 10095:1 15246:1 15973:1 16954:1 18409:1 20536:1 22575:1 
0 0.01135532291122263 4446:1 8810:1 9359:1 11812:1 16234:1 17945:1 20021:1 20040:1 21111:1 
0.7805437348137942 0.1778505247190539 32:1 2249:1 3006:1 3806:1 5334:1 6998:1 8167:1 10130:1 21398:1 23228:1 
0.0828362467587844 0 1444:1 1742:1 6154:1 6295:1 8897:1 21468:1 
0.2049582761392822 0 4053:1 7224:1 19587:1 
0.04911532004768136 0 430:1 5035:1 14305:1 15913:1 17053:1 23071:1 24067:1 
0.05280554741499661 0 667:1 1191:1 3684:1 4845:1 5145:1 6989:1 7191:1 10479:1 15482:1 15913:1 16426:1 17394:1 17704:1 
0.7638043856194271 0 3129:1 3913:1 5065:1 7791:1 10394:1 11148:1 14919:1 15913:1 17159:1 19049:1 20657:1 21044:1 22970:1 
0.04542643954060548 0 1192:1 3493:1 9545:1 15807:1 
0.4942344356319943 0 2790:1 6375:1 6765:1 12705:1 17621:1 19463:1 23330:1 
0.09932563775801299 0 1191:1 4789:1 7079:1 11116:1 18898:1 20717:1 23335:1 
0.6069505782823862 0 10883:1 12209:1 15913:1 16932:1 22947:1 23385:1 23913:1 
0.1280498834366381 0 3951:1 4821:1 6809:1 7622:1 11284:1 18004:1 23071:1 
0.2164179201424394 0.06477969720254806 862:1 4175:1 6850:1 7761:1 11108:1 14802:1 17422:1 20095:1 21238:1 
0.8780179200342499 0 326:1 766:1 9519:1 10061:1 11080:1 11504:1 14642:1 19766:1 23660:1 
0.3713364407710819 0 2059:1 2395:1 3006:1 5324:1 7737:1 7862:1 11803:1 12112:1 14113:1 15913:1 18008:1 22280:1 
0.688829180088347 0 10114:1 16349:1 
1 0 882:1 11792:1 17184:1 18602:1 21577:1 22373:1 
0.06616790599122291 0 7179:1 12565:1 13368:1 19205:1 20547:1 23071:1 
0.8779604345250033 0 2986:1 16882:1 19205:1 20019:1 
0 0.01294001156567303 12056:1 12215:1 12509:1 18321:1 19369:1 20749:1 23749:1 
0.6148117658129642 0 3385:1 4406:1 8873:1 11483:1 15755:1 15913:1 19741:1 19752:1 22506:1 
0.3887665475076182 0 1185:1 12795:1 19832:1 23180:1 
0.07389143583978942 0 2234:1 2431:1 7558:1 7943:1 9746:1 11098:1 15077:1 15976:1 16715:1 17490:1 17621:1 19986:1 21608:1 23071:1 23495:1 24319:1 
0.01963277039569359 0.006376261071901635 1156:1 4458:1 6074:1 7892:1 8167:1 10523:1 13278:1 16937:1 18463:1 20150:1 20375:1 20566:1 21214:1 22511:1 
0.8701037845112798 0 204:1 336:1 3855:1 7154:1 11498:1 14449:1 18750:1 18985:1 19254:1 21647:1 
1 0 4759:1 7851:1 10114:1 14842:1 16408:1 17621:1 
1 0 3493:1 10965:1 12963:1 
0.7131182507368157 0.0684387757797566 5782:1 10431:1 12472:1 15991:1 19786:1 21952:1 
0.1483849533520264 0 782:1 3808:1 5528:1 15770:1 16713:1 17244:1 18321:1 23755:1 
0.2048826934423932 0 4984:1 5324:1 12078:1 14245:1 14279:1 15913:1 17864:1 18984:1 
1 0 9370:1 9718:1 11145:1 14195:1 14653:1 16759:1 20087:1 20590:1 
0.2513238168697103 0 173:1 21111:1 
0.1398448429322586 0 3866:1 7467:1 9936:1 17890:1 18568:1 20317:1 
0.2998969476876442 0 2546:1 3788:1 7677:1 8909:1 10389:1 11617:1 12315:1 15913:1 17704:1 20868:1 22175:1 22634:1 
0.9979149258279083 0 1952:1 2436:1 13415:1 19205:1 
0.06847545920042651 0 1931:1 1972:1 8223:1 10135:1 16345:1 20651:1 21699:1 22034:1 
0.770373797509874 0 5198:1 5579:1 7501:1 19067:1 
0.9320052621907421 0.1824271996707423 2131:1 6463:1 15983:1 19369:1 
1 0 2484:1 3906:1 15913:1 17173:1 
0.4470445126028625 0 1795:1 11415:1 15913:1 17708:1 23728:1 
0.1598158819568232 0 2428:1 5215:1 8506:1 8952:1 
0.1394275060344243 0 7467:1 8173:1 9059:1 9161:1 9878:1 11834:1 13755:1 18093:1 18215:1 
1 0 1314:1 6932:1 6989:1 13249:1 14642:1 19911:1 22090:1 
0.006866419451072194 0.002871725526378965 185:1 848:1 3634:1 7605:1 11415:1 12112:1 19745:1 20040:1 23728:1 
0.4884971735019122 0 4629:1 18060:1 21970:1 23637:1 23836:1 
0.3454929769202486 0 499:1 6283:1 6870:1 10149:1 10349:1 10805:1 10915:1 13616:1 14537:1 19848:1 20612:1 
0.8552164229973951 0 2242:1 17454:1 
0.1988022651610651 0.02405480735696179 612:1 1140:1 3760:1 7021:1 12002:1 14233:1 15689:1 15894:1 17722:1 18286:1 21153:1 21181:1 22769:1 23183:1 
0.2667715197418354 0 1454:1 2566:1 4665:1 4789:1 5592:1 7656:1 8201:1 13848:1 14664:1 14918:1 18884:1 19458:1 21584:1 
0 0.0004882583680312968 4390:1 13364:1 14462:1 14468:1 14594:1 15315:1 16299:1 16885:1 18551:1 20665:1 
0.03121863069434168 0 3074:1 4464:1 6383:1 13106:1 14020:1 15209:1 19205:1 19239:1 21051:1 
0.4246997239678594 0.001405692876504996 654:1 2376:1 5021:1 7589:1 8444:1 10319:1 10543:1 11267:1 14353:1 16488:1 18286:1 20739:1 
0.09769157592357429 0 1210:1 4137:1 9972:1 10927:1 14524:1 20095:1 
0.1972398097744839 0 2376:1 4789:1 5226:1 16759:1 19378:1 23315:1 
0.3507120564735376 0.05638369756884705 2165:1 2787:1 3795:1 5029:1 9454:1 21536:1 
1 0.08134445070532297 13006:1 13727:1 13901:1 19430:1 22543:1 
1 0 503:1 826:1 974:1 4566:1 7093:1 15025:1 16127:1 19205:1 22129:1 
0.2234056580764795 0 6050:1 6069:1 6235:1 11858:1 12689:1 15913:1 19050:1 20060:1 
1 0 71:1 208:1 1314:1 13145:1 18626:1 22334:1 23468:1 
0 0.02742376075119886 2165:1 2847:1 3002:1 3043:1 5976:1 6393:1 8517:1 9648:1 14459:1 16393:1 17578:1 18670:1 21539:1 22048:1 22513:1 22893:1 
0.3931824844386149 0 1678:1 2006:1 2968:1 3101:1 5880:1 12112:1 13296:1 16080:1 
1 0 15315:1 17130:1 19205:1 
0.5670823750999763 0 9486:1 10467:1 
0.3638110038693283 0.008091245417274816 7467:1 12315:1 13301:1 21807:1 23842:1 
0.5553862219630082 0 1599:1 3594:1 4390:1 4610:1 8243:1 9157:1 14447:1 15194:1 23749:1 
0.03587847586001451 0.03286019909719767 612:1 1487:1 2249:1 2356:1 7467:1 10801:1 12322:1 15516:1 
1 0 13384:1 
0.1199556889813815 0 1208:1 16020:1 22006:1 24178:1 
0.2075518105785645 0 992:1 2773:1 5803:1 11103:1 23089:1 
0.02834498919893081 0 223:1 2484:1 6811:1 14015:1 14578:1 17671:1 19205:1 19950:1 19953:1 20024:1 
1 0 7031:1 7372:1 10709:1 14489:1 19205:1 24293:1 
0.1669660015044892 0 7075:1 10217:1 11432:1 18948:1 19205:1 23565:1 
0.178277934348513 0 4100:1 5215:1 11471:1 14499:1 16744:1 19204:1 21297:1 23071:1 
0.1742142710847402 0 950:1 1774:1 3006:1 4846:1 6390:1 21794:1 23902:1 
1 0 120:1 2693:1 15284:1 19759:1 
0.5113362372929574 0 4568:1 5215:1 8834:1 12455:1 14203:1 14822:1 15710:1 16659:1 17772:1 
0.7947181860973044 0 469:1 1076:1 3187:1 4629:1 4783:1 7402:1 13444:1 16080:1 17236:1 18904:1 19093:1 19311:1 20807:1 23689:1 24217:1 
1 0 
1 0 4845:1 6223:1 9511:1 13249:1 13826:1 15913:1 18013:1 
0.0595595355593994 0 1750:1 3006:1 6766:1 10344:1 11292:1 12724:1 13451:1 14293:1 15284:1 22580:1 23274:1 
1 0 6766:1 15901:1 22256:1 22373:1 
0.1955643691853305 0 156:1 541:1 2497:1 5635:1 6393:1 7956:1 14517:1 14564:1 14841:1 14897:1 16514:1 17645:1 19514:1 19928:1 20423:1 20739:1 
0.4948401910337796 0 1666:1 19271:1 20717:1 23506:1 
0.2058804085776442 0 782:1 1751:1 3226:1 4568:1 8739:1 10050:1 10259:1 13270:1 13707:1 14223:1 15284:1 15357:1 17780:1 17781:1 18735:1 19277:1 20021:1 
0.7750127338271241 0 8546:1 15579:1 23491:1 
0.1484997017245465 0.04465642175552371 1712:1 1876:1 4789:1 4800:1 8057:1 8791:1 9975:1 14096:1 14664:1 15443:1 16458:1 18215:1 18414:1 20192:1 21058:1 21732:1 22676:1 23658:1 
0 0.1003419952449466 60:1 813:1 1853:1 3214:1 3261:1 3948:1 8610:1 10661:1 13753:1 14110:1 20452:1 
0.3688936531522157 0 2828:1 7532:1 23172:1 
0.8505271746598154 0 6163:1 7362:1 11062:1 15770:1 20520:1 22373:1 
0.5379851800968132 0 14110:1 14303:1 15989:1 18428:1 19205:1 
1 0 1191:1 5000:1 8146:1 9765:1 12524:1 15315:1 18938:1 22373:1 
1 0.03798569344871223 11961:1 13419:1 13434:1 21747:1 
0.3963195114771154 0.06888527646708215 2138:1 11457:1 20292:1 23565:1 
0.5680528734558609 0 606:1 11311:1 13753:1 14819:1 16162:1 18602:1 19205:1 
0.2760283034112277 0 6423:1 10396:1 19205:1 20254:1 
0.8760212191454207 0 4129:1 12745:1 22740:1 
0.6015505932043752 0 3887:1 4480:1 6749:1 17111:1 21598:1 23171:1 24170:1 
0.09147242750684249 0 8511:1 14375:1 15913:1 
0.03053735992489375 0 3814:1 4568:1 7353:1 7382:1 8901:1 11243:1 16358:1 19201:1 20527:1 24335:1 
1 0 975:1 1191:1 2813:1 6894:1 10228:1 11689:1 14195:1 19003:1 20666:1 21398:1 
0.7558345546217428 0 5810:1 11080:1 15689:1 20933:1 
0.3611415909245723 0 4761:1 10240:1 13383:1 14375:1 15913:1 18060:1 21513:1 22229:1 
0.05117345765260778 0 2869:1 8597:1 14293:1 19205:1 20578:1 21968:1 
1 0.1075622620899258 2580:1 2814:1 4531:1 14215:1 17933:1 19011:1 20140:1 21899:1 23150:1 23578:1 
0.5133730111944234 0 6749:1 8812:1 10888:1 14822:1 16763:1 22373:1 22392:1 
0.7179778774662873 0 1191:1 2921:1 11245:1 16162:1 
0.728586109837478 0 2051:1 12426:1 20924:1 22208:1 
0.5698627219859067 0 1156:1 1314:1 3714:1 5324:1 7532:1 9399:1 15579:1 15687:1 15913:1 19786:1 20021:1 
0 0.0671178220804441 818:1 1084:1 1156:1 6475:1 14110:1 15689:1 16436:1 19827:1 21051:1 21598:1 
0.1107124002518841 0 1021:1 3674:1 5566:1 5880:1 14828:1 18196:1 21864:1 
1 0 13724:1 14537:1 20463:1 20635:1 
0.04648560102252235 0 2808:1 8022:1 11962:1 
0.398687412693245 0 6505:1 6666:1 9296:1 13477:1 14123:1 14653:1 15218:1 15363:1 15913:1 
1 0 14926:1 19552:1 
0.2034755335314101 0 764:1 3264:1 14110:1 15512:1 16035:1 23904:1 
0.4590458989767502 0 5145:1 8464:1 10092:1 14347:1 18784:1 18951:1 19552:1 23597:1 
0.2258985778280947 0 4990:1 9416:1 12806:1 13477:1 15913:1 16662:1 17382:1 19205:1 22569:1 22714:1 
1 0 18801:1 19205:1 
0.0754087591749036 0 1906:1 3894:1 5299:1 6375:1 13835:1 23453:1 
0.2444722796892358 0 537:1 3493:1 4654:1 5592:1 6196:1 6295:1 7877:1 8102:1 10462:1 13183:1 13981:1 16914:1 17750:1 18938:1 20021:1 23732:1 
0.4111823023885459 0 1568:1 5065:1 13582:1 13811:1 15913:1 16882:1 18398:1 19276:1 
0.2098383954995501 0 173:1 538:1 539:1 1551:1 1631:1 4691:1 5065:1 6094:1 9388:1 16132:1 19403:1 22127:1 
0.6519186167536151 0 1924:1 3009:1 3390:1 3448:1 4989:1 7901:1 8625:1 10240:1 14173:1 14247:1 14292:1 15468:1 16864:1 18411:1 
0.3968191752926133 0 15913:1 23728:1 
0.2297076469321701 0 881:1 1744:1 5021:1 8087:1 9119:1 16150:1 17848:1 
0.994320823184049 0 8442:1 11913:1 
0.4037725575826221 0 3814:1 13698:1 
0.2927036125147701 0 3006:1 3850:1 6884:1 7610:1 9544:1 11860:1 15045:1 22220:1 
1 0 12545:1 
1 0 3550:1 3675:1 
0.1291214545368468 0.03624241673137817 1999:1 3316:1 7402:1 8322:1 9198:1 17073:1 21070:1 22900:1 
0 0.130812976838977 124:1 3177:1 6791:1 13928:1 15074:1 19771:1 20901:1 20903:1 
0.08528685832459434 0 14:1 2859:1 3493:1 5473:1 6713:1 8156:1 14293:1 15913:1 18129:1 24170:1 
0 0.01942498554773677 1581:1 1855:1 3493:1 3668:1 3714:1 3866:1 4187:1 7834:1 9708:1 14468:1 19052:1 20672:1 23183:1 
1 0 12078:1 15913:1 
0.4535310482675912 0 2663:1 2935:1 6360:1 7553:1 10114:1 10450:1 11860:1 12830:1 12991:1 18645:1 18815:1 
0.1938109993476268 0 1857:1 2973:1 3493:1 4480:1 5629:1 14534:1 15597:1 15913:1 16528:1 16763:1 17490:1 19046:1 22663:1 24263:1 
0.3671893541582938 0 1263:1 2640:1 4034:1 7003:1 8508:1 13434:1 13558:1 15030:1 15823:1 15913:1 18880:1 19045:1 22257:1 
0.9896564182450714 0 1191:1 6766:1 11068:1 13895:1 21404:1 
0.4111621858012039 0 4182:1 4557:1 15928:1 20990:1 
0.1641420659230372 0 825:1 8734:1 8805:1 10674:1 13354:1 17361:1 20633:1 
0 0.03022723564570349 734:1 6885:1 8143:1 13212:1 14447:1 14653:1 15924:1 18666:1 19049:1 23376:1 23913:1 
0.1962384692132801 0 757:1 2001:1 3593:1 14489:1 17639:1 18978:1 20808:1 23649:1 
0 0.006834613085416495 2753:1 4006:1 4390:1 8593:1 8639:1 10744:1 12054:1 15894:1 16910:1 20127:1 21807:1 22273:1 23735:1 24267:1 
0.006201118695527711 0 2014:1 3582:1 5320:1 7560:1 12991:1 14653:1 21432:1 22625:1 
1 0 4989:1 8529:1 11292:1 11667:1 18602:1 19205:1 
0.3600875355210476 0 2559:1 4405:1 6223:1 7034:1 7402:1 12452:1 12827:1 15689:1 17536:1 20788:1 24223:1 
0.8310728080120391 0 5069:1 12555:1 12985:1 17621:1 20522:1 20717:1 
0.06299539639864239 0 2507:1 2559:1 5268:1 10468:1 11230:1 12315:1 12427:1 19573:1 20536:1 21380:1 21392:1 22084:1 22970:1 
1 0 2853:1 6791:1 6811:1 7656:1 20622:1 22146:1 
0.3420612838715122 0 10503:1 18251:1 19672:1 
0.05427898138223571 0 165:1 3894:1 4653:1 6038:1 6569:1 6992:1 9013:1 12705:1 12912:1 16954:1 
0.7244251328933011 0 765:1 4811:1 6894:1 16727:1 17895:1 18022:1 22552:1 
0 0.01029249744660071 2918:1 5511:1 10114:1 14029:1 14215:1 14584:1 19243:1 21352:1 21577:1 22893:1 
0.5536951391591313 0 2608:1 6319:1 16763:1 22210:1 
0.4838990292652809 0 2064:1 2165:1 8433:1 15913:1 23094:1 
0.7823890804060958 0.1845713050656108 10150:1 11553:1 22543:1 
1 0 6850:1 12422:1 16178:1 16911:1 19205:1 
0.08032073140419364 0 3633:1 6622:1 6989:1 7339:1 8828:1 11119:1 16321:1 19205:1 20183:1 20373:1 21214:1 21589:1 
1 0 6667:1 
0.5549298600848387 0 22447:1 24256:1 
0.2928096785715085 0 2869:1 9544:1 10049:1 14071:1 
0.8662646264926028 0 4182:1 12661:1 16759:1 
0.002161429843192535 0 6128:1 6989:1 9189:1 9229:1 9765:1 11772:1 13890:1 13959:1 17782:1 18742:1 19205:1 21572:1 
1 0 5675:1 5773:1 19205:1 
0.05582004098962962 0 1191:1 2207:1 3006:1 3047:1 5226:1 5436:1 6281:1 7302:1 7904:1 8102:1 10728:1 11164:1 14401:1 14622:1 14907:1 17933:1 21954:1 24165:1 
1 0 6989:1 14723:1 15311:1 20575:1 22334:1 
1 0 2474:1 5040:1 7468:1 8506:1 9641:1 10994:1 13550:1 15559:1 16221:1 16597:1 22453:1 23071:1 
0 0.01367972456346443 1156:1 2675:1 3219:1 3264:1 4610:1 6932:1 11245:1 11319:1 13524:1 14949:1 16759:1 21393:1 22264:1 22373:1 
0.2438769502558004 0 1404:1 1423:1 4610:1 8529:1 8865:1 12758:1 15803:1 19088:1 20900:1 
1 0 4761:1 8557:1 8587:1 10017:1 10769:1 13698:1 16475:1 17204:1 19205:1 20520:1 24107:1 
0.4758031544510294 0 5588:1 9941:1 10077:1 11148:1 13270:1 14822:1 15456:1 17860:1 20140:1 20609:1 20635:1 21306:1 
0.2316826552946227 0 14:1 2509:1 5324:1 6351:1 12745:1 
1 0 2295:1 19634:1 
0.5372540201504495 0 688:1 822:1 2280:1 4776:1 7465:1 8777:1 9312:1 11686:1 16485:1 18215:1 
0.09472791182085592 0 216:1 2918:1 3389:1 3866:1 4692:1 8167:1 14161:1 15935:1 17249:1 18314:1 19911:1 20256:1 21484:1 
0.7037492975035509 0 2276:1 4946:1 12879:1 15881:1 19205:1 
0 0.007967244188681097 60:1 2958:1 3093:1 3948:1 4610:1 14653:1 17314:1 20244:1 
0.3831390043329882 0 2707:1 3154:1 3894:1 5268:1 5592:1 8827:1 13541:1 15698:1 17821:1 19587:1 19786:1 22090:1 22284:1 
1 0 4006:1 15749:1 19262:1 20749:1 
0.03873608296387192 0 1191:1 1481:1 4594:1 4610:1 4827:1 6352:1 9013:1 12112:1 14745:1 
0.6588260510618937 0 1562:1 3371:1 6741:1 8146:1 8828:1 10623:1 15070:1 16080:1 16424:1 19205:1 21238:1 22502:1 
0.5512941854113159 0.01478349974788466 430:1 3473:1 4437:1 6107:1 7739:1 11401:1 13005:1 18107:1 20621:1 24188:1 
0.1131983201716695 0 655:1 2494:1 2694:1 3413:1 3995:1 7899:1 10149:1 13792:1 14293:1 17783:1 18251:1 
0.5552696860076712 0 154:1 2984:1 3052:1 5226:1 8441:1 9479:1 11145:1 16827:1 17263:1 20087:1 21467:1 23367:1 23412:1 
0.2275223923838928 0 741:1 2242:1 3010:1 5613:1 12228:1 12745:1 15315:1 22129:1 
1 0 5574:1 22373:1 
1 0.02459913025046796 6784:1 7780:1 8171:1 15629:1 18920:1 22137:1 
0.4977890945342704 0 44:1 8133:1 11146:1 11464:1 15607:1 18645:1 
0.1013662574083257 0 5065:1 7017:1 7242:1 11969:1 14690:1 19421:1 20245:1 24283:1 
0.5275923837757467 0.03008299165151584 8167:1 8175:1 13479:1 15365:1 15609:1 17401:1 23551:1 24205:1 
1 0 4713:1 9601:1 11248:1 12715:1 16080:1 19403:1 20742:1 23071:1 
0.8989191199490535 0 9929:1 10114:1 15679:1 15689:1 17944:1 19205:1 19323:1 19617:1 
0.6930558161378823 0.02589240139908355 3702:1 6841:1 10246:1 12100:1 12908:1 19870:1 20900:1 21798:1 
0.4309191951081405 0 1191:1 4610:1 6130:1 7382:1 9820:1 14175:1 14303:1 20115:1 
0.008989644387461689 0 1687:1 2634:1 4060:1 5848:1 6757:1 6791:1 6989:1 10281:1 10672:1 11972:1 14453:1 15756:1 15913:1 18602:1 19222:1 21417:1 22460:1 23492:1 23515:1 23836:1 
0.7882626243387791 0 661:1 1267:1 2159:1 3248:1 3973:1 5151:1 5715:1 8192:1 9633:1 10623:1 14877:1 15689:1 17621:1 20256:1 20362:1 21345:1 
0.3281256909586236 0 2452:1 6344:1 7684:1 10340:1 10461:1 17372:1 18234:1 21266:1 21900:1 
0.08780068627787828 0 227:1 1156:1 3814:1 4480:1 5473:1 5581:1 7455:1 8433:1 9488:1 12870:1 16662:1 19195:1 19205:1 20040:1 20590:1 22012:1 
0.3749171193590567 0 6989:1 24347:1 
0.2837694189059405 0.01240864566863406 156:1 799:1 2599:1 10661:1 11667:1 14123:1 14311:1 17320:1 18342:1 23323:1 
1 0 14187:1 15579:1 
0.02568954863780522 0 1813:1 2580:1 2784:1 6041:1 7684:1 7823:1 7974:1 7975:1 7994:1 9138:1 10351:1 10380:1 12601:1 13229:1 14548:1 17017:1 18106:1 19642:1 20618:1 20745:1 21672:1 21808:1 23011:1 
0.0288615521382208 0 1553:1 4563:1 5551:1 6196:1 8623:1 9487:1 11262:1 12477:1 13760:1 14397:1 14496:1 14499:1 15434:1 15913:1 16252:1 19588:1 21623:1 
1 0 19262:1 19489:1 
0.6116281472491041 0 1932:1 6757:1 10100:1 13975:1 19205:1 19277:1 19855:1 23009:1 23439:1 23800:1 
0.5124824379982108 0 12765:1 14289:1 16285:1 
0.6420893761801395 0 1191:1 3043:1 5226:1 15042:1 15443:1 16073:1 
0.663904472106667 0 3570:1 7178:1 12315:1 15260:1 22373:1 
0.02497289767652763 0 3006:1 8251:1 8807:1 18602:1 18898:1 
0.394996759859726 0 1847:1 4318:1 6791:1 7542:1 15913:1 16759:1 
0.1810353987356679 0.01773207978584038 150:1 756:1 1857:1 3545:1 4444:1 8372:1 11878:1 12054:1 13811:1 15028:1 
0.7663322668240964 0 2606:1 3090:1 5035:1 13793:1 19205:1 19832:1 20115:1 20318:1 22970:1 
0.4341273843658606 0 199:1 1314:1 5008:1 6989:1 7102:1 7463:1 17600:1 18709:1 19205:1 
0.02244470499465404 0 2075:1 2441:1 12491:1 13818:1 18559:1 18602:1 19205:1 
0.8903089475406284 0 1191:1 2628:1 3264:1 5324:1 5941:1 6928:1 9157:1 11334:1 15901:1 16303:1 16413:1 18182:1 23364:1 
0.2781632177782065 0 2431:1 2640:1 2918:1 3570:1 5797:1 6162:1 7402:1 14123:1 17490:1 18938:1 20960:1 23058:1 
0.5835803440541218 0 1646:1 7929:1 16056:1 19205:1 
0 0.0356717156757741 818:1 1054:1 1712:1 1742:1 3702:1 4594:1 4629:1 6271:1 7168:1 14553:1 17185:1 18507:1 
0.1095018398697503 0 1191:1 1954:1 7430:1 10093:1 11087:1 11617:1 11845:1 12491:1 12920:1 13438:1 15915:1 19205:1 19919:1 
0.8732345633335193 0 4350:1 4835:1 6989:1 8475:1 11303:1 12682:1 17814:1 18314:1 
0.2682576075339489 0.006481793764902508 762:1 1582:1 3265:1 8725:1 16655:1 22461:1 22947:1 
0.3533121659463252 0 6281:1 10035:1 10384:1 23149:1 
0.2941944973419656 0 5955:1 6162:1 10367:1 12032:1 12960:1 15029:1 15504:1 15739:1 15913:1 19498:1 20530:1 20742:1 23191:1 
1 0 4078:1 6749:1 19551:1 
0.4613510938300072 0 4188:1 5129:1 10149:1 14853:1 18771:1 23149:1 23920:1 
0.01772614857078143 0.01413347805338192 654:1 3562:1 3578:1 5728:1 6932:1 7467:1 14019:1 14653:1 15913:1 17179:1 17445:1 19090:1 19771:1 20320:1 20452:1 20903:1 20933:1 24213:1 
0.163786101205807 0 834:1 1012:1 2634:1 4910:1 11700:1 11902:1 13249:1 13468:1 16059:1 18530:1 20966:1 22030:1 
0.09092707583195 0 556:1 1191:1 9820:1 12315:1 14922:1 15901:1 20021:1 20115:1 
0.3331976050097021 0 1650:1 6093:1 10730:1 15913:1 20095:1 
1 0 2249:1 15913:1 
0 0.001205298942356581 279:1 364:1 4029:1 8392:1 9067:1 9141:1 9227:1 9361:1 9945:1 10049:1 10617:1 13620:1 19493:1 22475:1 22880:1 
0.1589909967756143 0 654:1 4654:1 16321:1 18544:1 
0.2331315907125134 0 3894:1 7302:1 8625:1 10453:1 11615:1 
0.9708226942212982 0 7259:1 8372:1 15865:1 22146:1 
0.3249313625655456 0 1156:1 4359:1 8299:1 9765:1 12409:1 13098:1 15913:1 17621:1 18347:1 19555:1 20991:1 21392:1 23780:1 
0.124789955094701 0 2400:1 4559:1 5526:1 6196:1 8167:1 11119:1 12545:1 15218:1 16744:1 19205:1 19930:1 
0.5942338948631778 0 2016:1 2431:1 3894:1 7224:1 8548:1 10631:1 13575:1 15886:1 16080:1 23581:1 
1 0 3265:1 13950:1 19516:1 24282:1 
0.2139490246183979 0 1191:1 1574:1 4338:1 
0.2585507549896832 0 574:1 699:1 1454:1 1646:1 1970:1 3438:1 3595:1 6630:1 6908:1 7810:1 8729:1 11157:1 12597:1 13727:1 14240:1 19222:1 19996:1 20676:1 
0.6544671772089408 0 3101:1 11160:1 18780:1 19262:1 
0.1400020619367681 0 789:1 6749:1 8175:1 13099:1 14151:1 16408:1 18876:1 19587:1 21153:1 21968:1 22473:1 23973:1 
0.1779791583154793 0 110:1 2136:1 2723:1 4497:1 6162:1 9595:1 10346:1 12051:1 14375:1 15913:1 19840:1 21910:1 22987:1 23574:1 
0.1966193087716009 0 955:1 2559:1 3793:1 6932:1 11669:1 15739:1 19262:1 19620:1 20145:1 23848:1 
0.1475983207034773 0 2244:1 4929:1 4957:1 6261:1 9644:1 11108:1 12662:1 15310:1 15594:1 17019:1 18293:1 19516:1 
0.2350480157505015 0.01071345439478267 2484:1 5118:1 9572:1 13871:1 15443:1 17766:1 20132:1 23097:1 24129:1 
0 0.02241099511229553 634:1 1110:1 6778:1 14195:1 14703:1 14822:1 15207:1 18286:1 19114:1 20723:1 
1 0 880:1 3429:1 3850:1 4640:1 5613:1 7890:1 22791:1 
0.7214516242027159 0 2279:1 2859:1 12422:1 15284:1 19894:1 
0.08914922155017434 0 3006:1 5526:1 23444:1 
0.07022146342139288 0 891:1 18022:1 23522:1 
0.3132380822644333 0 2376:1 4475:1 7147:1 7490:1 14005:1 19412:1 
0.9607135098508321 0 9216:1 19039:1 
0.5329683249462284 0 12215:1 14045:1 15983:1 18357:1 
0 0.02743894397698789 1618:1 2478:1 2620:1 5178:1 6475:1 7771:1 7904:1 11366:1 15837:1 16023:1 16556:1 18558:1 23413:1 
0.09887447443550351 0.05068924606698191 5151:1 6223:1 6798:1 8167:1 8710:1 9931:1 14375:1 19287:1 19587:1 20279:1 21628:1 22730:1 
0.7806368132506287 0 60:1 3154:1 6685:1 7236:1 12770:1 16162:1 19205:1 20416:1 
0 0.01556968238136479 1012:1 4577:1 6496:1 6989:1 7223:1 8596:1 10190:1 12215:1 15689:1 17667:1 17788:1 21777:1 23265:1 23491:1 24145:1 
1 0 7901:1 19205:1 
0 0.03878515934550449 60:1 1674:1 2559:1 5409:1 6749:1 7061:1 7198:1 11145:1 11687:1 18321:1 18938:1 20040:1 20438:1 21029:1 
0.2793662387018567 0 961:1 1546:1 4915:1 5065:1 6916:1 7467:1 9212:1 11371:1 15913:1 15973:1 21218:1 22137:1 22963:1 
0.4079734145053594 0 2167:1 6431:1 7833:1 15445:1 15698:1 19011:1 19953:1 20860:1 
1 0 606:1 13811:1 14653:1 15646:1 
1 0 1293:1 1314:1 3494:1 13501:1 17094:1 
0.005712560773872484 0 9727:1 10114:1 14197:1 14447:1 15646:1 16127:1 16475:1 21920:1 22279:1 
1 0 5065:1 10878:1 11734:1 15913:1 19397:1 
0.1145904937630339 0.007746782993147519 156:1 3047:1 8511:1 12914:1 13116:1 14375:1 17023:1 
0.3744427590424083 0 45:1 1995:1 3562:1 5349:1 7807:1 10521:1 11667:1 12162:1 13967:1 20899:1 23071:1 
0.9515496722399032 0.08475097681887735 766:1 5883:1 8102:1 8181:1 8740:1 11145:1 16433:1 17080:1 20253:1 20996:1 
0 0.04284054421409097 1972:1 6791:1 10339:1 13099:1 13893:1 14375:1 20095:1 20651:1 
0.269270237356849 0 95:1 4710:1 6726:1 9765:1 11039:1 13088:1 16885:1 20414:1 21711:1 22017:1 23050:1 23364:1 
0.2819946006145737 0 7871:1 15162:1 15721:1 21797:1 
0.230055604953313 0 1056:1 2559:1 5412:1 11347:1 12941:1 13811:1 16167:1 17864:1 19073:1 20889:1 21513:1 22910:1 23793:1 
0.5856435951622497 0 1156:1 1658:1 3850:1 5172:1 6076:1 7684:1 9464:1 10135:1 11292:1 12294:1 12533:1 14086:1 14453:1 14949:1 16009:1 17955:1 22255:1 23747:1 23877:1 
0.2746742186392021 0.01667682327308518 3111:1 6158:1 6872:1 7582:1 11966:1 13404:1 13440:1 19498:1 20095:1 21601:1 22317:1 22906:1 
0.09314726810556938 0 8164:1 8901:1 9205:1 12175:1 12188:1 13440:1 15383:1 15927:1 16162:1 19628:1 19911:1 22061:1 22249:1 22762:1 
0.2099482262819042 0 1423:1 5069:1 11624:1 19529:1 19874:1 
0.5793034467832556 0 6437:1 7302:1 11506:1 15315:1 19205:1 19329:1 22589:1 23828:1 
0.251499483775546 0 3431:1 3915:1 4860:1 5135:1 5951:1 10793:1 14070:1 14653:1 
1 0 14653:1 15154:1 16371:1 
0.01747682060323414 0 1156:1 3509:1 5324:1 6375:1 9572:1 9881:1 10294:1 12528:1 12544:1 13175:1 21921:1 23071:1 23274:1 23871:1 23994:1 
0.1283836212370576 0 318:1 6894:1 11772:1 12315:1 14042:1 16664:1 21136:1 
0.9580229142468057 0 2242:1 6604:1 11464:1 15497:1 19421:1 22970:1 
0.3246026532161714 0 1423:1 2159:1 8192:1 8294:1 12524:1 22979:1 23914:1 
0.3016518122707649 0.04551751141189175 5777:1 12079:1 12442:1 13267:1 17663:1 17864:1 18516:1 22718:1 
0.877767417036445 0 3265:1 7300:1 15333:1 15913:1 20927:1 24030:1 
0.4363925937675575 0 3960:1 6375:1 16188:1 18060:1 20755:1 22392:1 23394:1 
0.05819345534747185 0 4121:1 7257:1 15913:1 
0.1495898188655544 0 5172:1 10437:1 14110:1 15689:1 15695:1 17600:1 22334:1 
0.5520218052407556 0 43:1 13718:1 15102:1 20167:1 24293:1 
0.2018283171770071 0 3602:1 7933:1 11507:1 
0 0.09573496643528084 5145:1 5178:1 5412:1 7503:1 13254:1 15459:1 20115:1 22575:1 23766:1 
1 0 156:1 6960:1 7794:1 8146:1 10142:1 18602:1 19205:1 20590:1 21750:1 
0.1997463886127817 0 1132:1 2376:1 8297:1 12732:1 12940:1 22361:1 
0.7927256658227264 0 173:1 2431:1 4137:1 6294:1 10271:1 17934:1 19205:1 20115:1 22105:1 22334:1 
0.0441151391552549 0 1156:1 3373:1 19911:1 21689:1 24335:1 
0.03130175210501526 0 5012:1 7409:1 8473:1 8734:1 10915:1 13475:1 14328:1 18286:1 
0 0.07100601872227741 608:1 1412:1 3293:1 3849:1 4167:1 5613:1 7075:1 12309:1 13425:1 18913:1 22229:1 
0.1229857133514133 0 3814:1 3827:1 4346:1 9765:1 12931:1 17702:1 22970:1 
0.1447222567073506 0 2559:1 4480:1 4598:1 4739:1 5065:1 7018:1 9157:1 10060:1 15085:1 20016:1 
1 0 199:1 3321:1 7532:1 8072:1 9783:1 10135:1 20021:1 20127:1 
1 0 5958:1 15913:1 15914:1 18602:1 22045:1 22771:1 
0.3122718558409084 0 1156:1 1640:1 2693:1 5592:1 5775:1 6468:1 8917:1 10515:1 14447:1 14664:1 15913:1 
